<?xml version="1.0" encoding="UTF-8"?>
<!-- This network was created in GeNIe Academic, which can be used for academic teaching and research purposes only -->
<smile version="1.0" id="Network1" numsamples="10000" discsamples="10000">
	<nodes>
		<cpt id="BMIcalc">
			<state id="Normal" />
			<state id="Low" />
			<state id="Moderate" />
			<state id="Severe" />
			<probabilities>0.2322672679090443 0.1120330398358694 0.1703507009745256 0.4853489912805608</probabilities>
			<property id="DSL_OUTCOME_ORDER">-1</property>
		</cpt>
		<cpt id="Age">
			<state id="below_55" />
			<state id="between_55_65" />
			<state id="between_65_75" />
			<state id="over_75" />
			<probabilities>0.3674613181740469 0.3005866387416652 0.2060704821336981 0.1258815609505899</probabilities>
			<property id="DSL_OUTCOME_ORDER">-1</property>
		</cpt>
		<cpt id="DM">
			<state id="NO" />
			<state id="YES" />
			<parents>BMIcalc Age</parents>
			<probabilities>0.8052576705391719 0.1947423294608281 0.7385618875226265 0.2614381124773734 0.6783478797496253 0.3216521202503747 0.6795584149729492 0.3204415850270507 0.7320545234692756 0.2679454765307244 0.685551593235937 0.314448406764063 0.6260935397039031 0.3739064602960969 0.620515920999597 0.3794840790004031 0.6823273401826484 0.3176726598173516 0.643418467583497 0.3565815324165029 0.6046204998853474 0.3953795001146526 0.5910301953818827 0.4089698046181172 0.6062617041198503 0.3937382958801498 0.5704850652610441 0.4295149347389558 0.542869365515378 0.4571306344846219 0.5867100316285732 0.4132899683714269</probabilities>
			<property id="DSL_OUTCOME_ORDER">-1</property>
		</cpt>
		<cpt id="isMale">
			<state id="FEMALE" />
			<state id="MALE" />
			<probabilities>0.6114912805607797 0.3885087194392204</probabilities>
			<property id="DSL_OUTCOME_ORDER">-1</property>
		</cpt>
		<cpt id="HT">
			<state id="NO" />
			<state id="YES" />
			<parents>DM BMIcalc</parents>
			<probabilities>0.3253162676701408 0.6746837323298591 0.2899211365288886 0.7100788634711114 0.2527555988315482 0.7472444011684518 0.1999984841135096 0.8000015158864904 0.2294265232974911 0.770573476702509 0.203083753299736 0.796916246700264 0.1829431673952898 0.8170568326047103 0.1825431849703694 0.8174568150296305</probabilities>
			<property id="DSL_OUTCOME_ORDER">-1</property>
		</cpt>
		<cpt id="AF">
			<state id="NO" />
			<state id="YES" />
			<parents>HT Age</parents>
			<probabilities>0.9822237889011985 0.01777621109880149 0.9775593008739076 0.02244069912609238 0.9457909193730812 0.05420908062691873 0.8148741418764303 0.1851258581235698 0.9598743459224717 0.04012565407752821 0.9385070064632552 0.0614929935367448 0.8953599048185604 0.1046400951814396 0.8232543640897755 0.1767456359102244</probabilities>
			<property id="DSL_OUTCOME_ORDER">-1</property>
		</cpt>
		<cpt id="AntiCoag">
			<state id="NO" />
			<state id="YES" />
			<parents>AF</parents>
			<probabilities>0.9881047608539748 0.01189523914602527 0.6073796921579364 0.3926203078420636</probabilities>
			<property id="DSL_OUTCOME_ORDER">-1</property>
		</cpt>
		<cpt id="Cr">
			<state id="NORMAL" />
			<state id="MILD" />
			<state id="HIGH" />
			<parents>Age</parents>
			<probabilities>0.7934482544704479 0.02196451557871556 0.1845872299508367 0.8129615410137551 0.03639242006275536 0.1506460389234897 0.7639709898436797 0.05905737733253134 0.1769716328237889 0.691067952374485 0.08475938249807598 0.224172665127439</probabilities>
		</cpt>
		<cpt id="AntiHT">
			<state id="NO" />
			<state id="YES" />
			<parents>HT</parents>
			<probabilities>0.9999907711617262 9.228838273838089e-06 0.3126630437805576 0.6873369562194424</probabilities>
		</cpt>
		<cpt id="DLP">
			<state id="NO" />
			<state id="YES" />
			<parents>BMIcalc Age</parents>
			<probabilities>0.186302253996624 0.813697746003376 0.1263653954185132 0.8736346045814868 0.1685180287401922 0.8314819712598078 0.2039040795437929 0.796095920456207 0.1306474661976476 0.8693525338023524 0.0993327965029334 0.9006672034970666 0.1334959623149394 0.8665040376850606 0.1735187424425635 0.8264812575574365 0.114761700913242 0.885238299086758 0.1008877246598268 0.8991122753401731 0.1260605365741802 0.8739394634258197 0.1540852575488454 0.8459147424511545 0.1888693820224719 0.8111306179775282 0.176753890562249 0.8232461094377509 0.2199081370738956 0.7800918629261043 0.2683952974876171 0.731604702512383</probabilities>
			<property id="DSL_OUTCOME_ORDER">-1</property>
		</cpt>
		<cpt id="SBP">
			<state id="NORMAL" />
			<state id="MILD" />
			<state id="MODERATE" />
			<state id="HIGH" />
			<parents>HT AntiHT isMale</parents>
			<probabilities>0.4433484029746937 0.1934687817666256 0.1068495532609277 0.2563332619977529 0.2965559326070131 0.2188634875275347 0.1339673751265107 0.3506132047389415 0.25 0.25 0.25 0.25 0.25 0.25 0.25 0.25 0.1992749198595634 0.1363837582048542 0.1202946115096932 0.5440467104258893 0.1511744394236508 0.1298171199590758 0.1217601671071703 0.5972482735101031 0.1768030988619224 0.1579905388728918 0.1533833813245578 0.5118229809406279 0.1564332681713169 0.1548535829236025 0.156393776040124 0.5323193728649566</probabilities>
			<property id="DSL_OUTCOME_ORDER">-1</property>
		</cpt>
		<cpt id="Statin">
			<state id="NO" />
			<state id="YES" />
			<parents>DLP</parents>
			<probabilities>0.9999875156054931 1.248439450686642e-05 0.4303598042400895 0.5696401957599104</probabilities>
			<property id="DSL_OUTCOME_ORDER">-1</property>
		</cpt>
		<cpt id="AntiDM">
			<state id="NO" />
			<state id="YES" />
			<parents>DM</parents>
			<probabilities>0.9999966647099632 3.335290036821602e-06 0.3842341967185808 0.6157658032814192</probabilities>
			<property id="DSL_OUTCOME_ORDER">-1</property>
		</cpt>
		<cpt id="AntiDLP">
			<state id="NO" />
			<state id="YES" />
			<parents>DLP</parents>
			<probabilities>0.9999875156054931 1.248439450686642e-05 0.8258969320977149 0.1741030679022851</probabilities>
			<property id="DSL_OUTCOME_ORDER">-1</property>
		</cpt>
		<cpt id="LDL">
			<state id="NORMAL" />
			<state id="MILD" />
			<state id="MOD_HIGH" />
			<state id="HIGH" />
			<parents>DLP Statin AntiDLP</parents>
			<probabilities>0.09491260923845193 0.109769038701623 0.02437578027465668 0.7709425717852684 0.25 0.25 0.25 0.25 0.25 0.25 0.25 0.25 0.25 0.25 0.25 0.25 0.1460978404231225 0.2110849842128402 0.227298463916015 0.4155187114480223 0.3217647759771211 0.2425226406101049 0.1841336987607245 0.2515788846520496 0.2582088587512193 0.2609235994405989 0.2119995064107838 0.2688680353973981 0.2673728813559322 0.2792372881355932 0.2125049270792274 0.2408849034292471</probabilities>
			<property id="DSL_OUTCOME_ORDER">-1</property>
		</cpt>
		<cpt id="HDL">
			<state id="LOW" />
			<state id="MOD" />
			<state id="MOD_HIGH" />
			<state id="HIGH" />
			<parents>DLP Statin AntiDLP LDL isMale</parents>
			<probabilities>0.01165205353022612 0.2091601292108906 0.2599215505306876 0.5192662667281956 0.04538508557457212 0.2849938875305624 0.2544315403422983 0.4151894865525672 0.01079586009992862 0.2013740185581727 0.2952355460385439 0.4925945753033548 0.02835213032581453 0.3203320802005012 0.2846177944862155 0.3666979949874686 0.02304347826086956 0.2386956521739131 0.3013043478260869 0.4369565217391305 0.1073200992555831 0.3529776674937965 0.2586848635235732 0.2810173697270472 0.0007633367899527595 0.002894918769443484 0.002318815531743288 0.9940229289088605 0.001645710059171598 0.004382396449704142 0.002459319526627219 0.9915125739644971 0.25 0.25 0.25 0.25 0.25 0.25 0.25 0.25 0.25 0.25 0.25 0.25 0.25 0.25 0.25 0.25 0.25 0.25 0.25 0.25 0.25 0.25 0.25 0.25 0.25 0.25 0.25 0.25 0.25 0.25 0.25 0.25 0.25 0.25 0.25 0.25 0.25 0.25 0.25 0.25 0.25 0.25 0.25 0.25 0.25 0.25 0.25 0.25 0.25 0.25 0.25 0.25 0.25 0.25 0.25 0.25 0.25 0.25 0.25 0.25 0.25 0.25 0.25 0.25 0.25 0.25 0.25 0.25 0.25 0.25 0.25 0.25 0.25 0.25 0.25 0.25 0.25 0.25 0.25 0.25 0.25 0.25 0.25 0.25 0.25 0.25 0.25 0.25 0.25 0.25 0.25 0.25 0.25 0.25 0.25 0.25 0.2844754653130288 0.2303299492385787 0.1782148900169205 0.3069796954314721 0.4947113483590352 0.2406583629893239 0.1095788849347568 0.1550514037168841 0.1752569451511143 0.2462857433601303 0.2151470438587565 0.363310267629999 0.4070858946668882 0.3122196378135903 0.1371074929390264 0.1435869745804951 0.1097326537911302 0.2516317954220315 0.2624508226037196 0.3761847281831188 0.2885269603674094 0.3614985541758802 0.1704796734138459 0.1794948120428644 0.03482363225010284 0.09801779103249691 0.1038795763060469 0.7632790004113534 0.07870646342501916 0.1249467768032019 0.06329302563229158 0.7330537341394874 0.176980198019802 0.2547736916548798 0.2314356435643564 0.3368104667609618 0.3806288819875776 0.3161878881987578 0.1376164596273292 0.1655667701863354 0.1628888888888889 0.2491111111111111 0.2615555555555555 0.3264444444444445 0.3807565789473684 0.3182565789473684 0.1636513157894737 0.1373355263157895 0.1289149888143177 0.3000559284116331 0.2597874720357942 0.311241610738255 0.3051301684532925 0.4107963246554365 0.1596477794793262 0.1244257274119449 0.06875963020030817 0.2451848998459168 0.2390215716486903 0.4470338983050848 0.1941717791411043 0.3168711656441718 0.1610429447852761 0.3279141104294478 0.1706691959961253 0.2658419438165967 0.2344405876654827 0.3290482725217952 0.3492175273865415 0.3165623369848722 0.1622587376108503 0.1719613980177361 0.1226213046836599 0.280966926479882 0.2673442876202514 0.3290674812162068 0.2922579429863117 0.3536669596885596 0.1823747331407761 0.1717003641843526 0.1101198008942884 0.2792752889563823 0.2786847211676369 0.3319201889816924 0.2828458306399483 0.382554945054945 0.1771574014221073 0.1574418228829993 0.07583118514111969 0.2457697137946989 0.2568081168616564 0.4215909842025249 0.18504063991743 0.3348277641594633 0.1685266417236486 0.3116049541994582 0.1877708559046587 0.2893418201516793 0.2294826652221018 0.2934046587215601 0.4184448755253799 0.3204817329453605 0.1281118655027481 0.1329615260265115 0.1543317118369238 0.3123117905953208 0.2546328468844105 0.2787236506833449 0.3587035030697003 0.3695377392560492 0.1492416034669556 0.1225171542072951 0.1431798309530749 0.3002768872048965 0.2679248032643544 0.2886184785776741 0.3472222222222223 0.3803516819571865 0.152013251783894 0.1204128440366973 0.1079756884147854 0.3118953113371372 0.2677375341106425 0.3123914661374348 0.2570845341018251 0.3939721421709894 0.1557396733909702 0.1932036503362152</probabilities>
			<property id="DSL_OUTCOME_ORDER">1</property>
		</cpt>
		<cpt id="TG">
			<state id="NORMAL" />
			<state id="MILD" />
			<state id="MOD_HIGH" />
			<state id="HIGH" />
			<parents>DLP Statin AntiDLP</parents>
			<probabilities>0.3094444444444445 0.002927590511860175 0.0009550561797752808 0.6866729088639201 0.25 0.25 0.25 0.25 0.25 0.25 0.25 0.25 0.25 0.25 0.25 0.25 0.5398842274949708 0.1312965454763459 0.05810274310227682 0.2707164839264065 0.602627502383222 0.1544625834127741 0.07927192564346996 0.1636379885605338 0.6755150368429094 0.1568937960536367 0.0658500899037501 0.1017410771997038 0.6112435947970043 0.1738372093023256 0.0885001970831691 0.126418998817501</probabilities>
			<property id="DSL_OUTCOME_ORDER">-1</property>
		</cpt>
		<cpt id="AntiPL">
			<state id="NO" />
			<state id="YES" />
			<parents>Age DM HT</parents>
			<probabilities>0.9729645144205307 0.0270354855794694 0.9006334335826258 0.09936656641737418 0.9529326976383191 0.04706730236168089 0.7525787042011389 0.2474212957988611 0.9454118651301751 0.05458813486982501 0.8215968823636034 0.1784031176363966 0.9118671620993962 0.08813283790060381 0.6109355842686033 0.3890644157313968 0.9194364161849711 0.0805635838150289 0.7630829910950271 0.236917008904973 0.898675171736997 0.1013248282630029 0.5419893305799346 0.4580106694200654 0.895484340859432 0.1045156591405681 0.7020490325682009 0.2979509674317991 0.8837638376383764 0.1162361623616236 0.5105391926225652 0.4894608073774349</probabilities>
			<property id="DSL_OUTCOME_ORDER">-1</property>
		</cpt>
		<cpt id="PG">
			<state id="NORNAL" />
			<state id="MILD" />
			<state id="HIGH" />
			<parents>DM AntiDM</parents>
			<probabilities>0.55652204849067 0.2317848693455716 0.2116930821637583 0.3333333333333333 0.3333333333333333 0.3333333333333333 0.241440883521701 0.2899313619239304 0.4686277545543686 0.1968956300518468 0.3178694490065372 0.4852349209416159</probabilities>
		</cpt>
		<cpt id="Stroke_2">
			<state id="NO" />
			<state id="YES" />
			<parents>AntiPL SBP AntiCoag AF Age HT AntiHT Statin</parents>
			<probabilities>0.9973426243061297 0.00265737569387032 0.9983759203118233 0.0016240796881767 0.5 0.5 0.5 0.5 0.9899099658491152 0.01009003415088482 0.9952279957582185 0.004772004241781549 0.9943035648658582 0.00569643513414186 0.9943014705882353 0.005698529411764706 0.9927194018103108 0.007280598189689099 0.9976568132660417 0.002343186733958183 0.5 0.5 0.5 0.5 0.9789567279193835 0.02104327208061648 0.9912974683544303 0.00870253164556962 0.9901793339026473 0.009820666097352691 0.9934120854157201 0.006587914584279872 0.9898648648648649 0.01013513513513514 0.9976993865030676 0.002300613496932515 0.5 0.5 0.5 0.5 0.9751474304970513 0.02485256950294861 0.9865591397849464 0.01344086021505377 0.9796918767507002 0.02030812324929972 0.9923423423423423 0.007657657657657658 0.9652777777777777 0.03472222222222222 0.994949494949495 0.005050505050505051 0.5 0.5 0.5 0.5 0.9680050188205771 0.03199498117942284 0.9500000000000001 0.05 0.9820143884892085 0.01798561151079137 0.9802325581395349 0.01976744186046512 0.9732824427480916 0.0267175572519084 0.98 0.02 0.5 0.5 0.5 0.5 0.8839285714285714 0.1160714285714286 0.9375 0.0625 0.969298245614035 0.03070175438596491 0.9492753623188406 0.05072463768115942 0.9246575342465753 0.07534246575342465 0.9772727272727273 0.02272727272727273 0.5 0.5 0.5 0.5 0.8629032258064516 0.1370967741935484 0.9642857142857142 0.03571428571428571 0.9671052631578947 0.03289473684210526 0.9800000000000001 0.02 0.9262295081967213 0.07377049180327869 0.9375 0.0625 0.5 0.5 0.5 0.5 0.8294117647058823 0.1705882352941177 0.75 0.25 0.9085365853658537 0.09146341463414634 0.8333333333333334 0.1666666666666667 0.9196428571428571 0.08035714285714285 0.9 0.1 0.5 0.5 0.5 0.5 0.8738317757009345 0.1261682242990654 0.9166666666666666 0.08333333333333333 0.9096385542168676 0.09036144578313253 0.8636363636363636 0.1363636363636364 0.9736842105263157 0.02631578947368421 0.9166666666666666 0.08333333333333333 0.5 0.5 0.5 0.5 0.9722222222222222 0.02777777777777778 0.9583333333333333 0.04166666666666666 0.96875 0.03125 0.9886363636363636 0.01136363636363636 0.9375 0.0625 0.9500000000000001 0.05 0.5 0.5 0.5 0.5 0.9444444444444444 0.05555555555555555 0.9166666666666666 0.08333333333333333 0.9750000000000001 0.025 0.9868421052631579 0.0131578947368421 0.9 0.1 0.875 0.125 0.5 0.5 0.5 0.5 0.9500000000000001 0.05 0.75 0.25 0.9791666666666666 0.02083333333333333 0.9545454545454546 0.04545454545454546 0.8333333333333333 0.1666666666666667 0.8333333333333333 0.1666666666666667 0.5 0.5 0.5 0.5 0.9444444444444444 0.05555555555555555 0.875 0.125 0.96875 0.03125 0.98 0.02 0.9166666666666666 0.08333333333333333 0.7857142857142857 0.2142857142857143 0.5 0.5 0.5 0.5 0.75 0.25 0.8333333333333333 0.1666666666666667 0.9375 0.0625 0.9887218045112781 0.0112781954887218 0.9444444444444444 0.05555555555555555 0.8333333333333333 0.1666666666666667 0.5 0.5 0.5 0.5 0.9166666666666666 0.08333333333333333 0.9 0.1 0.9734042553191489 0.02659574468085106 0.9713114754098361 0.02868852459016394 0.9444444444444444 0.05555555555555555 0.8333333333333333 0.1666666666666667 0.5 0.5 0.5 0.5 0.9166666666666666 0.08333333333333333 0.9 0.1 0.9675324675324676 0.03246753246753247 0.9452554744525548 0.05474452554744525 0.9 0.1 0.75 0.25 0.5 0.5 0.5 0.5 0.9166666666666666 0.08333333333333333 0.875 0.125 0.9407894736842105 0.05921052631578947 0.9766355140186915 0.02336448598130841 0.996455911539552 0.003544088460447973 0.9988753936122358 0.001124606387764282 0.5 0.5 0.5 0.5 0.9876946258161728 0.01230537418382722 0.9938488576449912 0.006151142355008787 0.9958677685950413 0.004132231404958678 0.9969954047366562 0.003004595263343938 0.9935461956521738 0.006453804347826087 0.9971061093247588 0.002893890675241158 0.5 0.5 0.5 0.5 0.981161210623842 0.01883878937615812 0.9879385964912281 0.01206140350877193 0.9900159744408945 0.009984025559105431 0.9959128065395095 0.004087193460490463 0.992462311557789 0.007537688442211055 0.9966740576496674 0.003325942350332594 0.5 0.5 0.5 0.5 0.970335339638865 0.029664660361135 0.9791666666666666 0.02083333333333333 0.9853351955307262 0.01466480446927374 0.9894366197183099 0.01056338028169014 0.9612676056338029 0.03873239436619719 0.9545454545454546 0.04545454545454546 0.5 0.5 0.5 0.5 0.9734726688102894 0.02652733118971061 0.9545454545454546 0.04545454545454546 0.9849315068493151 0.01506849315068493 0.9858078602620087 0.01419213973799126 0.9326923076923077 0.06730769230769232 0.9705882352941176 0.02941176470588235 0.5 0.5 0.5 0.5 0.9193548387096774 0.08064516129032258 0.875 0.125 0.959016393442623 0.04098360655737705 0.925531914893617 0.07446808510638298 0.9418604651162791 0.05813953488372093 0.9500000000000001 0.05 0.5 0.5 0.5 0.5 0.8035714285714285 0.1964285714285714 0.9375 0.0625 0.9067796610169492 0.09322033898305085 0.8879310344827586 0.1120689655172414 0.9204545454545455 0.07954545454545454 0.8333333333333333 0.1666666666666667 0.5 0.5 0.5 0.5 0.7830188679245282 0.2169811320754717 0.625 0.375 0.9732142857142857 0.02678571428571428 0.91 0.09 0.9791666666666666 0.02083333333333333 0.8333333333333333 0.1666666666666667 0.5 0.5 0.5 0.5 0.7983870967741935 0.2016129032258064 0.875 0.125 0.8488372093023255 0.1511627906976744 0.8333333333333333 0.1666666666666667 0.9545454545454546 0.04545454545454546 0.9444444444444444 0.05555555555555555 0.5 0.5 0.5 0.5 0.9545454545454546 0.04545454545454546 0.9285714285714285 0.07142857142857142 0.9705882352941176 0.02941176470588235 0.9625 0.03750000000000001 0.75 0.25 0.9444444444444444 0.05555555555555555 0.5 0.5 0.5 0.5 0.9583333333333333 0.04166666666666666 0.8333333333333333 0.1666666666666667 0.9 0.1 0.984375 0.015625 0.8333333333333333 0.1666666666666667 0.9 0.1 0.5 0.5 0.5 0.5 0.9545454545454546 0.04545454545454546 0.75 0.25 0.9545454545454546 0.04545454545454546 0.9821428571428571 0.01785714285714286 0.8333333333333333 0.1666666666666667 0.5 0.5 0.5 0.5 0.5 0.5 0.9285714285714285 0.07142857142857142 0.75 0.25 0.9285714285714285 0.07142857142857142 0.9615384615384616 0.03846153846153846 0.9375 0.0625 0.5 0.5 0.5 0.5 0.5 0.5 0.5 0.5 0.75 0.25 0.9583333333333334 0.04166666666666666 0.967948717948718 0.03205128205128205 0.9444444444444444 0.05555555555555555 0.9 0.1 0.5 0.5 0.5 0.5 0.9 0.1 0.5 0.5 0.9509803921568627 0.04901960784313725 0.9356435643564357 0.06435643564356436 0.9 0.1 0.9 0.1 0.5 0.5 0.5 0.5 0.8333333333333333 0.1666666666666667 0.75 0.25 0.9779411764705882 0.02205882352941176 0.9285714285714286 0.07142857142857144 0.9 0.1 0.5 0.5 0.5 0.5 0.5 0.5 0.9 0.1 0.8333333333333333 0.1666666666666667 0.9456521739130435 0.05434782608695652 0.9328358208955224 0.06716417910447761 0.9964383561643835 0.003561643835616438 0.9986595174262735 0.001340482573726542 0.5 0.5 0.5 0.5 0.9818757192174914 0.01812428078250863 0.996173469387755 0.003826530612244898 0.9953178905864959 0.004682109413504189 0.993947175348496 0.006052824651504036 0.9934409687184662 0.006559031281533804 0.9983534577387486 0.001646542261251372 0.5 0.5 0.5 0.5 0.9778877887788779 0.02211221122112211 0.9906417112299465 0.009358288770053475 0.988833746898263 0.01116625310173697 0.992903720751822 0.007096279248177982 0.9823943661971831 0.0176056338028169 0.9982817869415808 0.001718213058419244 0.5 0.5 0.5 0.5 0.9710912052117264 0.02890879478827362 0.9810606060606061 0.01893939393939394 0.9829974811083123 0.01700251889168766 0.986214605067064 0.01378539493293592 0.9825174825174825 0.01748251748251748 0.9909090909090909 0.00909090909090909 0.5 0.5 0.5 0.5 0.9584690553745929 0.04153094462540717 0.9875 0.0125 0.986810551558753 0.013189448441247 0.9820415879017014 0.01795841209829868 0.9558823529411764 0.04411764705882353 0.9375 0.0625 0.5 0.5 0.5 0.5 0.9210526315789473 0.07894736842105263 0.7857142857142857 0.2142857142857143 0.953125 0.046875 0.9270833333333333 0.07291666666666666 0.9750000000000001 0.025 0.9285714285714285 0.07142857142857142 0.5 0.5 0.5 0.5 0.8928571428571428 0.1071428571428571 0.9 0.1 0.9166666666666666 0.08333333333333333 0.9722222222222222 0.02777777777777778 0.9736842105263157 0.02631578947368421 0.9166666666666666 0.08333333333333333 0.5 0.5 0.5 0.5 0.8645833333333333 0.1354166666666667 0.7727272727272727 0.2272727272727273 0.8026315789473684 0.1973684210526316 0.8859649122807017 0.1140350877192982 0.9285714285714285 0.07142857142857142 0.8333333333333333 0.1666666666666667 0.5 0.5 0.5 0.5 0.8308823529411764 0.1691176470588235 0.7000000000000001 0.3 0.9102564102564102 0.08974358974358974 0.8720930232558139 0.1279069767441861 0.75 0.25 0.8333333333333333 0.1666666666666667 0.5 0.5 0.5 0.5 0.9444444444444444 0.05555555555555555 0.8333333333333333 0.1666666666666667 0.9722222222222222 0.02777777777777778 0.9605263157894737 0.03947368421052631 0.5 0.5 0.875 0.125 0.5 0.5 0.5 0.5 0.9166666666666666 0.08333333333333333 0.8333333333333333 0.1666666666666667 0.9642857142857142 0.03571428571428571 0.9878048780487805 0.01219512195121951 0.75 0.25 0.5 0.5 0.5 0.5 0.5 0.5 0.9166666666666666 0.08333333333333333 0.875 0.125 0.9736842105263157 0.02631578947368421 0.9761904761904762 0.02380952380952381 0.5 0.5 0.875 0.125 0.5 0.5 0.5 0.5 0.9444444444444444 0.05555555555555555 0.625 0.375 0.9285714285714285 0.07142857142857142 0.9375 0.0625 0.5 0.5 0.5 0.5 0.5 0.5 0.5 0.5 0.5 0.5 0.5 0.5 0.8541666666666666 0.1458333333333333 0.9222222222222223 0.07777777777777778 0.75 0.25 0.5 0.5 0.5 0.5 0.5 0.5 0.8333333333333333 0.1666666666666667 0.9 0.1 0.9558823529411764 0.04411764705882353 0.9415584415584416 0.05844155844155845 0.75 0.25 0.75 0.25 0.5 0.5 0.5 0.5 0.7857142857142857 0.2142857142857143 0.75 0.25 0.9553571428571428 0.04464285714285714 0.8776595744680851 0.1223404255319149 0.75 0.25 0.75 0.25 0.5 0.5 0.5 0.5 0.5 0.5 0.875 0.125 0.9186046511627907 0.08139534883720931 0.9274193548387096 0.07258064516129031 0.9774005415538429 0.02259945844615705 0.9972858866103739 0.002714113389626055 0.5 0.5 0.5 0.5 0.9087586719524281 0.09124132804757185 0.9804075235109717 0.01959247648902821 0.9894392949399787 0.01056070506002127 0.9920658460625833 0.007934153937416579 0.9771186440677967 0.02288135593220339 0.998262682418346 0.001737317581653926 0.5 0.5 0.5 0.5 0.8969619572523189 0.1030380427476811 0.975 0.025 0.9866601752677702 0.0133398247322298 0.9878663307253679 0.01213366927463201 0.9681705809641532 0.03182941903584672 0.9972727272727273 0.002727272727272727 0.5 0.5 0.5 0.5 0.8966122386693117 0.1033877613306882 0.9626038781163435 0.03739612188365651 0.9836387434554975 0.01636125654450262 0.9824008138351984 0.01759918616480163 0.9693113772455091 0.03068862275449102 0.9853801169590642 0.01461988304093567 0.5 0.5 0.5 0.5 0.8880482456140351 0.1119517543859649 0.9623287671232876 0.03767123287671233 0.9789818742768993 0.02101812572310065 0.9728632478632478 0.02713675213675214 0.8413978494623656 0.1586021505376344 0.8636363636363636 0.1363636363636364 0.5 0.5 0.5 0.5 0.6115384615384616 0.3884615384615385 0.8125 0.1875 0.9136363636363636 0.08636363636363636 0.898936170212766 0.101063829787234 0.8500000000000001 0.15 0.8333333333333333 0.1666666666666667 0.5 0.5 0.5 0.5 0.4888475836431226 0.5111524163568772 0.6428571428571428 0.3571428571428571 0.8624999999999999 0.1375 0.8848684210526315 0.1151315789473684 0.8191489361702128 0.1808510638297872 0.9285714285714285 0.07142857142857142 0.5 0.5 0.5 0.5 0.5248138957816377 0.4751861042183623 0.7222222222222222 0.2777777777777778 0.8786982248520709 0.121301775147929 0.7827380952380952 0.2172619047619047 0.8834745762711864 0.1165254237288136 0.9166666666666666 0.08333333333333333 0.5 0.5 0.5 0.5 0.5892857142857143 0.4107142857142857 0.5625 0.4375 0.8162878787878788 0.1837121212121212 0.8398876404494382 0.1601123595505618 0.8500000000000001 0.15 0.4166666666666666 0.5833333333333333 0.5 0.5 0.5 0.5 0.9807692307692308 0.01923076923076923 0.7857142857142857 0.2142857142857143 0.9385964912280701 0.06140350877192982 0.9727272727272727 0.02727272727272727 0.9375 0.0625 0.9 0.1 0.5 0.5 0.5 0.5 0.9375 0.0625 0.9285714285714285 0.07142857142857142 0.9239130434782609 0.07608695652173914 0.8773584905660377 0.1226415094339623 0.875 0.125 0.8333333333333333 0.1666666666666667 0.5 0.5 0.5 0.5 0.9 0.1 0.9375 0.0625 0.9545454545454545 0.04545454545454546 0.9812500000000001 0.01875 0.5 0.5 0.75 0.25 0.5 0.5 0.5 0.5 0.9782608695652174 0.02173913043478261 0.9166666666666666 0.08333333333333333 0.9125000000000001 0.08750000000000001 0.9262295081967213 0.07377049180327869 0.9583333333333333 0.04166666666666666 0.7000000000000001 0.3 0.5 0.5 0.5 0.5 0.625 0.375 0.5 0.5 0.8457446808510638 0.1542553191489362 0.9121621621621622 0.08783783783783784 0.9285714285714285 0.07142857142857142 0.8333333333333333 0.1666666666666667 0.5 0.5 0.5 0.5 0.9642857142857142 0.03571428571428571 0.5 0.5 0.9226190476190476 0.07738095238095238 0.9313725490196079 0.06862745098039216 0.7857142857142857 0.2142857142857143 0.875 0.125 0.5 0.5 0.5 0.5 0.8076923076923077 0.1923076923076923 0.4375 0.5625 0.8773584905660378 0.1226415094339623 0.880859375 0.119140625 0.875 0.125 0.9285714285714285 0.07142857142857142 0.5 0.5 0.5 0.5 0.9736842105263157 0.02631578947368421 0.5833333333333333 0.4166666666666666 0.90234375 0.09765625 0.8807531380753137 0.1192468619246862 0.972 0.028 0.9839285714285714 0.01607142857142857 0.5 0.5 0.5 0.5 0.9855769230769231 0.01442307692307692 0.9437869822485206 0.05621301775147929 0.9866412213740458 0.0133587786259542 0.9759568204121687 0.02404317958783121 0.9609375 0.0390625 0.980072463768116 0.01992753623188406 0.5 0.5 0.5 0.5 0.9337349397590362 0.06626506024096386 0.9880382775119617 0.01196172248803828 0.9853556485355648 0.01464435146443514 0.9685516445470282 0.03144835545297172 0.9848484848484849 0.01515151515151515 0.9764150943396226 0.02358490566037736 0.5 0.5 0.5 0.5 0.9702380952380952 0.02976190476190476 0.9201680672268907 0.07983193277310924 0.9765957446808511 0.02340425531914894 0.9721798780487805 0.02782012195121951 0.9615384615384616 0.03846153846153846 0.9838709677419355 0.01612903225806452 0.5 0.5 0.5 0.5 0.9732142857142857 0.02678571428571428 0.9375 0.0625 0.9487951807228916 0.05120481927710844 0.9679860302677532 0.0320139697322468 0.75 0.25 0.875 0.125 0.5 0.5 0.5 0.5 0.9 0.1 0.75 0.25 0.9482758620689655 0.05172413793103448 0.9307692307692308 0.06923076923076923 0.875 0.125 0.9166666666666666 0.08333333333333333 0.5 0.5 0.5 0.5 0.9375 0.0625 0.75 0.25 0.9074074074074073 0.09259259259259259 0.8917910447761194 0.1082089552238806 0.8333333333333333 0.1666666666666667 0.75 0.25 0.5 0.5 0.5 0.5 0.9 0.1 0.5833333333333333 0.4166666666666666 0.8658536585365854 0.1341463414634146 0.9150943396226415 0.0849056603773585 0.75 0.25 0.9166666666666666 0.08333333333333333 0.5 0.5 0.5 0.5 0.9375 0.0625 0.75 0.25 0.9324324324324325 0.06756756756756757 0.8677884615384616 0.1322115384615385 0.875 0.125 0.9166666666666666 0.08333333333333333 0.5 0.5 0.5 0.5 0.9 0.1 0.8333333333333333 0.1666666666666667 0.8870967741935484 0.1129032258064516 0.9603174603174602 0.03968253968253968 0.5 0.5 0.8333333333333333 0.1666666666666667 0.5 0.5 0.5 0.5 0.8333333333333333 0.1666666666666667 0.8333333333333333 0.1666666666666667 0.9444444444444444 0.05555555555555555 0.9615384615384616 0.03846153846153846 0.5 0.5 0.8333333333333333 0.1666666666666667 0.5 0.5 0.5 0.5 0.75 0.25 0.8333333333333333 0.1666666666666667 0.9722222222222222 0.02777777777777778 0.9528301886792453 0.04716981132075471 0.5 0.5 0.75 0.25 0.5 0.5 0.5 0.5 0.8333333333333333 0.1666666666666667 0.8333333333333333 0.1666666666666667 0.9166666666666666 0.08333333333333333 0.9324324324324325 0.06756756756756757 0.9166666666666666 0.08333333333333333 0.875 0.125 0.5 0.5 0.5 0.5 0.75 0.25 0.8333333333333333 0.1666666666666667 0.9596774193548386 0.04032258064516129 0.9105263157894736 0.08947368421052632 0.75 0.25 0.8333333333333333 0.1666666666666667 0.5 0.5 0.5 0.5 0.875 0.125 0.75 0.25 0.9418604651162791 0.05813953488372093 0.9461538461538461 0.05384615384615385 0.5 0.5 0.75 0.25 0.5 0.5 0.5 0.5 0.75 0.25 0.7857142857142857 0.2142857142857143 0.90625 0.09375 0.9615384615384616 0.03846153846153846 0.8333333333333333 0.1666666666666667 0.5 0.5 0.5 0.5 0.5 0.5 0.75 0.25 0.75 0.25 0.9166666666666666 0.08333333333333333 0.915625 0.08437500000000001 0.9903846153846154 0.009615384615384616 0.9425675675675677 0.05743243243243244 0.5 0.5 0.5 0.5 0.9578313253012049 0.04216867469879518 0.9476744186046512 0.05232558139534883 0.9764397905759163 0.02356020942408377 0.9798969072164949 0.02010309278350516 0.9891304347826086 0.0108695652173913 0.9664948453608248 0.03350515463917526 0.5 0.5 0.5 0.5 0.9931506849315068 0.00684931506849315 0.9711538461538461 0.02884615384615384 0.965587044534413 0.03441295546558704 0.9769410391126678 0.02305896088733217 0.9864864864864865 0.01351351351351351 0.9715909090909092 0.02840909090909091 0.5 0.5 0.5 0.5 0.9626865671641791 0.03731343283582089 0.95679012345679 0.04320987654320987 0.9727722772277227 0.02722772277227723 0.9635642135642135 0.03643578643578643 0.9 0.1 0.9750000000000001 0.025 0.5 0.5 0.5 0.5 0.9864864864864865 0.01351351351351351 0.9 0.09999999999999999 0.9821428571428571 0.01785714285714286 0.9643377001455604 0.0356622998544396 0.5 0.5 0.7000000000000001 0.3 0.5 0.5 0.5 0.5 0.5 0.5 0.5 0.5 0.8125 0.1875 0.9249999999999999 0.075 0.5 0.5 0.625 0.375 0.5 0.5 0.5 0.5 0.8333333333333333 0.1666666666666667 0.25 0.75 0.861111111111111 0.1388888888888889 0.8186274509803921 0.1813725490196078 0.75 0.25 0.9166666666666666 0.08333333333333333 0.5 0.5 0.5 0.5 0.9 0.1 0.875 0.125 0.8653846153846154 0.1346153846153846 0.8470149253731343 0.1529850746268657 0.8333333333333333 0.1666666666666667 0.75 0.25 0.5 0.5 0.5 0.5 0.8125 0.1875 0.9166666666666666 0.08333333333333333 0.8953488372093024 0.1046511627906977 0.8966942148760331 0.1033057851239669 0.75 0.25 0.75 0.25 0.5 0.5 0.5 0.5 0.875 0.125 0.8333333333333333 0.1666666666666667 0.90625 0.09375 0.9375 0.0625 0.875 0.125 0.5 0.5 0.5 0.5 0.5 0.5 0.75 0.25 0.75 0.25 0.9285714285714285 0.07142857142857142 0.9875 0.0125 0.5 0.5 0.5 0.5 0.5 0.5 0.5 0.5 0.5 0.5 0.75 0.25 0.8529411764705882 0.1470588235294118 0.9651162790697674 0.03488372093023256 0.75 0.25 0.5 0.5 0.5 0.5 0.5 0.5 0.75 0.25 0.875 0.125 0.9 0.1 0.9558823529411764 0.04411764705882353 0.5 0.5 0.5 0.5 0.5 0.5 0.5 0.5 0.75 0.25 0.75 0.25 0.9761904761904762 0.02380952380952381 0.9339622641509434 0.0660377358490566 0.5 0.5 0.5 0.5 0.5 0.5 0.5 0.5 0.5 0.5 0.5 0.5 0.9814814814814814 0.01851851851851852 0.9705882352941176 0.02941176470588235 0.75 0.25 0.75 0.25 0.5 0.5 0.5 0.5 0.75 0.25 0.8333333333333333 0.1666666666666667 0.8833333333333333 0.1166666666666667 0.9695945945945946 0.03040540540540541 0.75 0.25 0.75 0.25 0.5 0.5 0.5 0.5 0.5 0.5 0.75 0.25 0.925 0.07500000000000001 0.9490740740740741 0.05092592592592592 0.9038461538461539 0.09615384615384616 0.9691358024691358 0.0308641975308642 0.5 0.5 0.5 0.5 0.9761904761904762 0.02380952380952381 0.9568965517241379 0.04310344827586207 0.9909638554216867 0.009036144578313254 0.9672557172557174 0.03274428274428275 0.9833333333333333 0.01666666666666667 0.975 0.025 0.5 0.5 0.5 0.5 0.9910714285714285 0.008928571428571428 0.9521739130434783 0.04782608695652174 0.9644351464435146 0.03556485355648535 0.9755555555555555 0.02444444444444445 0.9761904761904762 0.02380952380952381 0.975 0.025 0.5 0.5 0.5 0.5 0.9927536231884058 0.007246376811594203 0.9615384615384616 0.03846153846153846 0.9783653846153847 0.02163461538461538 0.9624731951393853 0.03752680486061473 0.9722222222222222 0.02777777777777778 0.9772727272727273 0.02272727272727273 0.5 0.5 0.5 0.5 0.9545454545454546 0.04545454545454546 0.9605263157894737 0.03947368421052631 0.975 0.025 0.9675925925925926 0.03240740740740741 0.75 0.25 0.75 0.25 0.5 0.5 0.5 0.5 0.5 0.5 0.75 0.25 0.9285714285714285 0.07142857142857142 0.9186046511627907 0.08139534883720931 0.5 0.5 0.75 0.25 0.5 0.5 0.5 0.5 0.7000000000000001 0.3 0.9166666666666666 0.08333333333333333 0.8913043478260869 0.108695652173913 0.8782051282051282 0.1217948717948718 0.8333333333333333 0.1666666666666667 0.75 0.25 0.5 0.5 0.5 0.5 0.8333333333333333 0.1666666666666667 0.8333333333333333 0.1666666666666667 0.75 0.25 0.8577586206896551 0.1422413793103448 0.8333333333333333 0.1666666666666667 0.75 0.25 0.5 0.5 0.5 0.5 0.9 0.1 0.7000000000000001 0.3 0.869047619047619 0.1309523809523809 0.8308270676691729 0.1691729323308271 0.5 0.5 0.75 0.25 0.5 0.5 0.5 0.5 0.8333333333333333 0.1666666666666667 0.8333333333333333 0.1666666666666667 0.9615384615384616 0.03846153846153846 0.9848484848484849 0.01515151515151515 0.5 0.5 0.5 0.5 0.5 0.5 0.5 0.5 0.75 0.25 0.5 0.5 0.9583333333333333 0.04166666666666666 0.99 0.01 0.5 0.5 0.75 0.25 0.5 0.5 0.5 0.5 0.8333333333333333 0.1666666666666667 0.75 0.25 0.9444444444444444 0.05555555555555555 0.9886363636363636 0.01136363636363636 0.75 0.25 0.75 0.25 0.5 0.5 0.5 0.5 0.75 0.25 0.5 0.5 0.9285714285714285 0.07142857142857142 0.9 0.1 0.75 0.25 0.5 0.5 0.5 0.5 0.5 0.5 0.5 0.5 0.5 0.5 0.9210526315789473 0.07894736842105263 0.9305555555555555 0.06944444444444445 0.5 0.5 0.5 0.5 0.5 0.5 0.5 0.5 0.5 0.5 0.5 0.5 0.96875 0.03125 0.9395604395604397 0.06043956043956045 0.5 0.5 0.5 0.5 0.5 0.5 0.5 0.5 0.5 0.5 0.75 0.25 0.9750000000000001 0.025 0.9444444444444444 0.05555555555555556 0.5 0.5 0.5 0.5 0.5 0.5 0.5 0.5 0.75 0.25 0.5 0.5 0.8913043478260869 0.108695652173913 0.8873873873873874 0.1126126126126126 0.9427083333333333 0.05729166666666666 0.9612676056338029 0.03873239436619719 0.5 0.5 0.5 0.5 0.9610778443113773 0.03892215568862276 0.87890625 0.12109375 0.9385633270321362 0.0614366729678639 0.9523305084745762 0.04766949152542373 0.9825581395348837 0.01744186046511628 0.9579207920792079 0.04207920792079208 0.5 0.5 0.5 0.5 0.9636752136752138 0.03632478632478633 0.8806306306306306 0.1193693693693694 0.9513274336283186 0.04867256637168142 0.9532901833872708 0.04670981661272924 0.9651162790697674 0.03488372093023256 0.9576923076923077 0.04230769230769231 0.5 0.5 0.5 0.5 0.9528301886792453 0.04716981132075472 0.9005376344086022 0.09946236559139786 0.9477933261571582 0.05220667384284176 0.9461261642675698 0.05387383573243014 0.9868421052631579 0.0131578947368421 0.9528301886792453 0.04716981132075471 0.5 0.5 0.5 0.5 0.9837209302325581 0.01627906976744186 0.8892405063291139 0.1107594936708861 0.9487334137515078 0.05126658624849215 0.9465705033853401 0.05342949661466 0.75 0.25 0.875 0.125 0.5 0.5 0.5 0.5 0.7857142857142857 0.2142857142857143 0.8125 0.1875 0.8076923076923077 0.1923076923076923 0.8552631578947368 0.1447368421052632 0.75 0.25 0.9285714285714285 0.07142857142857142 0.5 0.5 0.5 0.5 0.7222222222222222 0.2777777777777778 0.6875 0.3125 0.8538461538461539 0.1461538461538462 0.8344709897610921 0.1655290102389078 0.9166666666666666 0.08333333333333333 0.875 0.125 0.5 0.5 0.5 0.5 0.6818181818181819 0.3181818181818182 0.4583333333333333 0.5416666666666666 0.7522522522522522 0.2477477477477477 0.7993421052631579 0.2006578947368421 0.9375 0.0625 0.7000000000000001 0.3 0.5 0.5 0.5 0.5 0.7708333333333333 0.2291666666666667 0.6739130434782609 0.3260869565217391 0.800595238095238 0.1994047619047619 0.8414634146341463 0.1585365853658537 0.75 0.25 0.625 0.375 0.5 0.5 0.5 0.5 0.75 0.25 0.75 0.25 0.9772727272727273 0.02272727272727273 0.925531914893617 0.07446808510638298 0.75 0.25 0.5 0.5 0.5 0.5 0.5 0.5 0.8333333333333333 0.1666666666666667 0.5 0.5 0.8846153846153847 0.1153846153846154 0.9419642857142857 0.05803571428571428 0.5 0.5 0.8333333333333333 0.1666666666666667 0.5 0.5 0.5 0.5 0.9285714285714285 0.07142857142857142 0.9166666666666666 0.08333333333333333 0.9027777777777777 0.09722222222222221 0.9398148148148148 0.06018518518518518 0.75 0.25 0.5 0.5 0.5 0.5 0.5 0.5 0.875 0.125 0.9285714285714285 0.07142857142857142 0.9210526315789473 0.07894736842105263 0.9646464646464648 0.03535353535353536 0.75 0.25 0.5 0.5 0.5 0.5 0.5 0.5 0.75 0.25 0.25 0.75 0.75 0.25 0.9097222222222222 0.09027777777777778 0.5 0.5 0.5 0.5 0.5 0.5 0.5 0.5 0.75 0.25 0.8333333333333333 0.1666666666666667 0.925531914893617 0.07446808510638298 0.9294871794871796 0.07051282051282053 0.8333333333333333 0.1666666666666667 0.5 0.5 0.5 0.5 0.5 0.5 0.5 0.5 0.9 0.1 0.8782051282051282 0.1217948717948718 0.9059278350515464 0.09407216494845361 0.5 0.5 0.875 0.125 0.5 0.5 0.5 0.5 0.25 0.75 0.8333333333333333 0.1666666666666667 0.90625 0.09375 0.9152777777777779 0.08472222222222223</probabilities>
			<property id="DSL_OUTCOME_ORDER">-1</property>
		</cpt>
	</nodes>
	<extensions>
		<genie version="1.0" app="GeNIe 4.0.2423.0 ACADEMIC" name="Network1">
			<node id="isMale">
				<name>Male</name>
				<interior color="e5f6f7" />
				<outline color="000080" />
				<font color="000000" name="Arial" size="8" />
				<position>60 165 108 195</position>
				<barchart active="true" width="128" height="64" />
			</node>
			<node id="Age">
				<name>Age</name>
				<interior color="e5f6f7" />
				<outline color="000080" />
				<font color="000000" name="Arial" size="8" />
				<position>62 60 110 90</position>
				<barchart active="true" width="128" height="90" />
			</node>
			<node id="Stroke_2">
				<name>Stroke</name>
				<interior color="e5f6f7" />
				<outline color="000080" />
				<font color="000000" name="Arial" size="8" />
				<position>242 166 290 196</position>
				<barchart active="true" width="128" height="64" />
			</node>
			<submodel id="Underlying">
				<name>Underlying</name>
				<interior color="e5f6f7" />
				<outline color="000080" width="2" />
				<font color="000000" name="Arial" size="8" />
				<position>242 57 308 86</position>
				<window>44 60 1197 664</window>
				<node id="DLP">
					<name>Dyslipidemia</name>
					<interior color="e5f6f7" />
					<outline color="000080" />
					<font color="000000" name="Arial" size="8" />
					<position>181 317 229 347</position>
					<barchart active="true" width="128" height="64" />
				</node>
				<node id="DM">
					<name>DM</name>
					<interior color="e5f6f7" />
					<outline color="000080" />
					<font color="000000" name="Arial" size="8" />
					<position>488 71 536 101</position>
					<barchart active="true" width="128" height="64" />
				</node>
				<node id="HT">
					<name>Hypertension</name>
					<interior color="e5f6f7" />
					<outline color="000080" />
					<font color="000000" name="Arial" size="8" />
					<position>377 220 430 260</position>
					<barchart active="true" width="128" height="64" />
				</node>
				<node id="AF">
					<name>Atrial fibrillation</name>
					<interior color="e5f6f7" />
					<outline color="000080" />
					<font color="000000" name="Arial" size="8" />
					<position>131 152 179 182</position>
					<barchart active="true" width="128" height="64" />
				</node>
				<submodel id="DLP_Property">
					<name>DLP Property</name>
					<interior color="e5f6f7" />
					<outline color="000080" width="2" />
					<font color="000000" name="Arial" size="8" />
					<position>170 388 248 417</position>
					<window>19 40 887 489</window>
					<node id="Statin">
						<name>Statin</name>
						<interior color="e5f6f7" />
						<outline color="000080" />
						<font color="000000" name="Arial" size="8" />
						<position>407 72 452 100</position>
						<barchart active="true" width="128" height="64" />
					</node>
					<node id="AntiDLP">
						<name>Non-Statin Lipid lowering drug</name>
						<interior color="e5f6f7" />
						<outline color="000080" />
						<font color="000000" name="Arial" size="8" />
						<position>206 69 260 102</position>
						<barchart active="true" width="128" height="64" />
					</node>
					<node id="LDL">
						<name>LDL</name>
						<interior color="e5f6f7" />
						<outline color="000080" />
						<font color="000000" name="Arial" size="8" />
						<position>340 214 380 239</position>
						<barchart active="true" width="128" height="90" />
					</node>
					<node id="HDL">
						<name>HDL</name>
						<interior color="e5f6f7" />
						<outline color="000080" />
						<font color="000000" name="Arial" size="8" />
						<position>517 213 558 238</position>
						<barchart active="true" width="128" height="90" />
					</node>
					<node id="TG">
						<name>TG</name>
						<interior color="e5f6f7" />
						<outline color="000080" />
						<font color="000000" name="Arial" size="8" />
						<position>192 214 229 237</position>
						<barchart active="true" width="128" height="90" />
					</node>
				</submodel>
				<submodel id="HT_property">
					<name>HT property</name>
					<interior color="e5f6f7" />
					<outline color="000080" width="2" />
					<font color="000000" name="Arial" size="8" />
					<position>365 303 441 333</position>
					<window>15 -8 596 265</window>
					<node id="SBP">
						<name>Systolic BP</name>
						<interior color="e5f6f7" />
						<outline color="000080" />
						<font color="000000" name="Arial" size="8" />
						<position>116 147 157 172</position>
						<barchart active="true" width="128" height="90" />
					</node>
					<node id="AntiHT">
						<name>Antihypertensive drug</name>
						<interior color="e5f6f7" />
						<outline color="000080" />
						<font color="000000" name="Arial" size="8" />
						<position>111 48 160 78</position>
						<barchart active="true" width="128" height="64" />
					</node>
				</submodel>
				<submodel id="DM_property">
					<name>DM property</name>
					<interior color="e5f6f7" />
					<outline color="000080" width="2" />
					<font color="000000" name="Arial" size="8" />
					<position>472 173 546 202</position>
					<window>356 121 936 461</window>
					<node id="AntiDM">
						<name>Hypoglycemic drug</name>
						<interior color="e5f6f7" />
						<outline color="000080" />
						<font color="000000" name="Arial" size="8" />
						<position>218 49 269 80</position>
						<barchart active="true" width="128" height="64" />
					</node>
					<node id="PG">
						<name>Plasma glucose</name>
						<interior color="e5f6f7" />
						<outline color="000080" />
						<font color="000000" name="Arial" size="8" />
						<position>224 144 261 167</position>
						<barchart active="true" width="128" height="90" />
					</node>
				</submodel>
				<node id="AntiCoag">
					<name>AntiCoagulant</name>
					<interior color="e5f6f7" />
					<outline color="000080" />
					<font color="000000" name="Arial" size="8" />
					<position>108 234 201 274</position>
					<barchart active="true" width="128" height="64" />
				</node>
				<node id="AntiPL">
					<name>AntiPlatelets</name>
					<interior color="e5f6f7" />
					<outline color="000080" />
					<font color="000000" name="Arial" size="8" />
					<position>573 229 621 259</position>
					<barchart active="true" width="128" height="64" />
				</node>
				<node id="Cr">
					<name>Serum creatinine</name>
					<interior color="e5f6f7" />
					<outline color="000080" />
					<font color="000000" name="Arial" size="8" />
					<position>127 72 179 104</position>
					<barchart active="true" width="128" height="72" />
				</node>
				<node id="BMIcalc">
					<name>BMI</name>
					<interior color="e5f6f7" />
					<outline color="000080" />
					<font color="000000" name="Arial" size="8" />
					<position>306 84 354 114</position>
					<barchart active="true" width="128" height="90" />
				</node>
			</submodel>
		</genie>
	</extensions>
</smile>
