{"learner":{"attributes":{"best_iteration":"799","best_ntree_limit":"800","scikit_learn":"{\"use_label_encoder\": false, \"n_estimators\": 800, \"objective\": \"binary:logistic\", \"max_depth\": 8, \"learning_rate\": null, \"verbosity\": null, \"booster\": null, \"tree_method\": null, \"gamma\": 7.236772585309131, \"min_child_weight\": 3, \"max_delta_step\": null, \"subsample\": null, \"colsample_bytree\": 0, \"colsample_bylevel\": null, \"colsample_bynode\": null, \"reg_alpha\": 62, \"reg_lambda\": null, \"scale_pos_weight\": 27.49683313032887, \"base_score\": null, \"missing\": NaN, \"num_parallel_tree\": null, \"random_state\": null, \"n_jobs\": null, \"monotone_constraints\": null, \"interaction_constraints\": null, \"importance_type\": null, \"gpu_id\": null, \"validate_parameters\": null, \"predictor\": null, \"enable_categorical\": false, \"kwargs\": {\"eval_metric\": [\"error\"], \"eta\": 0.15}, \"classes_\": [0, 1], \"n_classes_\": 2, \"_estimator_type\": \"classifier\"}"},"feature_names":[],"feature_types":[],"gradient_booster":{"model":{"gbtree_model_param":{"num_trees":"800","size_leaf_vector":"0"},"tree_info":[0,0,0,0,0,0,0,0,0,0,0,0,0,0,0,0,0,0,0,0,0,0,0,0,0,0,0,0,0,0,0,0,0,0,0,0,0,0,0,0,0,0,0,0,0,0,0,0,0,0,0,0,0,0,0,0,0,0,0,0,0,0,0,0,0,0,0,0,0,0,0,0,0,0,0,0,0,0,0,0,0,0,0,0,0,0,0,0,0,0,0,0,0,0,0,0,0,0,0,0,0,0,0,0,0,0,0,0,0,0,0,0,0,0,0,0,0,0,0,0,0,0,0,0,0,0,0,0,0,0,0,0,0,0,0,0,0,0,0,0,0,0,0,0,0,0,0,0,0,0,0,0,0,0,0,0,0,0,0,0,0,0,0,0,0,0,0,0,0,0,0,0,0,0,0,0,0,0,0,0,0,0,0,0,0,0,0,0,0,0,0,0,0,0,0,0,0,0,0,0,0,0,0,0,0,0,0,0,0,0,0,0,0,0,0,0,0,0,0,0,0,0,0,0,0,0,0,0,0,0,0,0,0,0,0,0,0,0,0,0,0,0,0,0,0,0,0,0,0,0,0,0,0,0,0,0,0,0,0,0,0,0,0,0,0,0,0,0,0,0,0,0,0,0,0,0,0,0,0,0,0,0,0,0,0,0,0,0,0,0,0,0,0,0,0,0,0,0,0,0,0,0,0,0,0,0,0,0,0,0,0,0,0,0,0,0,0,0,0,0,0,0,0,0,0,0,0,0,0,0,0,0,0,0,0,0,0,0,0,0,0,0,0,0,0,0,0,0,0,0,0,0,0,0,0,0,0,0,0,0,0,0,0,0,0,0,0,0,0,0,0,0,0,0,0,0,0,0,0,0,0,0,0,0,0,0,0,0,0,0,0,0,0,0,0,0,0,0,0,0,0,0,0,0,0,0,0,0,0,0,0,0,0,0,0,0,0,0,0,0,0,0,0,0,0,0,0,0,0,0,0,0,0,0,0,0,0,0,0,0,0,0,0,0,0,0,0,0,0,0,0,0,0,0,0,0,0,0,0,0,0,0,0,0,0,0,0,0,0,0,0,0,0,0,0,0,0,0,0,0,0,0,0,0,0,0,0,0,0,0,0,0,0,0,0,0,0,0,0,0,0,0,0,0,0,0,0,0,0,0,0,0,0,0,0,0,0,0,0,0,0,0,0,0,0,0,0,0,0,0,0,0,0,0,0,0,0,0,0,0,0,0,0,0,0,0,0,0,0,0,0,0,0,0,0,0,0,0,0,0,0,0,0,0,0,0,0,0,0,0,0,0,0,0,0,0,0,0,0,0,0,0,0,0,0,0,0,0,0,0,0,0,0,0,0,0,0,0,0,0,0,0,0,0,0,0,0,0,0,0,0,0,0,0,0,0,0,0,0,0,0,0,0,0,0,0,0,0,0,0,0,0,0,0,0,0,0,0,0,0,0,0,0,0,0,0,0,0,0,0,0,0,0,0,0,0,0,0,0,0,0,0,0,0,0,0,0,0,0,0,0,0,0,0,0,0,0,0,0,0,0,0,0,0,0,0,0,0,0,0,0,0,0,0,0,0,0,0,0,0,0,0,0,0,0,0,0,0,0,0,0,0,0,0,0,0,0,0,0,0,0,0,0,0,0,0,0,0,0,0,0,0,0,0,0,0,0,0,0,0,0,0,0,0,0,0,0,0,0,0,0,0,0,0,0,0,0,0,0,0,0,0,0,0,0,0,0,0,0,0,0,0,0,0,0,0,0,0,0,0,0,0,0,0,0,0,0,0,0,0,0,0,0,0,0,0,0,0,0,0],"trees":[{"base_weights":[-0E0,-6.5507627E-1,3.7599847E-1,-7.776699E-1,-4.2419904E-1,7.616192E-1,-3.1176615E-1,-8.5061055E-1,-6.989232E-1,1.329055E-1,-4.459167E-1,2.7092823E-1,9.961008E-1,-0E0,-3.6831814E-1,-0E0,-8.53942E-1,-0E0,-7.057544E-1,-0E0,3.1962246E-1,-4.9117076E-1,-1.4968076E-1,3.622086E-1,-6.227169E-1,1.0827398E0,6.3669795E-1,-1.9892573E-1,1.413595E0,-3.9606073E-1,1.0058847E-1,-6.716022E-1,-9.7679096E-1,9.820271E-2,-8.169256E-2,4.5441198E-1,-0E0,-6.493626E-1,-4.283744E-1,6.24095E-1,-4.3427283E-1,1.7829116E-1,1.1290802E0,8.026181E-1,1.2336988E0,-5.075917E-1,9.209193E-1,-6.7311484E-1,7.621178E-2,-7.248076E-1,-3.7322363E-1,-0E0,3.056461E-1,-6.920231E-1,-0E0,5.4422975E-1,-4.8269922E-1,3.0785587E-1,-7.276261E-1,1.139428E0,-0E0,9.3744093E-1,-4.9449497E-1,1.2999293E0,1.0095974E0,1.4584044E0,4.73997E-1,1.3443062E0,-6.2156916E-1,1.0294788E0,-3.9138457E-1,-0E0,-4.4160575E-2,-7.249662E-1,-4.7500739E-1,2.7944751E-2,-1.1102173E-1,-0E0,-4.8332837E-1,7.733139E-2,1.087244E0,1.2688456E0,7.0725965E-1,-4.2199776E-1,1.4489689E0,-5.586509E-1,1.4475149E0,-0E0,1.3720895E0,-4.405448E-1,-3.051379E-1,-6.751757E-2,-0E0,2.5278876E-2,-6.4785206E-1,-0E0,3.776747E-2,-4.9236625E-1,-0E0,2.68754E-1,-8.143151E-1,1.090067E0,-0E0,-4.4851932E-1,1.2276804E0,-3.9233056E-1,-5.814893E-1],"categories":[],"categories_nodes":[],"categories_segments":[],"categories_sizes":[],"default_left":[true,true,true,true,true,true,true,true,true,true,true,true,true,true,true,false,false,false,true,true,true,true,true,true,false,true,true,true,false,true,true,true,false,true,true,true,true,false,true,false,false,true,true,true,true,false,true,false,true,false,true,true,false,true,true,false,true,true,false,false,false,true,false,false,true,false,true,true,false,false,true,true,true,false,true,true,true,true,true,true,true,false,true,false,false,false,false,false,false,true,false,true,true,false,false,true,true,false,false,false,false,true,true,false,false,false,false],"id":0,"left_children":[1,3,5,7,9,11,13,15,17,19,21,23,25,27,29,-1,-1,-1,31,-1,-1,37,39,41,-1,43,45,47,-1,49,51,53,-1,-1,-1,-1,-1,-1,55,-1,-1,57,59,61,63,-1,65,-1,67,-1,69,-1,-1,73,75,-1,-1,79,-1,-1,-1,81,-1,-1,83,-1,85,87,-1,-1,89,-1,-1,-1,93,-1,97,-1,-1,99,-1,-1,103,-1,-1,-1,-1,-1,-1,105,-1,-1,-1,-1,-1,-1,-1,-1,-1,-1,-1,-1,-1,-1,-1,-1,-1],"loss_changes":[2.7802348E4,1.0902148E3,1.9047906E4,5.6748047E1,1.9434326E2,5.2148164E3,4.671599E2,5.24209E1,9.8581055E1,1.2665373E1,1.481289E2,1.2046821E3,8.594238E2,1.1275308E3,3.0275977E2,0E0,0E0,0E0,1.9333496E1,1.818867E0,2.3456497E0,5.1901123E1,4.379005E2,1.8425868E3,0E0,9.2465234E2,2.0333513E3,4.7392264E2,0E0,8.75564E1,3.548841E1,1.4956787E2,0E0,0E0,0E0,0E0,0E0,0E0,4.6450586E2,0E0,0E0,1.2733248E3,2.6648682E1,1.5769575E3,9.325E1,0E0,1.0775869E3,0E0,1.848201E3,0E0,4.6003027E2,9.959899E-1,0E0,7.8168945E0,2.8752046E0,0E0,1.7198486E0,1.6783711E3,0E0,0E0,0E0,4.919839E2,0E0,0E0,2.499882E3,0E0,2.858371E3,2.9913208E1,0E0,0E0,3.584326E1,0E0,3.225267E-1,0E0,1.9192386E2,2.5339961E-2,3.849106E1,0E0,0E0,1.2605288E3,3.7182617E-1,0E0,2.9801482E3,0E0,0E0,0E0,0E0,0E0,0E0,2.0193848E1,0E0,0E0,0E0,0E0,0E0,0E0,0E0,0E0,0E0,0E0,0E0,0E0,0E0,0E0,0E0,0E0,0E0],"parents":[2147483647,0,0,1,1,2,2,3,3,4,4,5,5,6,6,7,7,8,8,9,9,10,10,11,11,12,12,13,13,14,14,18,18,19,19,20,20,21,21,22,22,23,23,25,25,26,26,27,27,29,29,30,30,31,31,38,38,41,41,42,42,43,43,44,44,46,46,48,48,50,50,51,51,53,53,54,54,56,56,57,57,61,61,64,64,66,66,67,67,70,70,72,72,74,74,75,75,76,76,79,79,80,80,82,82,89,89],"right_children":[2,4,6,8,10,12,14,16,18,20,22,24,26,28,30,-1,-1,-1,32,-1,-1,38,40,42,-1,44,46,48,-1,50,52,54,-1,-1,-1,-1,-1,-1,56,-1,-1,58,60,62,64,-1,66,-1,68,-1,70,-1,-1,74,76,-1,-1,80,-1,-1,-1,82,-1,-1,84,-1,86,88,-1,-1,90,-1,-1,-1,94,-1,98,-1,-1,100,-1,-1,104,-1,-1,-1,-1,-1,-1,106,-1,-1,-1,-1,-1,-1,-1,-1,-1,-1,-1,-1,-1,-1,-1,-1,-1],"split_conditions":[1.3213226E2,1.2406793E2,1.4499866E2,1.1502485E2,1.2497208E2,1.3700009E2,1.4699323E2,8.25E1,1.15737946E2,1.2459874E2,1.31048E2,1.3699559E2,1.4299677E2,1.4600201E2,1.895E2,-0E0,-1.280913E-1,-0E0,1.2398848E2,-0E0,4.7943372E-2,1.2600214E2,1.3197026E2,1.3601526E2,-9.340754E-2,1.3900282E2,1.430068E2,1.4501074E2,2.1203925E-1,1.4702621E2,2.005E2,1.2308203E2,-1.4651865E-1,1.4730408E-2,-1.2253885E-2,6.81618E-2,-0E0,-9.74044E-2,1.2689497E2,9.361426E-2,-6.5140925E-2,1.359996E2,1.3699294E2,1.3899266E2,1.4199008E2,-7.6138765E-2,1.4399844E2,-1.0096723E-1,1.459996E2,-1.08721144E-1,1.479975E2,-0E0,4.5846917E-2,1.2220477E2,1.2337631E2,8.163446E-2,-7.2404884E-2,1.3501917E2,-1.0914392E-1,1.709142E-1,-0E0,1.379657E2,-7.417425E-2,1.949894E-1,1.4200455E2,2.1876067E-1,1.4400409E2,1.4506372E2,-9.323537E-2,1.5442182E-1,1.6086185E2,-0E0,-6.6240863E-3,-1.0874494E-1,1.2298955E2,4.191713E-3,1.2390381E2,-0E0,-7.249926E-2,1.3498944E2,1.6308661E-1,1.9032684E-1,1.3800151E2,-6.329966E-2,2.1734534E-1,-8.379764E-2,2.1712725E-1,-0E0,2.0581344E-1,1.5631743E2,-4.5770686E-2,-1.0127636E-2,-0E0,3.7918314E-3,-9.717781E-2,-0E0,5.6651207E-3,-7.385494E-2,-0E0,4.0313102E-2,-1.2214727E-1,1.6351005E-1,-0E0,-6.72779E-2,1.8415207E-1,-5.8849584E-2,-8.72234E-2],"split_indices":[6,6,6,6,6,6,6,6,6,6,6,6,6,6,6,0,0,0,6,6,6,6,6,6,0,6,6,6,0,6,6,6,0,2147483647,2147483647,2147483647,2147483647,0,6,0,0,6,6,6,6,0,6,0,6,0,6,6,0,6,6,0,6,6,0,0,0,6,0,0,6,0,6,6,0,0,6,2147483647,2147483647,0,6,6,6,2147483647,2147483647,6,6,0,6,0,0,0,0,0,0,6,0,2147483647,2147483647,0,0,2147483647,2147483647,0,0,0,0,2147483647,2147483647,0,0,0,0],"split_type":[0,0,0,0,0,0,0,0,0,0,0,0,0,0,0,0,0,0,0,0,0,0,0,0,0,0,0,0,0,0,0,0,0,0,0,0,0,0,0,0,0,0,0,0,0,0,0,0,0,0,0,0,0,0,0,0,0,0,0,0,0,0,0,0,0,0,0,0,0,0,0,0,0,0,0,0,0,0,0,0,0,0,0,0,0,0,0,0,0,0,0,0,0,0,0,0,0,0,0,0,0,0,0,0,0,0,0],"sum_hessian":[1.128745E5,4.116128E4,7.171322E4,2.6708438E4,1.4452846E4,4.6007465E4,2.5705752E4,1.3451557E4,1.325688E4,4.349715E2,1.4017875E4,1.49625205E4,3.1044945E4,3.8444026E3,2.186135E4,3.2872627E1,1.3418685E4,5.749525E1,1.3199385E4,2.3661154E2,1.9835995E2,1.1978106E4,2.0397682E3,1.363932E4,1.3231993E3,2.4874166E4,6.17078E3,3.3474531E3,4.9694934E2,2.0765168E4,1.0961819E3,1.1928546E4,1.2708394E3,7.524367E1,1.6136787E2,1.089905E2,8.936946E1,3.1205054E3,8.857601E3,4.895862E2,1.5501819E3,1.106718E4,2.5721416E3,8.856658E3,1.6017507E4,1.1842009E3,4.986579E3,1.3113267E3,2.0361265E3,1.1704589E3,1.9594709E4,5.9846674E2,4.9771518E2,1.1547192E4,3.8135364E2,4.0771832E2,8.449883E3,9.742851E3,1.3243282E3,2.546143E3,2.5998417E1,8.066316E3,7.903425E2,1.2146345E4,3.8711628E3,2.199904E3,2.7866748E3,7.539256E2,1.2822009E3,2.0610521E2,1.9388604E4,8.874367E1,5.0972308E2,9.775268E3,1.7719241E3,1.5923892E2,2.2211472E2,1.4624208E1,8.435259E3,7.58117E3,2.1616812E3,3.1939475E3,4.8723687E3,8.7596204E2,2.9952007E3,1.321572E3,1.4651028E3,1.4374208E1,7.395514E2,1.1888968E4,7.4996357E3,2.8823575E2,2.2148734E2,3.6310205E2,1.408822E3,5.4746834E1,1.0449208E2,1.6911946E2,5.299525E1,6.299087E3,1.282083E3,2.150807E3,1.0874208E1,1.4758109E3,3.3965576E3,9.189201E3,2.6997666E3],"tree_param":{"num_deleted":"14","num_feature":"19","num_nodes":"107","size_leaf_vector":"0"}},{"base_weights":[-0E0,5.2101403E-2,-3.8166323E-1],"categories":[],"categories_nodes":[],"categories_segments":[],"categories_sizes":[],"default_left":[true,false,false],"id":1,"left_children":[1,-1,-1],"loss_changes":[2.2389287E3,0E0,0E0],"parents":[2147483647,0,0],"right_children":[2,-1,-1],"split_conditions":[5E-1,7.815211E-3,-5.7249486E-2],"split_indices":[10,0,0],"split_type":[0,0,0],"sum_hessian":[1.1241199E5,9.888558E4,1.3526414E4],"tree_param":{"num_deleted":"0","num_feature":"19","num_nodes":"3","size_leaf_vector":"0"}},{"base_weights":[-0E0,1.7359647E-1,-1.8868326E-1],"categories":[],"categories_nodes":[],"categories_segments":[],"categories_sizes":[],"default_left":[true,false,false],"id":2,"left_children":[1,-1,-1],"loss_changes":[3.6811694E3,0E0,0E0],"parents":[2147483647,0,0],"right_children":[2,-1,-1],"split_conditions":[5E-1,2.6039472E-2,-2.8302489E-2],"split_indices":[12,0,0],"split_type":[0,0,0],"sum_hessian":[1.1237926E5,5.8502234E4,5.3877023E4],"tree_param":{"num_deleted":"0","num_feature":"19","num_nodes":"3","size_leaf_vector":"0"}},{"base_weights":[-0E0,-2.992976E-2,5.5709267E-1],"categories":[],"categories_nodes":[],"categories_segments":[],"categories_sizes":[],"default_left":[true,false,false],"id":3,"left_children":[1,-1,-1],"loss_changes":[1.868213E3,0E0,0E0],"parents":[2147483647,0,0],"right_children":[2,-1,-1],"split_conditions":[5E-1,-4.489464E-3,8.35639E-2],"split_indices":[9,0,0],"split_type":[0,0,0],"sum_hessian":[1.1231285E5,1.0660189E5,5.7109585E3],"tree_param":{"num_deleted":"0","num_feature":"19","num_nodes":"3","size_leaf_vector":"0"}},{"base_weights":[-0E0,-4.1423017E-1,7.071686E-1,-4.3248534E-1,6.0869455E-2,8.594133E-1,5.7861394E-1,3.055978E-1,-4.4408202E-1,2.0533584E-1,-8.824205E-2,5.6678927E-1,1.0444854E0,4.585796E-1,6.945016E-1,4.6228638E-1,3.7658885E-2,-3.4587315E-1,-4.920473E-1,-6.894054E-1,-0E0,3.0389413E-1,6.7306405E-1,1.731449E0,1.0117232E0,3.8708696E-1,5.3619057E-1,6.9629145E-1,-0E0,-0E0,1.0233269E-1,-2.493391E-1,-3.7409317E-1,-5.5044234E-1,-3.503439E-1,-0E0,-6.7160786E-3,4.274094E-1,-0E0,1.4612083E0,6.1662245E-1,-0E0,1.0513766E0,3.9567083E-1,-0E0,-2.990677E-1,-7.8944705E-2,-4.301545E-1,-2.678259E-1,-5.241851E-1,-1.8298142E0,5.8696877E-2,-4.426497E-1,-7.889172E-2,-0E0,2.3169926E-1,7.21621E-1,1.7065771E0,1.0087067E0,-2.7041656E-1,-0E0,-4.685071E-1,-7.114964E-1,5.9881754E-2,-0E0,-1.872834E0,-3.5960793E-1,8.673779E-1,2.871715E-1,3.816439E-1,1.0726624E0,-5.24139E-1,-2.814326E-2,-1.2181E0,-3.97098E-1,-2.9705507E-1,-7.69109E-1,6.974028E-1,1.6784763E0,1.7368503E0,1.0145595E0],"categories":[],"categories_nodes":[],"categories_segments":[],"categories_sizes":[],"default_left":[true,true,true,true,true,true,true,true,true,false,true,true,true,true,true,false,true,true,true,false,true,true,true,false,true,true,false,false,false,true,true,true,true,true,true,true,true,false,false,false,true,false,true,false,false,false,false,false,true,true,false,true,true,true,true,false,true,false,true,false,false,true,true,true,true,false,true,true,false,false,true,false,false,false,false,false,false,false,false,false,false],"id":4,"left_children":[1,3,5,7,9,11,13,15,17,-1,19,21,23,25,27,-1,-1,31,33,-1,-1,37,39,-1,41,43,-1,-1,-1,-1,-1,45,47,49,51,-1,-1,-1,-1,-1,55,-1,57,-1,-1,-1,-1,-1,59,61,-1,-1,65,-1,-1,-1,67,-1,69,-1,-1,71,73,-1,-1,-1,75,77,-1,-1,79,-1,-1,-1,-1,-1,-1,-1,-1,-1,-1],"loss_changes":[3.289887E4,6.374209E2,7.222168E2,5.9366406E2,6.1051178E1,9.159297E2,2.4416211E2,9.920631E0,2.652129E2,0E0,4.3591053E1,1.4606519E2,8.397949E1,5.9333496E0,9.703125E0,0E0,4.025426E0,2.2637695E1,3.1494824E2,0E0,3.9808474E-2,1.0191911E2,9.728882E1,0E0,4.4232422E2,3.922357E1,0E0,0E0,0E0,0E0,0E0,2.3965698E1,5.7510498E1,9.0919434E2,5.2964307E2,0E0,3.3180654E-1,0E0,0E0,0E0,1.362367E2,0E0,1.2426074E2,0E0,0E0,0E0,0E0,0E0,8.190613E0,2.4829785E2,0E0,2.7991676E-1,1.1737236E3,0E0,0E0,0E0,1.6079785E2,0E0,3.0947754E2,0E0,0E0,5.547578E2,9.845127E2,0E0,0E0,0E0,2.0236133E2,2.1596167E2,0E0,0E0,1.735E2,0E0,0E0,0E0,0E0,0E0,0E0,0E0,0E0,0E0,0E0],"parents":[2147483647,0,0,1,1,2,2,3,3,4,4,5,5,6,6,7,7,8,8,10,10,11,11,12,12,13,13,14,14,16,16,17,17,18,18,20,20,21,21,22,22,24,24,25,25,31,31,32,32,33,33,34,34,36,36,40,40,42,42,48,48,49,49,51,51,52,52,56,56,58,58,61,61,62,62,66,66,67,67,70,70],"right_children":[2,4,6,8,10,12,14,16,18,-1,20,22,24,26,28,-1,-1,32,34,-1,-1,38,40,-1,42,44,-1,-1,-1,-1,-1,46,48,50,52,-1,-1,-1,-1,-1,56,-1,58,-1,-1,-1,-1,-1,60,62,-1,-1,66,-1,-1,-1,68,-1,70,-1,-1,72,74,-1,-1,-1,76,78,-1,-1,80,-1,-1,-1,-1,-1,-1,-1,-1,-1,-1],"split_conditions":[1.12591995E2,1.10962555E2,1.2899683E2,7.2259224E1,1.11037544E2,1.18016846E2,1.6285168E2,6.706155E1,9.108775E1,3.0800378E-2,1.11588776E2,1.1420122E2,1.18980865E2,1.4399753E2,7.04E2,6.934296E-2,5.648833E-3,8.203635E1,1.0399983E2,-1.0341081E-1,-0E0,1.1399544E2,1.1499965E2,2.5971738E-1,1.1900009E2,1.4300273E2,8.0428585E-2,1.0444372E-1,-0E0,-0E0,1.5349904E-2,8.199901E1,8.999919E1,1.0300082E2,1.0401252E2,-0E0,-1.0074119E-3,6.411141E-2,-0E0,2.1918125E-1,1.1501099E2,-0E0,1.19998E2,5.935063E-2,-0E0,-4.4860158E-2,-1.1841706E-2,-6.4523175E-2,9.108618E1,1.0000004E2,-2.7447215E-1,8.804532E-3,1.0499974E2,-1.1833758E-2,-0E0,3.475489E-2,1.17996765E2,2.5598657E-1,1.200062E2,-4.0562484E-2,-0E0,9.99996E1,1.01999344E2,8.9822635E-3,-0E0,-2.809251E-1,1.0900032E2,1.1701903E2,4.307573E-2,5.7246584E-2,1.2099706E2,-7.862085E-2,-4.221489E-3,-1.82715E-1,-5.9564702E-2,-4.455826E-2,-1.15366355E-1,1.0461042E-1,2.5177145E-1,2.6052755E-1,1.5218394E-1],"split_indices":[17,17,17,17,17,17,17,17,17,0,17,17,17,17,17,0,17,17,17,0,17,17,17,0,17,17,0,0,0,2147483647,2147483647,17,17,17,17,2147483647,2147483647,0,0,0,17,0,17,0,0,0,0,0,17,17,0,17,17,2147483647,2147483647,0,17,0,17,0,0,17,17,2147483647,2147483647,0,17,17,0,0,17,0,0,0,0,0,0,0,0,0,0],"split_type":[0,0,0,0,0,0,0,0,0,0,0,0,0,0,0,0,0,0,0,0,0,0,0,0,0,0,0,0,0,0,0,0,0,0,0,0,0,0,0,0,0,0,0,0,0,0,0,0,0,0,0,0,0,0,0,0,0,0,0,0,0,0,0,0,0,0,0,0,0,0,0,0,0,0,0,0,0,0,0,0,0],"sum_hessian":[1.12314836E5,7.083402E4,4.148081E4,6.833877E4,2.4952515E3,1.8767203E4,2.2713605E4,9.7402985E2,6.736474E4,1.4783623E3,1.01688916E3,7.402275E3,1.1364929E4,1.1422422E4,1.1291183E4,4.681425E2,5.0588736E2,2.2531766E4,4.4832977E4,1.0739301E2,9.0949615E2,2.2999858E3,5.102289E3,4.288337E2,1.0936096E4,6.3644995E3,5.0579224E3,1.1253218E4,3.796507E1,5.3841255E1,4.520461E2,5.5960044E3,1.6935762E4,3.1437412E4,1.3395566E4,2.7936665E1,8.815595E2,1.7201573E3,5.798285E2,2.6590155E2,4.836387E3,4.0929245E2,1.0526803E4,6.3418438E3,2.265573E1,4.04955E3,1.5464546E3,1.070294E4,6.232821E3,3.085405E4,5.833619E2,2.3427346E3,1.1052831E4,5.8707714E1,8.228518E2,1.1637582E3,3.6726292E3,5.524145E2,9.974389E3,6.2259575E3,6.863391E0,2.4042076E4,6.811974E3,2.3289636E3,1.3770963E1,5.6439465E2,1.0488437E4,2.6424028E3,1.0302262E3,1.0135238E3,8.960864E3,2.1220297E4,2.8217783E3,2.531992E3,4.2799824E3,9.231429E3,1.2570078E3,2.249329E3,3.930737E2,6.3267084E2,8.328194E3],"tree_param":{"num_deleted":"8","num_feature":"19","num_nodes":"81","size_leaf_vector":"0"}},{"base_weights":[-0E0,-3.3916992E-1,4.1236734E-1,-9.4248194E-1,-2.39762E-1,1.5672103E-1,5.4443544E-1,-1.0506114E0,-7.0624137E-1,-3.2436538E-1,-1.2490615E-1,8.072927E-2,2.2884932E-1,4.7816285E-1,6.583359E-1,-4.2637992E-1,-2.7024078E-1,-1.4790057E-1,-0E0,1.2457547E-1,4.4667922E-2,6.592279E-1,-0E0,-1.8602028E-1,-1.0580621E-1,-0E0,9.32853E-2],"categories":[],"categories_nodes":[],"categories_segments":[],"categories_sizes":[],"default_left":[true,true,true,true,true,true,true,false,false,true,true,true,false,false,true,false,false,true,false,false,true,false,false,false,false,false,false],"id":5,"left_children":[1,3,5,7,9,11,13,-1,-1,15,17,19,-1,-1,21,-1,-1,23,-1,-1,25,-1,-1,-1,-1,-1,-1],"loss_changes":[1.565523E4,3.606099E3,1.6634404E3,1.09776855E2,4.84823E2,7.606781E1,1.7965332E2,0E0,0E0,1.2273682E2,7.077548E1,3.549942E0,0E0,0E0,1.2203613E1,0E0,0E0,1.3050232E1,0E0,0E0,1.3586367E1,0E0,0E0,0E0,0E0,0E0,0E0],"parents":[2147483647,0,0,1,1,2,2,3,3,4,4,5,5,6,6,9,9,10,10,11,11,14,14,17,17,20,20],"right_children":[2,4,6,8,10,12,14,-1,-1,16,18,20,-1,-1,22,-1,-1,24,-1,-1,26,-1,-1,-1,-1,-1,-1],"split_conditions":[6.35E1,4.05E1,6.95E1,3.65E1,5.65E1,6.65E1,7.85E1,-1.5759172E-1,-1.0593621E-1,4.85E1,6.25E1,6.45E1,3.43274E-2,7.172443E-2,1.015E2,-6.395699E-2,-4.053612E-2,5.95E1,-0E0,1.8686322E-2,6.55E1,9.888419E-2,-0E0,-2.7903045E-2,-1.5870932E-2,-0E0,1.3992796E-2],"split_indices":[0,0,0,0,0,0,0,0,0,0,0,0,0,0,0,0,0,0,0,0,0,0,0,0,0,0,0],"split_type":[0,0,0,0,0,0,0,0,0,0,0,0,0,0,0,0,0,0,0,0,0,0,0,0,0,0,0],"sum_hessian":[1.11910305E5,6.135266E4,5.055764E4,8.58962E3,5.276304E4,1.7382229E4,3.3175414E4,5.7101436E3,2.8794766E3,3.0070979E4,2.269206E4,8.884032E3,8.498196E3,2.1319984E4,1.1855429E4,1.0024439E4,2.004654E4,1.9419826E4,3.2722349E3,3.2322563E3,5.6517764E3,1.1851446E4,3.9821606E0,9.416314E3,1.0003511E4,2.7954448E3,2.8563315E3],"tree_param":{"num_deleted":"0","num_feature":"19","num_nodes":"27","size_leaf_vector":"0"}},{"base_weights":[-0E0,-3.49701E-1,5.999427E-1,-3.772907E-1,-1.0732304E-1,7.3314476E-1,4.878986E-1,-3.6733332E-1,-1.622731E0,1.7141356E-1,-2.0537955E-1,4.8603886E-1,8.904005E-1,3.8121524E-1,5.951658E-1,2.699152E-1,-3.7836045E-1,-1.5544811E0,-9.760278E-2,2.520766E-1,5.796234E-1,1.5266953E0,8.598077E-1,3.1618172E-1,4.4751164E-1,5.966151E-1,-0E0,3.225938E-1,-0E0,-3.0845082E-1,-4.5305482E-1,-2.4040368E-1,3.8060986E-2,3.6168474E-1,-0E0,6.533182E-1,2.2892918E-1,-0E0,8.9460874E-1,3.3094808E-1,-0E0,-1.9505748E-1,-3.297715E-1,-4.883274E-1,-1.6370536E-1,6.960923E-2,-6.730206E-1,1.6749616E-1,-8.9201994E-2,5.5001265E-1,1.4801633E0,1.490983E0,8.5600096E-1,-2.3338921E-1,-5.4600812E-2,-3.4975132E-1,-1.6547328E-1,-4.6014422E-1,-1.7307972E0,1.7099378E-1,-7.0430744E-1,-1.424203E0,-3.5403946E-1,-6.2545997E-1,-0E0,6.895131E-1,1.4617452E-1,3.106541E-1,9.1147107E-1,-1.5220313E-1,-3.312626E-1,-3.1994793E-1,-6.7804444E-1,-0E0,-1.7016594E-1,-5.102052E-1,-1.8037869E-1,-1.811919E0,-3.683829E-2,-4.6983263E-3,-1.1389079E0,-0E0,-1.7344419E-2,5.264667E-1,1.551129E0,1.5324723E0,8.575884E-1],"categories":[],"categories_nodes":[],"categories_segments":[],"categories_sizes":[],"default_left":[true,true,true,true,true,true,true,true,false,false,true,true,true,true,true,true,true,false,true,true,true,false,true,true,false,true,true,true,true,true,true,true,true,false,false,true,false,false,true,false,false,true,true,true,true,false,true,false,true,true,false,false,true,true,false,true,true,true,false,false,true,false,true,false,true,true,false,false,true,true,true,false,false,true,true,false,false,false,false,false,false,true,true,false,false,false,false],"id":6,"left_children":[1,3,5,7,9,11,13,15,-1,-1,17,19,21,23,-1,-1,29,-1,31,33,35,-1,37,39,-1,-1,-1,-1,-1,41,43,45,47,-1,-1,49,-1,-1,51,-1,-1,53,55,57,59,-1,61,-1,63,65,-1,-1,67,-1,-1,71,-1,75,-1,-1,77,-1,79,-1,-1,83,-1,-1,85,-1,-1,-1,-1,-1,-1,-1,-1,-1,-1,-1,-1,-1,-1,-1,-1,-1,-1],"loss_changes":[2.342835E4,4.4139355E2,5.37875E2,6.581709E2,2.0539415E2,6.3462305E2,1.9784424E2,4.4686133E2,0E0,0E0,7.212956E2,1.0955237E2,6.824902E1,2.619995E0,5.4592285E0,2.6235123E0,2.7458105E2,0E0,1.1504977E2,7.8717804E1,7.620361E1,0E0,3.2987842E2,3.2625366E1,0E0,0E0,0E0,0E0,0E0,4.5431152E1,2.5929688E2,4.1302756E2,4.590733E1,0E0,0E0,2.1871533E2,0E0,0E0,9.148633E1,0E0,0E0,1.2126556E1,5.566919E1,7.735049E2,6.455359E2,0E0,1.8937909E2,0E0,3.4154854E1,1.5443298E2,0E0,0E0,2.2098975E2,1.9938202E0,0E0,1.6758716E2,4.8947372E0,3.1374072E2,0E0,0E0,8.9453754E2,0E0,1.8641316E2,0E0,2.648633E-1,2.3675488E2,0E0,0E0,1.4526855E2,0E0,0E0,0E0,0E0,0E0,0E0,0E0,0E0,0E0,0E0,0E0,0E0,0E0,0E0,0E0,0E0,0E0,0E0],"parents":[2147483647,0,0,1,1,2,2,3,3,4,4,5,5,6,6,7,7,10,10,11,11,12,12,13,13,14,14,15,15,16,16,18,18,19,19,20,20,22,22,23,23,29,29,30,30,31,31,32,32,35,35,38,38,41,41,42,42,43,43,44,44,46,46,48,48,49,49,52,52,53,53,55,55,56,56,57,57,60,60,62,62,64,64,65,65,68,68],"right_children":[2,4,6,8,10,12,14,16,-1,-1,18,20,22,24,-1,-1,30,-1,32,34,36,-1,38,40,-1,-1,-1,-1,-1,42,44,46,48,-1,-1,50,-1,-1,52,-1,-1,54,56,58,60,-1,62,-1,64,66,-1,-1,68,-1,-1,72,-1,76,-1,-1,78,-1,80,-1,-1,84,-1,-1,86,-1,-1,-1,-1,-1,-1,-1,-1,-1,-1,-1,-1,-1,-1,-1,-1,-1,-1],"split_conditions":[1.12591995E2,1.07998535E2,1.2899683E2,1.070008E2,1.080001E2,1.18016846E2,1.6397137E2,7.2259224E1,-2.4340965E-1,2.5712034E-2,1.0899879E2,1.1420122E2,1.18980865E2,1.4399753E2,8.927487E-2,4.0487282E-2,9.500067E1,-2.3317218E-1,1.10962555E2,1.1399544E2,1.17996765E2,2.290043E-1,1.1900009E2,1.4200272E2,6.712675E-2,8.949226E-2,-0E0,4.8389073E-2,-0E0,8.203635E1,1.0599944E2,1.0900032E2,1.11037544E2,5.4252714E-2,-0E0,1.1701903E2,3.433938E-2,-0E0,1.19998E2,4.9642216E-2,-0E0,8.199901E1,9.499532E1,1.05000015E2,1.06000046E2,1.0441385E-2,1.09998764E2,2.5124425E-2,1.11588776E2,1.1696416E2,2.2202452E-1,2.2364746E-1,1.200062E2,-3.5008382E-2,-8.190122E-3,9.300542E1,-2.4820993E-2,1.0399983E2,-2.596196E-1,2.5649067E-2,1.0699946E2,-2.1363047E-1,1.1005199E2,-9.3819E-2,-0E0,1.1601884E2,2.192618E-2,4.6598118E-2,1.2099706E2,-2.283047E-2,-4.968939E-2,-4.7992192E-2,-1.0170667E-1,-0E0,-2.5524892E-2,-7.6530784E-2,-2.7056804E-2,-2.7178785E-1,-5.5257436E-3,-7.0474896E-4,-1.708362E-1,-0E0,-2.6016629E-3,7.8970015E-2,2.3266935E-1,2.2987084E-1,1.2863827E-1],"split_indices":[17,17,17,17,17,17,17,17,0,0,17,17,17,17,17,17,17,0,17,17,17,0,17,17,0,2147483647,2147483647,2147483647,2147483647,17,17,17,17,0,0,17,0,0,17,0,0,17,17,17,17,0,17,0,17,17,0,0,17,17,0,17,17,17,0,0,17,0,17,0,17,17,0,0,17,2147483647,2147483647,0,0,2147483647,2147483647,0,0,0,0,0,0,2147483647,2147483647,0,0,0,0],"split_type":[0,0,0,0,0,0,0,0,0,0,0,0,0,0,0,0,0,0,0,0,0,0,0,0,0,0,0,0,0,0,0,0,0,0,0,0,0,0,0,0,0,0,0,0,0,0,0,0,0,0,0,0,0,0,0,0,0,0,0,0,0,0,0,0,0,0,0,0,0,0,0,0,0,0,0,0,0,0,0,0,0,0,0,0,0,0,0],"sum_hessian":[1.11639664E5,7.0504555E4,4.1135105E4,6.306909E4,7.4354673E3,1.8537803E4,2.2597305E4,6.261952E4,4.4957E2,1.7702623E3,5.665205E3,7.364247E3,1.1173555E4,1.1621556E4,1.0975749E4,9.6911523E2,6.1650406E4,3.755501E2,5.2896553E3,2.2944065E3,5.069841E3,4.1736285E2,1.0756192E4,6.3416597E3,5.2798965E3,1.0937822E4,3.792694E1,7.0336017E2,2.65755E2,3.2276572E4,2.9373832E4,2.799313E3,2.490342E3,1.7157179E3,5.7868854E2,4.0426616E3,1.0271791E3,4.0846695E2,1.0347726E4,6.0861646E3,2.5549472E2,5.57013E3,2.6706443E4,2.5990543E4,3.3832893E3,1.5477338E3,1.2515793E3,1.4760063E3,1.0143357E3,3.6618064E3,3.8085516E2,5.292272E2,9.818498E3,4.0286113E3,1.5415184E3,2.347342E4,3.2330232E3,2.5464203E4,5.263388E2,2.0191709E3,1.3641183E3,3.1408752E2,9.374918E2,1.06959755E2,9.073759E2,2.6070142E3,1.0547922E3,1.01028973E3,8.808208E3,2.5496772E3,1.4789342E3,2.169474E4,1.7786808E3,6.87178E0,3.2261516E3,2.1410576E4,4.0536272E3,4.7736557E2,8.8675275E2,7.0410034E2,2.3339151E2,2.7930908E1,8.79445E2,2.2540432E3,3.52971E2,6.0918787E2,8.1990205E3],"tree_param":{"num_deleted":"10","num_feature":"19","num_nodes":"87","size_leaf_vector":"0"}},{"base_weights":[-0E0,-1.2847698E-1,3.783647E-1],"categories":[],"categories_nodes":[],"categories_segments":[],"categories_sizes":[],"default_left":[true,false,false],"id":7,"left_children":[1,-1,-1],"loss_changes":[5.406668E3,0E0,0E0],"parents":[2147483647,0,0],"right_children":[2,-1,-1],"split_conditions":[5E-1,-1.9271547E-2,5.675471E-2],"split_indices":[13,0,0],"split_type":[0,0,0],"sum_hessian":[1.1094898E5,8.27212E4,2.8227775E4],"tree_param":{"num_deleted":"0","num_feature":"19","num_nodes":"3","size_leaf_vector":"0"}},{"base_weights":[-0E0,3.523184E-2,-7.6565355E-1,-1.9094338E-1,9.232338E-2,-6.5499914E-1,-1.1619891E0,-2.8921416E-1,-9.3567096E-2,1.18139975E-1,-1.3130319E-1,-6.636095E-1,-0E0,-1.2195373E0,-0E0,-0E0,-2.9189804E-1,2.5396612E-2,-1.257613E-1,3.561188E-2,1.3405903E-1,-1.6791455E-1,1.2713693E-2,-0E0,-1.8112187E-1,2.356281E-1,-0E0,-4.2398474E-1,-7.650436E-2,1.2387964E-1,-0E0,1.4338285E-1,1.34593295E-2,-1.2544173E-1,-9.383955E-1,4.4944662E-1,-0E0,-0E0,3.6269584E-1,-1.0630799E-1,1.0390548E-1,-1.453415E-2,-1.703167E-1,7.787166E-2,6.816709E-1,-3.4570763E-1,2.7133122E-2,1.6129282E-1,1.0667669E-1,-1.0459505E-1,9.0526454E-2,-8.347338E-2,-2.2584248E-1,-1.1783407E0,-0E0,-2.6160765E-1,4.3962836E-2,-0E0,-3.3227155E-1,6.6059566E-1,-0E0,-4.561656E-2,2.3613517E-1,-1.9673477E-1,-0E0,1.2903938E-1,-0E0,4.4339914E-2,-4.789566E-1,1.0704695E-1,2.101051E-1,-0E0,1.190399E-1,-0E0,-2.3626217E-1,1.779712E-1,2.1227222E-2,-1.361639E-1,-0E0,-5.333265E-1,-1.07581474E-1,-0E0,-3.855416E-1,2.1258172E-1,-3.8224068E-2,-2.641846E-1,3.001059E-2,-1.7025182E-1,2.00659E-1,6.438081E-3,-1.0060202E-1,-0E0,3.6350334E-1,4.620811E-2,-2.4239272E-1,-0E0,1.9010213E-1,-3.5203034E-1,1.1437774E-2,-0E0,1.00746416E-1,1.12633064E-1,-6.886245E-1,1.1471254E-2,-2.1199451E-1,1.0449693E-1,2.8040275E-1,-0E0,1.4407004E-1,-0E0,2.6337722E-1,-4.2992644E-2,1.6451995E-1,-1.01722755E-1,-3.888593E-1,2.856434E-1,-1.7843483E-3,-0E0,-1.0375477E0,6.408478E-2,-1.9388941E-1,-0E0,3.9523292E-1,-3.3964604E-1,-0E0],"categories":[],"categories_nodes":[],"categories_segments":[],"categories_sizes":[],"default_left":[true,true,true,true,true,true,true,true,true,true,true,false,false,false,true,false,false,true,true,true,true,true,true,true,true,true,true,false,true,true,true,true,true,true,true,false,true,false,false,true,true,true,true,true,false,false,true,true,true,true,true,true,true,false,false,true,true,true,false,false,true,true,true,false,true,true,true,true,false,true,false,true,true,true,false,true,true,true,true,true,true,true,true,true,true,false,false,false,false,false,false,true,true,false,false,false,false,false,false,false,false,false,false,false,false,false,false,true,true,false,false,false,false,true,true,false,false,false,false,false,false,true,true,false,false],"id":8,"left_children":[1,3,5,7,9,11,13,15,17,19,21,-1,-1,-1,-1,-1,-1,25,27,29,31,33,35,-1,-1,37,39,-1,41,43,45,47,49,51,53,-1,55,-1,-1,57,59,61,63,65,-1,-1,67,69,71,73,75,77,79,-1,-1,-1,83,85,-1,-1,87,89,-1,-1,93,95,97,99,-1,101,-1,103,105,-1,-1,109,111,-1,115,117,119,-1,-1,-1,123,-1,-1,-1,-1,-1,-1,-1,-1,-1,-1,-1,-1,-1,-1,-1,-1,-1,-1,-1,-1,-1,-1,-1,-1,-1,-1,-1,-1,-1,-1,-1,-1,-1,-1,-1,-1,-1,-1,-1,-1],"loss_changes":[2.9597317E3,1.3641108E3,9.8153076E1,1.7880463E2,4.896162E2,3.6764893E1,7.725952E0,1.3173096E1,4.8167076E1,8.985217E1,5.467189E1,0E0,0E0,0E0,1.7398907E0,0E0,0E0,1.6152706E1,1.0156738E2,4.5782093E1,6.1585083E1,1.6807472E2,2.1969416E1,0E0,0E0,1.095525E1,1.7863445E1,0E0,3.46304E1,5.6954807E1,9.6539764E1,2.175476E1,4.489604E1,9.704147E0,4.746881E1,0E0,2.1641531E1,0E0,0E0,1.31606245E1,3.8811073E1,2.850908E1,7.4178467E0,2.0296837E1,0E0,0E0,4.4254333E1,8.121234E1,3.0001495E1,3.2658722E1,8.0147705E0,3.0206562E1,1.7871323E1,0E0,0E0,6.74127E0,2.45842E1,1.1809828E1,0E0,0E0,2.0295256E1,1.964585E1,1.3587112E0,0E0,1.05775E1,2.3630814E1,1.802956E1,2.1189741E1,0E0,4.7268326E1,0E0,1.0041191E1,1.9305054E1,2.8057926E0,0E0,1.2671581E1,2.8448181E1,9.734726E-1,1.546252E1,2.543534E1,2.7205524E1,0E0,0E0,2.1189861E0,1.9683813E1,0E0,0E0,0E0,0E0,0E0,0E0,0E0,0E0,0E0,0E0,0E0,0E0,0E0,0E0,0E0,0E0,0E0,0E0,0E0,0E0,0E0,0E0,0E0,0E0,0E0,0E0,0E0,0E0,0E0,0E0,0E0,0E0,0E0,0E0,0E0,0E0,0E0,0E0,0E0,0E0],"parents":[2147483647,0,0,1,1,2,2,3,3,4,4,5,5,6,6,7,7,8,8,9,9,10,10,14,14,17,17,18,18,19,19,20,20,21,21,22,22,25,25,26,26,28,28,29,29,30,30,31,31,32,32,33,33,34,34,36,36,39,39,40,40,41,41,42,42,43,43,46,46,47,47,48,48,49,49,50,50,51,51,52,52,55,55,56,56,57,57,60,60,61,61,62,62,64,64,65,65,66,66,67,67,69,69,71,71,72,72,73,73,75,75,76,76,77,77,78,78,79,79,80,80,83,83,84,84],"right_children":[2,4,6,8,10,12,14,16,18,20,22,-1,-1,-1,-1,-1,-1,26,28,30,32,34,36,-1,-1,38,40,-1,42,44,46,48,50,52,54,-1,56,-1,-1,58,60,62,64,66,-1,-1,68,70,72,74,76,78,80,-1,-1,-1,84,86,-1,-1,88,90,-1,-1,94,96,98,100,-1,102,-1,104,106,-1,-1,110,112,-1,116,118,120,-1,-1,-1,124,-1,-1,-1,-1,-1,-1,-1,-1,-1,-1,-1,-1,-1,-1,-1,-1,-1,-1,-1,-1,-1,-1,-1,-1,-1,-1,-1,-1,-1,-1,-1,-1,-1,-1,-1,-1,-1,-1,-1,-1],"split_conditions":[3.242878E1,2.2159569E1,3.791879E1,2.056932E1,2.9638107E1,3.789161E1,5.145595E1,1.1465048E1,2.0884308E1,2.3422398E1,3.1808153E1,-9.954143E-2,-0E0,-1.8293059E-1,-0E0,-0E0,-4.3784708E-2,2.061298E1,2.1093948E1,2.2567518E1,2.8754608E1,3.1634861E1,3.1836689E1,-0E0,-2.7168281E-2,2.058517E1,2.078228E1,-6.359772E-2,2.1800621E1,2.2556023E1,2.2658226E1,2.6484138E1,2.9038017E1,3.1015842E1,3.1772758E1,6.7416996E-2,3.199242E1,-0E0,5.4404378E-2,2.0736588E1,2.0789904E1,2.1771725E1,2.2101944E1,2.2430296E1,1.0225064E-1,-5.1856145E-2,2.3405445E1,2.4934872E1,2.6667564E1,2.8867264E1,2.9203892E1,3.0533339E1,3.1145977E1,-1.767511E-1,-0E0,-3.924115E-2,3.2198185E1,2.0651329E1,-4.9840733E-2,9.9089354E-2,2.0845745E1,2.1361748E1,3.5420276E-2,-2.9510217E-2,2.213482E1,2.2243101E1,2.2449745E1,2.3092506E1,-7.18435E-2,2.492694E1,3.1515766E-2,2.6643074E1,2.8606007E1,-0E0,-3.5439327E-2,2.9102554E1,2.9456375E1,-2.0424586E-2,3.0576105E1,3.1091839E1,3.1198326E1,-0E0,-5.783124E-2,3.188726E-2,3.2308662E1,-3.962769E-2,4.5015886E-3,-2.5537774E-2,3.0098852E-2,9.657122E-4,-1.5090304E-2,-0E0,5.4525502E-2,6.931217E-3,-3.6358908E-2,-0E0,2.851532E-2,-5.2804552E-2,1.7156661E-3,-0E0,1.5111963E-2,1.689496E-2,-1.0329368E-1,1.7206882E-3,-3.179918E-2,1.567454E-2,4.2060412E-2,-0E0,2.1610508E-2,-0E0,3.9506584E-2,-6.448897E-3,2.4677994E-2,-1.5258414E-2,-5.8328897E-2,4.2846512E-2,-2.6765224E-4,-0E0,-1.5563217E-1,9.612718E-3,-2.9083412E-2,-0E0,5.928494E-2,-5.094691E-2,-0E0],"split_indices":[7,7,7,7,7,7,7,7,7,7,7,0,0,0,7,0,0,7,7,7,7,7,7,2147483647,2147483647,7,7,0,7,7,7,7,7,7,7,0,7,0,0,7,7,7,7,7,0,0,7,7,7,7,7,7,7,0,0,7,7,7,0,0,7,7,7,0,7,7,7,7,0,7,0,7,7,7,0,7,7,7,7,7,7,2147483647,2147483647,7,7,0,0,0,0,0,0,2147483647,2147483647,0,0,0,0,0,0,0,0,0,0,0,0,0,0,2147483647,2147483647,0,0,0,0,2147483647,2147483647,0,0,0,0,0,0,2147483647,2147483647,0,0],"split_type":[0,0,0,0,0,0,0,0,0,0,0,0,0,0,0,0,0,0,0,0,0,0,0,0,0,0,0,0,0,0,0,0,0,0,0,0,0,0,0,0,0,0,0,0,0,0,0,0,0,0,0,0,0,0,0,0,0,0,0,0,0,0,0,0,0,0,0,0,0,0,0,0,0,0,0,0,0,0,0,0,0,0,0,0,0,0,0,0,0,0,0,0,0,0,0,0,0,0,0,0,0,0,0,0,0,0,0,0,0,0,0,0,0,0,0,0,0,0,0,0,0,0,0,0,0],"sum_hessian":[1.1093537E5,1.0611226E5,4.8231094E3,2.116725E4,8.494501E4,3.8947935E3,9.28316E2,1.0217358E4,1.0949892E4,7.640244E4,8.542569E3,3.8778381E3,1.6955156E1,8.47874E2,8.044193E1,3.2438755E1,1.018492E4,1.9220286E3,9.027862E3,1.2984695E4,6.3417742E4,7.154198E3,1.3883713E3,2.8404781E1,5.203715E1,3.1227173E2,1.6097568E3,1.1002354E3,7.9276274E3,4.055429E3,8.929267E3,5.8389258E4,5.0284863E3,6.857794E3,2.964045E2,1.0887001E2,1.2795012E3,9.777453E1,2.1449721E2,9.1448645E2,6.952704E2,5.172708E3,2.7549194E3,3.8501514E3,2.0527754E2,7.564201E2,8.1728467E3,3.810451E4,2.0284744E4,1.6682091E3,3.3602773E3,5.272995E3,1.584799E3,2.2180309E2,7.460142E1,2.8716626E2,9.92335E2,7.025701E2,2.1191629E2,1.0516331E2,5.901071E2,4.822843E3,3.498654E2,2.256122E3,4.9879736E2,2.620451E3,1.2297003E3,8.0234727E3,1.4937367E2,1.8650867E4,1.9453645E4,1.8776693E3,1.8407074E4,7.569869E2,9.112223E2,1.0893942E3,2.270883E3,3.6102473E3,1.6627477E3,2.9361438E2,1.2911846E3,1.1013516E2,1.7703108E2,5.71863E2,4.2047202E2,1.6121223E2,5.413579E2,3.133514E2,2.7675568E2,1.8986788E3,2.9241638E3,1.9252011E2,1.5734528E2,3.3186438E2,1.6693297E2,7.597129E2,1.8607382E3,1.4333937E2,1.086361E3,4.3824375E3,3.6410354E3,1.859907E4,5.1797245E1,1.660106E3,2.1756345E2,1.7239246E4,1.167827E3,6.2280817E2,1.3417867E2,4.0983896E2,6.795552E2,1.2698088E3,1.0010742E3,3.3943687E3,2.1587866E2,1.8845233E2,1.4742954E3,1.9314287E2,1.00471504E2,1.9173122E2,1.0994534E3,3.9356976E2,1.7829324E2,1.7496844E2,2.4550359E2],"tree_param":{"num_deleted":"12","num_feature":"19","num_nodes":"125","size_leaf_vector":"0"}},{"base_weights":[-0E0,1.869398E-1,-2.630638E-1],"categories":[],"categories_nodes":[],"categories_segments":[],"categories_sizes":[],"default_left":[true,false,false],"id":9,"left_children":[1,-1,-1],"loss_changes":[5.448918E3,0E0,0E0],"parents":[2147483647,0,0],"right_children":[2,-1,-1],"split_conditions":[5E-1,2.8040972E-2,-3.945957E-2],"split_indices":[8,0,0],"split_type":[0,0,0],"sum_hessian":[1.108231E5,6.481854E4,4.600456E4],"tree_param":{"num_deleted":"0","num_feature":"19","num_nodes":"3","size_leaf_vector":"0"}},{"base_weights":[-0E0,-1.1930353E-1,3.4943074E-1],"categories":[],"categories_nodes":[],"categories_segments":[],"categories_sizes":[],"default_left":[true,false,false],"id":10,"left_children":[1,-1,-1],"loss_changes":[4.6187017E3,0E0,0E0],"parents":[2147483647,0,0],"right_children":[2,-1,-1],"split_conditions":[5E-1,-1.789553E-2,5.2414615E-2],"split_indices":[13,0,0],"split_type":[0,0,0],"sum_hessian":[1.1072242E5,8.251571E4,2.8206715E4],"tree_param":{"num_deleted":"0","num_feature":"19","num_nodes":"3","size_leaf_vector":"0"}},{"base_weights":[-0E0,4.5127165E-2,-3.280664E-1],"categories":[],"categories_nodes":[],"categories_segments":[],"categories_sizes":[],"default_left":[true,false,false],"id":11,"left_children":[1,-1,-1],"loss_changes":[1.635629E3,0E0,0E0],"parents":[2147483647,0,0],"right_children":[2,-1,-1],"split_conditions":[5E-1,6.769075E-3,-4.9209964E-2],"split_indices":[10,0,0],"split_type":[0,0,0],"sum_hessian":[1.106843E5,9.7329805E4,1.3354487E4],"tree_param":{"num_deleted":"0","num_feature":"19","num_nodes":"3","size_leaf_vector":"0"}},{"base_weights":[-0E0,-4.798122E-2,9.926697E-3],"categories":[],"categories_nodes":[],"categories_segments":[],"categories_sizes":[],"default_left":[true,false,false],"id":12,"left_children":[1,-1,-1],"loss_changes":[5.2386086E1,0E0,0E0],"parents":[2147483647,0,0],"right_children":[2,-1,-1],"split_conditions":[5E-1,-7.1971836E-3,1.4890047E-3],"split_indices":[2,0,0],"split_type":[0,0,0],"sum_hessian":[1.10638086E5,1.882392E4,9.1814164E4],"tree_param":{"num_deleted":"0","num_feature":"19","num_nodes":"3","size_leaf_vector":"0"}},{"base_weights":[-0E0,-3.027301E-1,3.31164E-1,-4.1001144E-1,-1.4065133E-1,5.279666E-1,2.073647E-1,-9.903134E-2,-4.3872675E-1,-1.9979015E-1,-1.11069344E-1,6.285193E-2,6.420568E-1,5.8544744E-2,3.3099288E-1,8.040119E-3,-1.8485697E-1,-4.5305133E-1,-2.74017E-1,-0E0,-2.051727E-1,2.6086226E-1,-1.1599682E-1,6.39276E-1,3.2257233E-2,-4.2492554E-2,7.6436214E-2,4.0277466E-1,-3.353611E-1,-0E0,4.3530207E-2,-2.132311E-1,-0E0,-2.9996693E-1,-4.6807477E-1,-0E0,-2.9754502E-1,-0E0,1.669905E-1,-0E0,-1.20483205E-1,3.9737105E-1,4.8441824E-2,2.445683E-1,4.612161E-1,-8.295767E-2,-5.21522E-1,-4.122368E-1,-1.185942E-1,-3.0690464E-1,-0E0,-0E0,-7.3138905E-1,9.365324E-1,2.9158186E-2,-9.870415E-3,3.0371654E-1,-2.2693103E-2,9.253406E-2,2.9206026E-1,-0E0,-4.1507465E-1,1.0437992E-1,-5.846672E-1,-0E0,-0E0,-1.6057071E-1,2.7322013E-2,-0E0,6.973382E-2,-0E0,-0E0,-2.6486745E-1,-0E0,-4.731889E-2,2.6282525E-1,4.2371463E-2,-2.9868053E-2,3.910816E-3,4.817832E-1,-0E0,-2.524846E-1,-9.5068884E-1,-0E0,3.4552153E-2,-3.872087E-2,-0E0,-4.0025435E-2,5.813786E-1,-1.8694487E-1,-0E0,-0E0,7.000791E-2,2.2380018E-1,-0E0,-4.107317E-1,-0E0],"categories":[],"categories_nodes":[],"categories_segments":[],"categories_sizes":[],"default_left":[true,true,true,true,true,true,true,true,true,true,true,true,false,true,true,true,true,true,true,false,false,false,false,false,true,true,true,true,true,true,true,true,false,true,false,false,false,true,true,true,false,false,true,true,false,true,true,false,true,false,false,true,false,false,true,true,false,true,true,false,true,false,true,true,false,false,false,true,true,true,true,true,true,true,true,false,true,false,true,false,false,true,false,true,true,true,true,false,false,false,false,false,false,false,false,false,false],"id":13,"left_children":[1,3,5,7,9,11,13,15,17,19,21,23,-1,25,27,-1,31,33,35,-1,-1,-1,-1,-1,37,39,41,43,45,-1,-1,47,-1,49,-1,-1,-1,51,53,55,-1,-1,57,59,-1,61,63,-1,65,-1,-1,-1,-1,-1,-1,-1,-1,73,75,-1,77,-1,79,81,-1,-1,-1,-1,-1,-1,-1,-1,-1,87,89,-1,91,-1,93,-1,-1,95,-1,-1,-1,-1,-1,-1,-1,-1,-1,-1,-1,-1,-1,-1,-1],"loss_changes":[1.10925625E4,9.7069385E2,1.2419673E3,2.7508887E2,2.13779E1,1.0289258E3,5.763124E2,3.948725E1,2.8979492E1,1.40199585E1,2.0735214E1,3.0471869E1,0E0,2.9293491E1,8.461636E2,1.3786756E0,2.012587E1,1.7964844E1,3.519211E1,0E0,0E0,0E0,0E0,0E0,2.4563189E1,7.7021904E0,9.1815186E1,1.0381152E2,3.898021E1,0E0,0E0,4.312668E0,0E0,1.0568665E1,0E0,0E0,0E0,2.9686651E1,4.9309067E1,7.6944547E0,0E0,0E0,4.3256172E1,5.442102E1,0E0,7.1174904E1,3.063768E1,0E0,1.1812042E1,0E0,0E0,1.5543295E0,0E0,0E0,3.501077E0,2.6075122E0,0E0,3.5370934E0,5.110897E1,0E0,1.7733131E-1,0E0,1.9855968E1,1.3013901E1,0E0,0E0,0E0,9.0674436E-1,1.203624E0,0E0,0E0,0E0,0E0,5.2288597E1,1.5248703E1,0E0,1.0670434E1,0E0,1.0955471E1,0E0,0E0,3.63055E1,0E0,0E0,0E0,0E0,0E0,0E0,0E0,0E0,0E0,0E0,0E0,0E0,0E0,0E0,0E0],"parents":[2147483647,0,0,1,1,2,2,3,3,4,4,5,5,6,6,7,7,8,8,9,9,10,10,11,11,13,13,14,14,15,15,16,16,17,17,18,18,24,24,25,25,26,26,27,27,28,28,31,31,33,33,37,37,38,38,39,39,42,42,43,43,45,45,46,46,48,48,51,51,54,54,55,55,57,57,58,58,60,60,62,62,63,63,67,67,68,68,73,73,74,74,76,76,78,78,81,81],"right_children":[2,4,6,8,10,12,14,16,18,20,22,24,-1,26,28,-1,32,34,36,-1,-1,-1,-1,-1,38,40,42,44,46,-1,-1,48,-1,50,-1,-1,-1,52,54,56,-1,-1,58,60,-1,62,64,-1,66,-1,-1,-1,-1,-1,-1,-1,-1,74,76,-1,78,-1,80,82,-1,-1,-1,-1,-1,-1,-1,-1,-1,88,90,-1,92,-1,94,-1,-1,96,-1,-1,-1,-1,-1,-1,-1,-1,-1,-1,-1,-1,-1,-1,-1],"split_conditions":[9.511048E-1,7.604517E-1,1.0000901E0,4.9981606E-1,8.113386E-1,9.9981207E-1,1.269206E0,4.193886E-1,7.47532E-1,7.6162374E-1,8.119147E-1,9.5414937E-1,9.630853E-2,1.0270269E0,7.045E0,1.2060179E-3,4.9046582E-1,5.4224455E-1,7.4780846E-1,-0E0,-3.0775907E-2,3.912934E-2,-1.7399523E-2,9.589141E-2,9.89316E-1,1.0178471E0,1.030507E0,1.4304848E0,1.0275E1,-0E0,6.5295314E-3,4.4504458E-1,-0E0,5.400044E-1,-7.021122E-2,-0E0,-4.4631753E-2,9.811481E-1,9.897871E-1,1.0148662E0,-1.8072482E-2,5.960566E-2,1.0911478E0,1.3923595E0,6.918242E-2,8.995E0,1.899E1,-6.1835524E-2,4.500298E-1,-4.60357E-2,-0E0,-0E0,-1.0970836E-1,1.4047986E-1,4.3737283E-3,-1.4805623E-3,4.5557484E-2,1.0591886E0,1.1199539E0,4.380904E-2,1.4050665E0,-6.2261198E-2,9.005E0,1.3295E1,-0E0,-0E0,-2.4085607E-2,4.098302E-3,-0E0,1.0460073E-2,-0E0,-0E0,-3.973012E-2,1.0530055E0,1.0657048E0,3.942379E-2,1.1546645E0,-4.4802083E-3,1.4100261E0,7.226749E-2,-0E0,1.2995E1,-1.4260334E-1,-0E0,5.182823E-3,-5.8081304E-3,-0E0,-6.0038157E-3,8.720679E-2,-2.8041732E-2,-0E0,-0E0,1.0501187E-2,3.357003E-2,-0E0,-6.1609756E-2,-0E0],"split_indices":[14,14,14,14,14,14,14,14,14,14,14,14,0,14,14,14,14,14,14,0,0,0,0,0,14,14,14,14,14,2147483647,2147483647,14,0,14,0,0,0,14,14,14,0,0,14,14,0,14,14,0,14,0,0,14,0,0,14,14,0,14,14,0,14,0,14,14,0,0,0,2147483647,2147483647,2147483647,2147483647,2147483647,2147483647,14,14,0,14,0,14,0,0,14,0,2147483647,2147483647,2147483647,2147483647,0,0,0,0,0,0,0,0,0,0],"split_type":[0,0,0,0,0,0,0,0,0,0,0,0,0,0,0,0,0,0,0,0,0,0,0,0,0,0,0,0,0,0,0,0,0,0,0,0,0,0,0,0,0,0,0,0,0,0,0,0,0,0,0,0,0,0,0,0,0,0,0,0,0,0,0,0,0,0,0,0,0,0,0,0,0,0,0,0,0,0,0,0,0,0,0,0,0,0,0,0,0,0,0,0,0,0,0,0,0],"sum_hessian":[1.1064137E5,5.779122E4,5.2850152E4,3.454291E4,2.3248309E4,2.0213256E4,3.2636898E4,3.1028896E3,3.144002E4,7.050892E3,1.6197416E4,4.088902E3,1.6124354E4,1.5037808E4,1.759909E4,1.0595559E3,2.0433337E3,2.857658E4,2.8634392E3,3.2099792E1,7.018792E3,4.6586426E1,1.6150829E4,1.029458E2,3.9859563E3,1.7407383E3,1.3297069E4,1.5971978E4,1.6271132E3,2.9679547E2,7.6276044E2,1.9781069E3,6.522677E1,2.9245107E3,2.565207E4,3.75912E1,2.8258481E3,2.957339E3,1.0286173E3,9.9449725E2,7.46241E2,8.8807104E2,1.2408998E4,4.5960693E3,1.1375908E4,8.3265765E2,7.9445544E2,4.2529352E2,1.5528134E3,2.9059458E3,1.856487E1,2.9028428E3,5.4496338E1,8.704018E1,9.4157715E2,9.130482E2,8.1449E1,4.210482E3,8.198516E3,3.8605674E3,7.3550195E2,4.192096E2,4.1344806E2,7.215394E2,7.291597E1,2.4807532E2,1.304738E3,2.0811772E3,8.216654E2,8.837682E2,5.7808964E1,8.756109E2,3.7437347E1,1.6631514E3,2.5473306E3,1.5833077E3,6.615208E3,1.8838235E2,5.4711957E2,1.03997284E2,3.0945078E2,4.6793982E2,2.5359964E2,2.0719831E1,2.0604575E3,8.017876E2,1.987779E1,1.5166451E3,1.4650627E2,5.985874E2,1.9487433E3,2.0154557E3,4.5997524E3,2.1789827E2,3.2922128E2,3.9140952E2,7.653029E1],"tree_param":{"num_deleted":"12","num_feature":"19","num_nodes":"97","size_leaf_vector":"0"}},{"base_weights":[-0E0,3.969927E-2,-2.8812176E-1],"categories":[],"categories_nodes":[],"categories_segments":[],"categories_sizes":[],"default_left":[true,false,false],"id":14,"left_children":[1,-1,-1],"loss_changes":[1.2552325E3,0E0,0E0],"parents":[2147483647,0,0],"right_children":[2,-1,-1],"split_conditions":[5E-1,5.954891E-3,-4.3218266E-2],"split_indices":[10,0,0],"split_type":[0,0,0],"sum_hessian":[1.10299055E5,9.702133E4,1.3277729E4],"tree_param":{"num_deleted":"0","num_feature":"19","num_nodes":"3","size_leaf_vector":"0"}},{"base_weights":[-0E0,7.2764575E-2,-2.9331043E-1],"categories":[],"categories_nodes":[],"categories_segments":[],"categories_sizes":[],"default_left":[true,false,false],"id":15,"left_children":[1,-1,-1],"loss_changes":[2.348378E3,0E0,0E0],"parents":[2147483647,0,0],"right_children":[2,-1,-1],"split_conditions":[5E-1,1.0914687E-2,-4.3996565E-2],"split_indices":[11,0,0],"split_type":[0,0,0],"sum_hessian":[1.1024705E5,8.8391164E4,2.185588E4],"tree_param":{"num_deleted":"0","num_feature":"19","num_nodes":"3","size_leaf_vector":"0"}},{"base_weights":[-0E0,-2.1670383E-1,2.5806856E-1],"categories":[],"categories_nodes":[],"categories_segments":[],"categories_sizes":[],"default_left":[true,false,false],"id":16,"left_children":[1,-1,-1],"loss_changes":[6.1666445E3,0E0,0E0],"parents":[2147483647,0,0],"right_children":[2,-1,-1],"split_conditions":[5E-1,-3.2505576E-2,3.8710285E-2],"split_indices":[5,0,0],"split_type":[0,0,0],"sum_hessian":[1.1025219E5,5.9891344E4,5.0360844E4],"tree_param":{"num_deleted":"0","num_feature":"19","num_nodes":"3","size_leaf_vector":"0"}},{"base_weights":[-0E0,-2.1982309E-1,1.1178082E0],"categories":[],"categories_nodes":[],"categories_segments":[],"categories_sizes":[],"default_left":[true,false,false],"id":17,"left_children":[1,-1,-1],"loss_changes":[2.7068344E4,0E0,0E0],"parents":[2147483647,0,0],"right_children":[2,-1,-1],"split_conditions":[5E-1,-3.2973465E-2,1.6767123E-1],"split_indices":[1,0,0],"split_type":[0,0,0],"sum_hessian":[1.1010038E5,9.199578E4,1.8104596E4],"tree_param":{"num_deleted":"0","num_feature":"19","num_nodes":"3","size_leaf_vector":"0"}},{"base_weights":[-0E0,4.804406E-1,-3.0502057E-1,7.415034E-1,4.269798E-1,-7.5393096E-2,-5.44537E-1,3.4185526E-1,6.3219804E-1,-3.060206E-1,2.4872412E-1,-9.7348607E-1,-2.9416785E-1,4.5376143E-1,2.7737948E-1,1.371256E0,3.3766228E-1,2.7556788E-2,-3.817549E-1,5.0661206E-1,-1.7390019E-1,-9.0763795E-1,-1.6318372E0,-3.1081315E-2,-3.1564733E-1,-0E0,4.552369E-1,8.171535E-2,4.4934586E-1,-4.2634973E-1,6.288308E-2,-7.010205E-1,-1.658135E-1,6.0455367E-2,7.1265244E-1,-5.967577E-2,-2.642569E-1,-1.1148576E0,-5.2506834E-1,-1.5791187E0,-2.887458E-1,1.0498363E0,1.835325E-1,-0E0,-4.5956105E-1,-0E0,7.9386316E-2,-3.888336E-1,-1.3224576E0,-1.4028545E-1,-4.786503E-1,3.6488545E-1,-0E0,1.1818358E0,3.8400218E-1,-9.6335575E-2,1.6987978E-1,-5.2477294E-1,-1.0941697E-1,-8.797104E-1,-1.5834615E0,-2.695309E-1,-7.022264E-1,-2.2909354E-1,-3.8320202E-1,-0E0,1.911661E-1,1.5007694E-3,-1.2558724E-1,-8.646983E-1,2.1814504E-3,-1.3576337E0,-0E0,-2.0532517E-1,9.929445E-3,9.864677E-2,7.963128E-1,-1.3408695E-1,-1.0432941E0,-0E0,-1.1636345E-1,-1.3294652E0,-1.985284E-1,-1.7337643E0,-2.740289E-1,-3.8856325E-1,-0E0,-1.9355449E-1,-0E0,-9.1798145E-1,-1.5323697E0,-1.0750802E-1,-9.1768235E-1,9.521732E-1,3.0281222E-1,-3.164943E-1,-0E0,-1.1172609E0,-0E0,-2.069887E-1,-0E0,-2.8417265E-1,-0E0],"categories":[],"categories_nodes":[],"categories_segments":[],"categories_sizes":[],"default_left":[true,true,true,false,true,true,true,true,true,true,true,true,true,true,false,false,true,true,true,true,true,true,false,false,true,false,false,false,true,true,true,true,true,true,true,true,true,true,true,false,true,false,true,true,true,true,true,true,true,true,false,false,false,false,true,false,false,true,true,true,false,false,true,false,true,false,false,true,true,false,false,true,false,true,false,false,true,true,true,true,true,false,true,false,true,false,false,true,true,true,true,false,false,false,false,false,false,true,true,true,true,false,false],"id":18,"left_children":[1,3,5,-1,7,9,11,13,15,17,19,21,23,25,-1,-1,27,29,31,33,35,37,-1,-1,39,-1,-1,-1,41,-1,-1,47,49,51,53,55,57,59,61,-1,63,-1,65,-1,-1,-1,-1,69,71,73,-1,-1,-1,-1,75,-1,-1,77,-1,81,-1,-1,83,-1,85,-1,-1,-1,-1,-1,-1,-1,-1,91,-1,-1,93,95,-1,-1,-1,-1,-1,-1,101,-1,-1,-1,-1,-1,-1,-1,-1,-1,-1,-1,-1,-1,-1,-1,-1,-1,-1],"loss_changes":[1.6084471E4,5.225137E2,3.6499932E3,0E0,5.613218E2,2.5729426E3,3.432171E3,1.3766211E2,2.1189592E3,5.321493E2,1.5660217E3,3.5944336E2,9.567261E1,1.0896484E1,0E0,0E0,1.7774591E2,3.4993015E1,1.0912415E3,7.698672E2,3.442311E1,7.664541E2,0E0,0E0,5.2793616E2,0E0,0E0,0E0,7.155348E2,1.1856766E0,5.515005E0,1.1709666E3,4.162088E1,3.937751E1,8.262505E2,1.7652859E1,6.7364746E1,6.174502E2,1.1870154E2,0E0,6.679248E1,0E0,7.497856E0,0E0,0E0,3.0944855E0,0E0,8.8170105E2,4.8504883E1,1.0447623E2,0E0,0E0,0E0,0E0,3.6826215E2,0E0,0E0,9.6406586E1,2.7479515E0,1.3610793E3,0E0,0E0,8.437101E2,0E0,9.900696E0,0E0,0E0,0E0,1.4345145E-1,0E0,0E0,4.334961E0,0E0,4.1610178E2,0E0,0E0,2.8385193E1,2.0860874E1,2.811798E0,0E0,0E0,0E0,6.384796E0,0E0,8.46772E0,0E0,0E0,0E0,0E0,0E0,0E0,0E0,0E0,0E0,0E0,0E0,0E0,0E0,0E0,0E0,0E0,0E0,0E0],"parents":[2147483647,0,0,1,1,2,2,4,4,5,5,6,6,7,7,8,8,9,9,10,10,11,11,12,12,13,13,16,16,17,17,18,18,19,19,20,20,21,21,24,24,28,28,29,29,30,30,31,31,32,32,33,33,34,34,35,35,36,36,37,37,38,38,40,40,42,42,45,45,47,47,48,48,49,49,54,54,57,57,58,58,59,59,62,62,64,64,68,68,71,71,73,73,76,76,77,77,78,78,82,82,84,84],"right_children":[2,4,6,-1,8,10,12,14,16,18,20,22,24,26,-1,-1,28,30,32,34,36,38,-1,-1,40,-1,-1,-1,42,-1,-1,48,50,52,54,56,58,60,62,-1,64,-1,66,-1,-1,-1,-1,70,72,74,-1,-1,-1,-1,76,-1,-1,78,-1,82,-1,-1,84,-1,86,-1,-1,-1,-1,-1,-1,-1,-1,92,-1,-1,94,96,-1,-1,-1,-1,-1,-1,102,-1,-1,-1,-1,-1,-1,-1,-1,-1,-1,-1,-1,-1,-1,-1,-1,-1,-1],"split_conditions":[4.4313675E1,3.1031963E1,5.3000385E1,1.11225516E-1,4.2010117E1,4.9604576E1,5.6999725E1,3.6987762E1,4.2995544E1,4.5045403E1,5.1784714E1,5.6097584E1,5.70001E1,3.1658182E1,4.1606925E-2,2.056884E-1,4.3000748E1,4.451803E1,4.6999973E1,5.0005615E1,5.2213734E1,5.499996E1,-2.447756E-1,-4.6621975E-3,5.7999237E1,-0E0,6.828554E-2,1.2257303E-2,4.3802887E1,-6.395246E-2,9.432462E-3,4.6000015E1,4.9002975E1,4.998487E1,5.099965E1,5.2130814E1,5.2992348E1,5.4011726E1,5.5000076E1,-2.3686782E-1,6.85E1,1.5747544E-1,4.388574E1,-0E0,-6.893416E-2,-0E0,1.1907948E-2,4.5996933E1,4.6941467E1,4.8999977E1,-7.179755E-2,5.473282E-2,-0E0,1.7727537E-1,5.100017E1,-1.4450337E-2,2.5481967E-2,5.2718025E1,-1.6412547E-2,5.3999992E1,-2.3751923E-1,-4.0429637E-2,5.5999992E1,-3.4364033E-2,1.085E2,-0E0,2.8674917E-2,2.2511542E-4,-1.8838087E-2,-1.2970474E-1,3.2721757E-4,-2.0364507E-1,-0E0,4.8250256E1,1.4894168E-3,1.4797016E-2,5.1444626E1,5.2549194E1,-1.5649411E-1,-0E0,-1.7454518E-2,-1.9941978E-1,-2.9779261E-2,-2.6006466E-1,5.609736E1,-5.8284488E-2,-0E0,-2.9033175E-2,-0E0,-1.3769722E-1,-2.2985546E-1,-1.6126204E-2,-1.3765235E-1,1.4282598E-1,4.5421835E-2,-4.7474146E-2,-0E0,-1.6758914E-1,-0E0,-3.1048307E-2,-0E0,-4.26259E-2,-0E0],"split_indices":[15,15,15,0,15,15,15,15,15,15,15,15,15,15,0,0,15,15,15,15,15,15,0,0,15,0,0,0,15,15,15,15,15,15,15,15,15,15,15,0,15,0,15,2147483647,2147483647,2147483647,2147483647,15,15,15,0,0,0,0,15,0,0,15,15,15,0,0,15,0,15,0,0,2147483647,2147483647,0,0,15,0,15,0,0,15,15,15,2147483647,2147483647,0,15,0,15,0,0,2147483647,2147483647,2147483647,2147483647,0,0,0,0,0,0,2147483647,2147483647,2147483647,2147483647,0,0],"split_type":[0,0,0,0,0,0,0,0,0,0,0,0,0,0,0,0,0,0,0,0,0,0,0,0,0,0,0,0,0,0,0,0,0,0,0,0,0,0,0,0,0,0,0,0,0,0,0,0,0,0,0,0,0,0,0,0,0,0,0,0,0,0,0,0,0,0,0,0,0,0,0,0,0,0,0,0,0,0,0,0,0,0,0,0,0,0,0,0,0,0,0,0,0,0,0,0,0,0,0,0,0,0,0],"sum_hessian":[1.09713484E5,4.265085E4,6.706263E4,7.050218E3,3.5600633E4,3.437094E4,3.2691691E4,2.5378438E4,1.0222195E4,2.0193488E4,1.417745E4,1.1956499E4,2.0735191E4,8.923277E3,1.6455162E4,2.851919E3,7.370277E3,3.5850137E3,1.6608475E4,8.895727E3,5.2817236E3,1.0957124E4,9.9937537E2,1.7831866E3,1.8952006E4,5.1768193E0,8.9181E3,2.408212E3,4.962065E3,1.313367E2,3.453677E3,6.5843164E3,1.0024159E4,2.9057861E3,5.989941E3,2.6365542E3,2.6451697E3,7.001028E3,3.9560964E3,3.4585806E2,1.8606148E4,1.4500675E3,3.5119973E3,1.2822046E1,1.1851465E2,4.1195972E2,3.0417173E3,4.450131E3,2.1341858E3,9.452456E3,5.717027E2,3.7455103E2,2.531235E3,2.3886465E3,3.6012942E3,2.506876E3,1.2967824E2,8.3592865E2,1.809241E3,4.7517617E3,2.2492659E3,1.7640604E3,2.192036E3,1.18085E4,6.797648E3,6.978755E1,3.4422097E3,2.167915E2,1.9516821E2,2.078252E3,2.3718787E3,2.0512903E3,8.289547E1,6.884148E3,2.568308E3,2.2179133E3,1.3833809E3,5.456394E2,2.9028918E2,6.734882E0,1.8025061E3,2.8066702E3,1.9450917E3,5.996421E2,1.5923939E3,6.676909E3,1.2073904E2,8.541638E1,1.0975183E2,6.8609235E2,1.365198E3,6.1305225E3,7.536253E2,9.551554E2,4.282255E2,3.0537408E2,2.4026534E2,2.5524959E2,3.50396E1,1.9382795E3,6.812169E0,1.5855275E3,6.8664007E0],"tree_param":{"num_deleted":"16","num_feature":"19","num_nodes":"103","size_leaf_vector":"0"}},{"base_weights":[-0E0,-2.7531567E-1,4.774141E-1,-2.8750557E-1,2.9404718E-2,5.8202827E-1,3.909398E-1,1.931541E-1,-2.9542032E-1,1.3520822E-1,-6.2219504E-2,2.6762545E-1,6.59478E-1,2.9785222E-1,4.8401192E-1,2.4304587E-1,-0E0,-2.1679525E-1,-3.3359528E-1,-4.5911473E-1,-0E0,3.3190793E-1,7.089784E-2,1.3084356E0,6.411029E-1,4.8570505E-1,-0E0,-2.3277982E-1,-1.0153848E-1,-3.527127E-1,-1.6824086E-1,-0E0,-5.205876E-3,2.0274948E-1,1.2192953E0,-0E0,6.636972E-1,-1.04018465E-1,-2.487022E-1,-1.0607582E-1,-0E0,-3.3976674E-1,-1.3455743E0,1.2168651E-1,-3.4968394E-1,-6.819986E-2,-0E0,2.9115987E-1,-0E0,1.298366E0,6.4269024E-1,-2.4400784E-1,6.961917E-2,-6.158127E-1,-2.3785365E-1,-3.5763684E-1,-1.331592E-1,-1.2716205E0,-2.0444748E-1,1.0349965E-1,6.847067E-1,-4.5626674E-2,-3.9561203E-1,-1.0179032E-1,-2.6025912E-1,-3.4036228E-1,-1.4112158E0,1.3615626E-1,-5.8159643E-1,4.234551E-2,-5.6069666E-1,1.2752157E0,6.614521E-1],"categories":[],"categories_nodes":[],"categories_segments":[],"categories_sizes":[],"default_left":[true,true,true,true,true,true,true,true,true,false,true,true,true,false,true,true,true,true,true,false,true,true,false,false,true,false,false,true,true,true,true,true,true,true,false,false,true,true,true,true,true,true,false,false,true,true,true,false,false,false,true,true,false,false,true,true,true,false,true,false,true,false,false,false,false,false,false,false,false,false,false,false,false],"id":19,"left_children":[1,3,5,7,9,11,13,-1,17,-1,19,21,23,-1,25,-1,-1,27,29,-1,-1,33,-1,-1,35,-1,-1,37,-1,41,43,-1,-1,47,-1,-1,49,51,53,-1,-1,55,-1,-1,57,-1,-1,-1,-1,-1,59,61,-1,-1,63,65,67,-1,69,-1,71,-1,-1,-1,-1,-1,-1,-1,-1,-1,-1,-1,-1],"loss_changes":[1.4311975E4,2.7263477E2,2.9965137E2,2.5986035E2,2.8407375E1,3.7315332E2,1.4307617E2,5.3569946E0,1.6292285E2,0E0,1.8584503E1,2.1246338E1,4.5668457E1,0E0,8.7734375E0,0E0,0E0,1.9776855E1,1.0570752E2,0E0,2.3661222E-2,2.0022272E2,0E0,0E0,1.7608398E2,0E0,0E0,1.6743042E1,2.893303E0,3.9393213E2,2.7006595E2,0E0,2.5309828E-1,5.011001E1,0E0,0E0,5.513623E1,7.170026E1,1.2012695E1,0E0,0E0,1.1121094E2,0E0,0E0,3.2648148E2,0E0,0E0,0E0,0E0,0E0,2.4325E2,2.0275307E1,0E0,0E0,2.6423096E1,5.2873193E2,4.302039E2,0E0,2.7463174E2,0E0,4.192041E1,0E0,0E0,0E0,0E0,0E0,0E0,0E0,0E0,0E0,0E0,0E0,0E0],"parents":[2147483647,0,0,1,1,2,2,3,3,4,4,5,5,6,6,7,7,8,8,10,10,11,11,12,12,14,14,17,17,18,18,20,20,21,21,24,24,27,27,28,28,29,29,30,30,32,32,33,33,36,36,37,37,38,38,41,41,44,44,50,50,51,51,54,54,55,55,56,56,58,58,60,60],"right_children":[2,4,6,8,10,12,14,-1,18,-1,20,22,24,-1,26,-1,-1,28,30,-1,-1,34,-1,-1,36,-1,-1,38,-1,42,44,-1,-1,48,-1,-1,50,52,54,-1,-1,56,-1,-1,58,-1,-1,-1,-1,-1,60,62,-1,-1,64,66,68,-1,70,-1,72,-1,-1,-1,-1,-1,-1,-1,-1,-1,-1,-1,-1],"split_conditions":[1.12591995E2,1.10962555E2,1.2899683E2,7.2259224E1,1.11037544E2,1.1501099E2,1.6397137E2,2.8973116E-2,9.108775E1,2.0281233E-2,1.11588776E2,1.1499965E2,1.159988E2,4.4677835E-2,7.04E2,3.6456883E-2,-0E0,9.099943E1,1.07998535E2,-6.8867214E-2,-0E0,1.1420122E2,1.0634677E-2,1.9626534E-1,1.1601884E2,7.285576E-2,-0E0,7.9548386E1,-1.5230772E-2,1.070008E2,1.080001E2,-0E0,-7.8088144E-4,1.1399544E2,1.8289429E-1,-0E0,1.1696416E2,7.899216E1,8.096176E1,-1.5911374E-2,-0E0,1.0599944E2,-2.0183615E-1,1.8252978E-2,1.0899879E2,-1.0229979E-2,-0E0,4.367398E-2,-0E0,1.947549E-1,1.1701903E2,7.616123E1,1.0442876E-2,-9.237191E-2,8.203635E1,1.05000015E2,1.06000046E2,-1.9074309E-1,1.0900032E2,1.5524948E-2,1.17996765E2,-6.8440014E-3,-5.9341807E-2,-1.5268548E-2,-3.903887E-2,-5.1054344E-2,-2.1168238E-1,2.042344E-2,-8.723947E-2,6.3518267E-3,-8.41045E-2,1.9128238E-1,9.9217825E-2],"split_indices":[17,17,17,17,17,17,17,17,17,0,17,17,17,0,17,2147483647,2147483647,17,17,0,17,17,0,0,17,0,0,17,17,17,17,2147483647,2147483647,17,0,0,17,17,17,2147483647,2147483647,17,0,0,17,2147483647,2147483647,0,0,0,17,17,0,0,17,17,17,0,17,0,17,0,0,0,0,0,0,0,0,0,0,0,0],"split_type":[0,0,0,0,0,0,0,0,0,0,0,0,0,0,0,0,0,0,0,0,0,0,0,0,0,0,0,0,0,0,0,0,0,0,0,0,0,0,0,0,0,0,0,0,0,0,0,0,0,0,0,0,0,0,0,0,0,0,0,0,0,0,0,0,0,0,0,0,0,0,0,0,0],"sum_hessian":[1.0890206E5,6.908602E4,3.9816035E4,6.662434E4,2.461684E3,1.7691115E4,2.212492E4,9.5201355E2,6.567233E4,1.4562611E3,1.0054231E3,3.6557554E3,1.4035359E4,1.139669E4,1.072823E4,6.915954E2,2.6041815E2,2.1997373E4,4.3674953E4,1.0565128E2,8.997718E2,2.5173467E3,1.1384086E3,2.9162473E2,1.3743734E4,1.0690749E4,3.7481304E1,1.884489E4,3.1524827E3,3.8811664E4,4.863291E3,2.7700853E1,8.720709E2,2.2595654E3,2.5778128E2,5.2015356E2,1.3223581E4,2.5032214E3,1.6341669E4,3.1456096E3,6.8731694E0,3.837508E4,4.3658566E2,1.7406061E3,3.1226848E3,5.8502556E1,8.1356836E2,1.6862596E3,5.7330585E2,3.271585E2,1.2896423E4,1.5833556E3,9.1986584E2,3.0341467E2,1.6038254E4,3.5043266E4,3.331813E3,3.6582755E2,2.7568572E3,1.0392296E3,1.1857192E4,8.635807E2,7.1977496E2,2.6596333E3,1.3378621E4,3.453716E4,5.0610422E2,1.995703E3,1.3361099E3,1.526331E3,1.2305261E3,3.4619534E2,1.1510997E4],"tree_param":{"num_deleted":"8","num_feature":"19","num_nodes":"73","size_leaf_vector":"0"}},{"base_weights":[-0E0,-2.1010959E-1,2.5923824E-1,-2.9497802E-1,-8.543302E-2,4.8250633E-1,1.3817205E-1,-3.0278303E-2,-3.1812307E-1,-9.929496E-2,-0E0,1.1180012E-1,4.99927E-1,1.6489488E-1,-3.2474676E-1,5.017277E-2,-1.0287447E-1,-3.381164E-1,-2.155648E-1,-0E0,-1.01566955E-1,4.3502688E-1,-5.6582014E-3,7.647502E-1,-0E0,2.7515754E-2,2.914711E-1,-9.2725344E-2,-4.6531865E-1,-0E0,7.2254494E-2,-1.3346417E-1,-0E0,-2.0204991E-1,-3.520401E-1,-0E0,-2.2520469E-1,1.1097348E-2,-1.1649695E-1,-6.2233217E-2,4.3344617E-2,1.7484958E-1,3.333976E-1,-3.762454E-1,6.0884323E-2,-5.1825124E-1,-0E0,-2.8410453E-1,-5.1572483E-2,-2.0864551E-1,-0E0,-0E0,2.2999449E-2,-0E0,-1.090675E-1,3.1358522E-1,1.7872714E-2,2.3160584E-1,-0E0,3.1076342E-1,-0E0,-2.3559417E-1,-8.4790534E-1,-0E0,-8.925146E-2,2.6018402E-4,-5.2616253E-2,1.7314501E-1,-0E0,-4.352659E-2,1.907437E-1,-4.490231E-2,5.7586264E-2,-3.6547342E-1,-0E0,-0E0,1.0799408E-2,-0E0,-4.7198493E-2,-0E0,-5.351265E-2,2.0983602E-1,1.1491523E-2],"categories":[],"categories_nodes":[],"categories_segments":[],"categories_sizes":[],"default_left":[true,true,true,true,true,true,true,true,true,true,true,true,false,true,true,true,true,true,true,false,false,false,true,false,false,true,true,true,true,true,true,true,false,true,false,false,false,true,false,true,true,true,false,false,true,true,false,true,true,true,true,true,true,true,true,false,true,false,false,false,false,true,false,true,true,true,true,true,true,true,true,true,true,false,false,true,true,true,true,true,true,false,false],"id":20,"left_children":[1,3,5,7,9,11,13,15,17,19,21,23,-1,25,27,-1,31,33,35,-1,-1,-1,37,-1,-1,39,41,43,45,-1,-1,-1,-1,-1,-1,-1,-1,-1,-1,-1,55,57,-1,-1,59,61,-1,-1,-1,-1,-1,-1,-1,-1,-1,-1,71,-1,-1,-1,-1,73,-1,-1,-1,-1,-1,-1,-1,-1,-1,-1,81,-1,-1,-1,-1,-1,-1,-1,-1,-1,-1],"loss_changes":[5.887137E3,6.0730225E2,1.2705879E3,1.9392334E2,3.300107E1,7.082129E1,3.808678E2,2.1058603E1,3.1493652E1,9.434326E0,2.4905691E1,3.637665E1,0E0,5.0168628E2,1.7462296E1,2.6235442E0,1.33452835E1,1.5564697E1,2.1842163E1,0E0,0E0,0E0,1.18717165E1,0E0,0E0,1.9596397E1,4.359729E1,5.3125633E1,2.3552872E1,0E0,0E0,3.120102E0,0E0,6.9736176E0,0E0,0E0,0E0,3.058229E-1,0E0,2.5325847E0,6.902012E1,4.3879074E1,0E0,0E0,8.539295E0,3.0031128E0,0E0,0E0,5.92317E0,0E0,0E0,1.0483961E-1,1.7965693E0,4.3394337E0,0E0,0E0,3.0961739E1,0E0,0E0,0E0,0E0,2.9661509E1,0E0,0E0,0E0,1.0756152E-1,0E0,0E0,0E0,2.0959222E-1,0E0,1.0513363E0,4.2548397E1,0E0,0E0,0E0,0E0,0E0,0E0,0E0,0E0,0E0,0E0],"parents":[2147483647,0,0,1,1,2,2,3,3,4,4,5,5,6,6,7,7,8,8,9,9,10,10,11,11,13,13,14,14,15,15,16,16,17,17,18,18,22,22,25,25,26,26,27,27,28,28,31,31,33,33,37,37,39,39,40,40,41,41,44,44,45,45,48,48,51,51,52,52,53,53,56,56,61,61,65,65,69,69,71,71,72,72],"right_children":[2,4,6,8,10,12,14,16,18,20,22,24,-1,26,28,-1,32,34,36,-1,-1,-1,38,-1,-1,40,42,44,46,-1,-1,-1,-1,-1,-1,-1,-1,-1,-1,-1,56,58,-1,-1,60,62,-1,-1,-1,-1,-1,-1,-1,-1,-1,-1,72,-1,-1,-1,-1,74,-1,-1,-1,-1,-1,-1,-1,-1,-1,-1,82,-1,-1,-1,-1,-1,-1,-1,-1,-1,-1],"split_conditions":[9.89316E-1,7.727884E-1,1.0050247E0,4.9981606E-1,9.511048E-1,9.921899E-1,7.045E0,4.193886E-1,7.337276E-1,7.732879E-1,9.5745975E-1,9.897871E-1,7.498906E-2,1.269206E0,1.0005E1,7.5259157E-3,4.9046582E-1,5.4224455E-1,7.3526555E-1,-0E0,-1.5235044E-2,6.525403E-2,9.773367E-1,1.1471253E-1,-0E0,1.0270269E0,1.4304848E0,8.995E0,1.899E1,-0E0,1.0838174E-2,-2.0019626E-2,-0E0,-3.0307489E-2,-5.280602E-2,-0E0,-3.3780705E-2,1.6646023E-3,-1.7474543E-2,-9.334983E-3,1.033818E0,1.3796662E0,5.000964E-2,-5.6436814E-2,9.005E0,1.3295E1,-0E0,-4.2615682E-2,-7.7358726E-3,-3.1296827E-2,-0E0,-0E0,3.4499175E-3,-0E0,-1.6360126E-2,4.7037784E-2,1.0911478E0,3.4740876E-2,-0E0,4.6614513E-2,-0E0,1.2995E1,-1.271858E-1,-0E0,-1.3387719E-2,3.9027604E-5,-7.892438E-3,2.5971754E-2,-0E0,-6.528989E-3,2.8611556E-2,-6.7353467E-3,1.1199539E0,-5.4821014E-2,-0E0,-0E0,1.6199113E-3,-0E0,-7.079774E-3,-0E0,-8.026898E-3,3.1475406E-2,1.7237285E-3],"split_indices":[14,14,14,14,14,14,14,14,14,14,14,14,0,14,14,14,14,14,14,0,0,0,14,0,0,14,14,14,14,2147483647,2147483647,14,0,14,0,0,0,14,0,14,14,14,0,0,14,14,0,2147483647,2147483647,2147483647,2147483647,2147483647,2147483647,2147483647,2147483647,0,14,0,0,0,0,14,0,2147483647,2147483647,2147483647,2147483647,2147483647,2147483647,2147483647,2147483647,14,14,0,0,2147483647,2147483647,2147483647,2147483647,2147483647,2147483647,0,0],"split_type":[0,0,0,0,0,0,0,0,0,0,0,0,0,0,0,0,0,0,0,0,0,0,0,0,0,0,0,0,0,0,0,0,0,0,0,0,0,0,0,0,0,0,0,0,0,0,0,0,0,0,0,0,0,0,0,0,0,0,0,0,0,0,0,0,0,0,0,0,0,0,0,0,0,0,0,0,0,0,0,0,0,0,0],"sum_hessian":[1.0805671E5,5.962539E4,4.843132E4,3.517965E4,2.4445742E4,1.6847102E4,3.1584217E4,3.0443079E3,3.213534E4,2.1443617E4,3.0021255E3,9.1623956E2,1.5930861E4,2.99877E4,1.5965186E3,1.0390747E3,2.0052332E3,2.6384875E4,5.750465E3,3.4129032E1,2.1409488E4,1.3011716E2,2.8720083E3,8.080227E1,8.354373E2,1.4615668E4,1.537203E4,7.693615E2,8.2715704E2,3.6048523E1,1.0030261E3,1.9401765E3,6.505661E1,2.8641267E3,2.3520748E4,5.117884E1,5.699286E3,2.0097257E3,8.6228253E2,1.6035848E3,1.3012083E4,4.4574014E3,1.0914629E4,4.1168268E2,3.5767886E2,7.543182E2,7.283888E1,4.1577975E2,1.5243967E3,2.8460393E3,1.8087275E1,9.644637E2,1.0452621E3,8.6927E2,7.343148E2,9.101895E2,1.2101894E4,3.358037E3,1.0993645E3,1.0118993E2,2.5648892E2,5.082862E2,2.4603198E2,2.7250665E2,1.2518901E3,9.2761725E2,3.6846443E1,7.73882E1,9.6787384E2,7.9230927E2,7.696074E1,4.0843965E3,8.017497E3,4.3269687E2,7.558933E1,5.8104715E0,9.2180676E2,2.4548132E1,7.6776117E2,8.417976E2,3.242599E3,1.5498323E3,6.467665E3],"tree_param":{"num_deleted":"24","num_feature":"19","num_nodes":"83","size_leaf_vector":"0"}},{"base_weights":[-0E0,-5.1056713E-2,8.765546E-2,3.7195258E-2,-1.8618931E-1,1.4217989E-1,5.78748E-2,-7.169921E-3,5.6385964E-2,-2.1866627E-1,-1.2435441E-1,2.1474866E-2,2.4274412E-1,2.1494819E-2,1.5619884E-1,9.524091E-2,-1.3056323E-1,7.540982E-2,-2.9614868E-2,-1.5840133E-1,-2.4642123E-1,3.4378827E-1,-1.6416274E-1,8.571101E-2,-8.1401266E-2,3.5853666E-1,1.8305983E-1,3.7403725E-2,-6.314059E-2,1.6983055E-1,-3.7705805E-2,-0E0,1.1062482E-1,-1.8589348E-1,-2.0348819E-2,2.2188117E-1,6.728233E-2,-8.144557E-2,2.449385E-2,-2.3265018E-1,2.1268015E-1,-7.17146E-1,-2.2682953E-1,-5.451524E-1,-1.432173E-1,2.2705045E-1,4.2302724E-2,-2.0389111E-1,-0E0,1.4473967E-1,4.741794E-1,-0E0,2.0175213E-1,6.460268E-3,8.000697E-2,-1.9308767E-1,8.293629E-3,-8.1203006E-2,-0E0,1.3798295E-1,-0E0,-2.1598179E-2,-2.2143508E-1,-0E0,7.766988E-2,8.6189836E-2,-0E0,-2.0244691E-1,-6.3367486E-1,-0E0,-7.4359083E-1,-0E0,-2.3910227E-1,5.8375765E-2,-1.6866769E-1,-5.252102E-3,1.2772289E-1,-0E0,-7.777432E-2,2.3494823E-1,-0E0,2.9368633E-2,-2.6712328E-2,1.9768119E-1,2.8154016E-2,-0E0,-2.467513E-1,7.718829E-2,-2.8753212E-2,-4.2704184E-2,-0E0,6.676873E-2,-1.2044296E-1,1.1179653E-1,4.257086E-2,-7.202409E-1,1.3854071E-2,-2.5742972E-1,3.5063673E-2,-7.5718576E-1,-0E0,-1.8511368E-2,-0E0,-4.6219924E-1,-2.029272E-1,6.801489E-2,-0E0,-2.804222E-1,-1.2558627E-1,-0E0,-1.0385593E-1,9.084975E-3,-0E0,-3.3727236E-2,5.7574686E-2,-2.9754934E-1,-0E0,-0E0,9.2724256E-2,-3.3361185E-2,-0E0,-0E0,1.0221775E-1,-5.6396805E-2,-0E0,6.6715665E-3,-0E0,-0E0,1.8078892E-1,4.696027E-2,1.4070545E-1,-1.3521469E-1,8.6796485E-2,-0E0,1.923829E-2,-2.0236297E-1,-8.963841E-1,8.168693E-2,-0E0,-0E0,-5.4181766E-2,-0E0,-2.2439195E-1,-0E0,-1.385762E-1,-5.1216945E-2,1.6607584E-2,-8.585449E-2,9.481804E-3,-0E0,-1.05747096E-1,2.2993319E-1,9.35404E-3,-0E0,-5.51262E-2,1.775392E-1,-0E0],"categories":[],"categories_nodes":[],"categories_segments":[],"categories_sizes":[],"default_left":[true,true,true,true,true,true,true,true,true,true,true,true,true,true,true,true,true,true,true,true,true,false,true,true,true,true,true,true,true,false,true,true,true,true,false,false,true,false,true,true,false,true,true,false,true,false,true,false,true,true,false,false,false,true,true,true,true,true,true,true,true,true,true,true,true,false,true,true,true,true,true,true,true,true,true,true,false,true,true,false,false,true,true,false,true,true,true,true,true,true,true,true,false,true,true,false,true,true,true,false,false,true,true,false,true,true,true,false,true,true,true,true,true,true,true,false,true,false,true,true,true,true,true,true,true,true,true,false,false,true,true,false,false,true,true,false,false,true,true,true,true,false,false,false,false,true,true,true,true,true,true,false,false,true,true,false,false],"id":21,"left_children":[1,3,5,7,9,11,13,15,17,19,21,23,25,27,29,-1,33,35,37,39,41,-1,43,45,47,49,51,53,55,-1,-1,-1,-1,-1,-1,-1,63,-1,65,67,-1,-1,71,-1,73,-1,75,-1,-1,79,-1,-1,-1,81,83,-1,-1,-1,-1,-1,-1,-1,-1,91,93,-1,95,97,99,-1,-1,-1,103,-1,107,-1,-1,-1,-1,-1,-1,113,115,-1,117,-1,-1,-1,-1,-1,-1,127,-1,-1,131,-1,-1,135,-1,-1,-1,-1,-1,-1,141,-1,-1,-1,143,-1,-1,-1,-1,-1,151,-1,-1,-1,155,-1,-1,-1,-1,-1,-1,-1,-1,-1,-1,-1,-1,-1,-1,-1,-1,-1,-1,-1,-1,-1,-1,-1,-1,-1,-1,-1,-1,-1,-1,-1,-1,-1,-1,-1,-1,-1,-1],"loss_changes":[4.837611E2,8.151236E2,5.259607E1,3.761991E1,3.287567E1,1.4634558E2,8.423499E1,1.4480893E2,5.080699E1,3.34198E0,1.7432014E2,4.2397545E1,1.495993E1,2.5200085E1,2.5991348E1,3.0507698E0,2.0097824E1,1.1339096E1,1.677265E1,1.6870097E2,4.231012E1,0E0,3.1389877E1,9.645008E0,1.7983551E1,1.1939117E1,1.6230453E1,1.7534424E1,3.4965652E1,0E0,5.205168E-1,5.2172174E0,0E0,3.7061996E0,0E0,0E0,1.7174835E1,0E0,6.0774083E0,1.1050049E1,0E0,7.1492004E-1,2.4213501E1,0E0,5.2833725E1,0E0,2.2311367E1,0E0,5.5541116E-1,2.6316372E1,0E0,0E0,0E0,8.4523115E0,2.543518E1,2.3093872E0,6.39251E0,0E0,0E0,0E0,4.0983787E-1,0E0,0E0,2.512416E1,1.514357E1,0E0,3.6122807E1,7.8877335E1,8.052177E0,0E0,0E0,2.0296444E-1,3.9382446E1,5.0619984E-1,1.4423798E1,1.4377601E0,0E0,4.6923384E-2,0E0,0E0,0E0,1.4928337E1,1.6459492E1,0E0,1.3270457E1,2.3881224E-1,0E0,9.6756077E-1,4.2149416E-1,0E0,2.143392E-2,1.5576849E1,0E0,6.2902603E0,8.405548E1,0E0,1.076324E-1,8.154709E1,3.4003901E0,0E0,0E0,1.5008973E0,0E0,0E0,5.0705933E1,0E0,0E0,0E0,1.7847343E1,1.3103875E0,0E0,0E0,1.4168622E0,6.6600566E0,3.4209663E1,0E0,5.803756E-1,0E0,9.42424E0,0E0,0E0,0E0,0E0,0E0,0E0,0E0,0E0,0E0,0E0,0E0,0E0,0E0,0E0,0E0,0E0,0E0,0E0,0E0,0E0,0E0,0E0,0E0,0E0,0E0,0E0,0E0,0E0,0E0,0E0,0E0,0E0,0E0,0E0,0E0,0E0,0E0,0E0],"parents":[2147483647,0,0,1,1,2,2,3,3,4,4,5,5,6,6,7,7,8,8,9,9,10,10,11,11,12,12,13,13,14,14,15,15,16,16,17,17,18,18,19,19,20,20,22,22,23,23,24,24,25,25,26,26,27,27,28,28,30,30,31,31,33,33,36,36,38,38,39,39,41,41,42,42,44,44,46,46,48,48,49,49,53,53,54,54,55,55,56,56,60,60,63,63,64,64,66,66,67,67,68,68,71,71,72,72,73,73,74,74,75,75,77,77,81,81,82,82,84,84,85,85,87,87,88,88,90,90,91,91,93,93,94,94,96,96,97,97,98,98,101,101,104,104,108,108,109,109,112,112,113,113,114,114,116,116,118,118],"right_children":[2,4,6,8,10,12,14,16,18,20,22,24,26,28,30,-1,34,36,38,40,42,-1,44,46,48,50,52,54,56,-1,-1,-1,-1,-1,-1,-1,64,-1,66,68,-1,-1,72,-1,74,-1,76,-1,-1,80,-1,-1,-1,82,84,-1,-1,-1,-1,-1,-1,-1,-1,92,94,-1,96,98,100,-1,-1,-1,104,-1,108,-1,-1,-1,-1,-1,-1,114,116,-1,118,-1,-1,-1,-1,-1,-1,128,-1,-1,132,-1,-1,136,-1,-1,-1,-1,-1,-1,142,-1,-1,-1,144,-1,-1,-1,-1,-1,152,-1,-1,-1,156,-1,-1,-1,-1,-1,-1,-1,-1,-1,-1,-1,-1,-1,-1,-1,-1,-1,-1,-1,-1,-1,-1,-1,-1,-1,-1,-1,-1,-1,-1,-1,-1,-1,-1,-1,-1,-1,-1],"split_conditions":[1.3799982E2,1.08000336E2,1.5593695E2,6.883508E1,1.2699913E2,1.4543417E2,2.5674945E2,5.75E1,1.0224953E2,1.1500022E2,1.2700539E2,1.4245685E2,1.479971E2,2.2804565E2,8.3E2,1.4286137E-2,6.45E1,6.9074265E1,1.0683498E2,1.1499322E2,1.1595399E2,5.1568244E-2,1.2785161E2,1.3800249E2,1.4381564E2,1.4643457E2,1.4838255E2,1.906419E2,2.4150671E2,2.5474584E-2,-5.655871E-3,-0E0,1.6593724E-2,-2.7884023E-2,-3.052323E-3,3.3282176E-2,7.478023E1,-1.2216835E-2,1.070286E2,1.1421246E2,3.1902023E-2,-1.075719E-1,1.16164085E2,-8.1772864E-2,1.2816193E2,3.405757E-2,1.4043384E2,-3.0583669E-2,-0E0,1.4602432E2,7.112691E-2,-0E0,3.026282E-2,1.760014E2,1.9700728E2,-2.896315E-2,1.2440444E-3,-1.2180451E-2,-0E0,2.0697443E-2,-0E0,-3.2397269E-3,-3.3215266E-2,7.214191E1,8.701988E1,1.2928476E-2,1.0772815E2,1.1399986E2,1.1484918E2,-0E0,-1.11538626E-1,-0E0,1.1799943E2,8.756365E-3,1.3035243E2,-7.878153E-4,1.9158434E-2,-0E0,-1.1666149E-2,3.5242237E-2,-0E0,1.598937E2,1.7799338E2,2.965218E-2,2.1402777E2,-0E0,-3.7012696E-2,1.1578244E-2,-4.312982E-3,-6.405628E-3,-0E0,7.187659E1,-1.8066444E-2,1.676948E-2,9.099806E1,-1.0803614E-1,2.0781106E-3,1.130506E2,5.259551E-3,-1.13577865E-1,-0E0,-2.7767052E-3,-0E0,-6.932989E-2,1.18001E2,1.0202234E-2,-0E0,-4.2063333E-2,1.3072719E2,-0E0,-1.557839E-2,1.3627463E-3,-0E0,-5.059086E-3,1.6169406E2,-4.46324E-2,-0E0,-0E0,2.1912599E2,-5.004178E-3,-0E0,-0E0,1.53326625E-2,-8.459521E-3,-0E0,1.000735E-3,-0E0,-0E0,2.7118338E-2,7.0440406E-3,2.1105818E-2,-2.0282203E-2,1.3019473E-2,-0E0,2.8857435E-3,-3.0354446E-2,-1.3445762E-1,1.22530395E-2,-0E0,-0E0,-8.127266E-3,-0E0,-3.3658795E-2,-0E0,-2.078643E-2,-7.682542E-3,2.4911377E-3,-1.2878175E-2,1.4222707E-3,-0E0,-1.5862064E-2,3.4489978E-2,1.403106E-3,-0E0,-8.268931E-3,2.663088E-2,-0E0],"split_indices":[18,18,18,18,18,18,18,18,18,18,18,18,18,18,18,18,18,18,18,18,18,0,18,18,18,18,18,18,18,0,18,2147483647,2147483647,18,0,0,18,0,18,18,0,18,18,0,18,0,18,0,18,18,0,0,0,18,18,18,18,2147483647,2147483647,2147483647,2147483647,2147483647,2147483647,18,18,0,18,18,18,2147483647,2147483647,18,18,18,18,18,0,2147483647,2147483647,0,0,18,18,0,18,2147483647,2147483647,2147483647,2147483647,2147483647,2147483647,18,0,18,18,0,18,18,18,0,0,2147483647,2147483647,0,18,2147483647,2147483647,0,18,2147483647,2147483647,2147483647,2147483647,18,18,0,18,0,18,2147483647,2147483647,2147483647,2147483647,2147483647,2147483647,2147483647,2147483647,0,0,2147483647,2147483647,0,0,2147483647,2147483647,0,0,2147483647,2147483647,2147483647,2147483647,0,0,0,0,2147483647,2147483647,2147483647,2147483647,2147483647,2147483647,0,0,2147483647,2147483647,0,0],"split_type":[0,0,0,0,0,0,0,0,0,0,0,0,0,0,0,0,0,0,0,0,0,0,0,0,0,0,0,0,0,0,0,0,0,0,0,0,0,0,0,0,0,0,0,0,0,0,0,0,0,0,0,0,0,0,0,0,0,0,0,0,0,0,0,0,0,0,0,0,0,0,0,0,0,0,0,0,0,0,0,0,0,0,0,0,0,0,0,0,0,0,0,0,0,0,0,0,0,0,0,0,0,0,0,0,0,0,0,0,0,0,0,0,0,0,0,0,0,0,0,0,0,0,0,0,0,0,0,0,0,0,0,0,0,0,0,0,0,0,0,0,0,0,0,0,0,0,0,0,0,0,0,0,0,0,0,0,0],"sum_hessian":[1.07607836E5,6.757389E4,4.003394E4,4.0600535E4,2.6973355E4,1.3405181E4,2.6628762E4,1.1284007E4,2.931653E4,1.7025832E4,9.947523E3,6.3732476E3,7.0319336E3,1.9898197E4,6.7305635E3,5.8918276E3,5.3921787E3,2.459666E4,4.7198706E3,6.0751875E3,1.0950644E4,6.569342E2,9.29059E3,4.2945513E3,2.0786963E3,2.0367196E3,4.995214E3,1.7366863E4,2.5313345E3,6.5873354E3,1.4322777E2,1.2757085E3,4.616119E3,3.214964E3,2.1772146E3,8.9066315E2,2.3705996E4,2.995663E3,1.7242075E3,5.20182E3,8.73368E2,3.0968613E2,1.0640958E4,3.285887E2,8.962001E3,6.724601E2,3.6220913E3,7.630788E2,1.3156176E3,9.039354E2,1.1327842E3,4.84165E2,4.511049E3,1.0903736E4,6.463127E3,1.2051877E3,1.3261467E3,1.09035995E2,3.419177E1,2.7302368E2,1.0026848E3,8.823302E2,2.332634E3,3.0701084E3,2.0635889E4,9.564294E2,7.677782E2,4.982658E3,2.1916133E2,2.0412378E1,2.8927374E2,6.4089825E2,1.000006E4,7.313734E2,8.230627E3,1.8611003E3,1.7609908E3,1.2247965E3,9.082102E1,8.1917816E2,8.4757286E1,7.55531E3,3.3484265E3,1.6102811E3,4.8528457E3,4.2966537E2,7.7552234E2,1.0485919E3,2.7755478E2,2.2373526E2,7.789495E2,1.9337672E3,1.1363412E3,9.5661455E3,1.1069743E4,6.837559E1,6.994026E2,4.2579224E3,7.247362E2,1.6723914E2,5.192219E1,5.9130164E2,4.959664E1,1.15449E3,8.845569E3,6.4792236E2,8.34511E1,1.8881263E3,6.342501E3,1.72404E3,1.3706024E2,5.675148E2,6.5728174E2,1.6549481E3,5.900362E3,2.119027E2,3.1365237E3,2.8628855E3,1.9899601E3,2.1357228E2,2.160931E2,3.584798E2,6.901122E2,2.0392632E2,7.362847E1,4.8055502E2,2.983945E2,1.1942919E3,7.394753E2,3.6121626E3,5.9539824E3,1.9254677E3,9.144275E3,4.6372116E1,6.5303046E2,4.0106262E3,2.4729604E2,6.4231067E2,8.242555E1,1.1900806E1,5.794008E2,6.044962E2,8.241073E3,2.041355E2,6.1383657E3,3.5443073E2,1.3696094E3,1.8545421E2,4.7182755E2,8.9191675E2,7.630314E2,1.0079717E3,4.89239E3,2.9465415E3,1.8998227E2,8.410669E2,1.1488932E3],"tree_param":{"num_deleted":"50","num_feature":"19","num_nodes":"157","size_leaf_vector":"0"}},{"base_weights":[-0E0,-4.1374106E-2,6.4617105E-2],"categories":[],"categories_nodes":[],"categories_segments":[],"categories_sizes":[],"default_left":[true,false,false],"id":22,"left_children":[1,-1,-1],"loss_changes":[2.886758E2,0E0,0E0],"parents":[2147483647,0,0],"right_children":[2,-1,-1],"split_conditions":[5E-1,-6.206116E-3,9.6925665E-3],"split_indices":[4,0,0],"split_type":[0,0,0],"sum_hessian":[1.0752191E5,6.505798E4,4.2463926E4],"tree_param":{"num_deleted":"0","num_feature":"19","num_nodes":"3","size_leaf_vector":"0"}},{"base_weights":[-0E0,1.687601E-1,-1.7813824E-1],"categories":[],"categories_nodes":[],"categories_segments":[],"categories_sizes":[],"default_left":[true,false,false],"id":23,"left_children":[1,-1,-1],"loss_changes":[3.2307073E3,0E0,0E0],"parents":[2147483647,0,0],"right_children":[2,-1,-1],"split_conditions":[5E-1,2.5314016E-2,-2.6720738E-2],"split_indices":[12,0,0],"split_type":[0,0,0],"sum_hessian":[1.07477766E5,5.5319805E4,5.2157957E4],"tree_param":{"num_deleted":"0","num_feature":"19","num_nodes":"3","size_leaf_vector":"0"}},{"base_weights":[-0E0,-8.341513E-1,1.5439226E-1],"categories":[],"categories_nodes":[],"categories_segments":[],"categories_sizes":[],"default_left":[true,false,false],"id":24,"left_children":[1,-1,-1],"loss_changes":[1.3807279E4,0E0,0E0],"parents":[2147483647,0,0],"right_children":[2,-1,-1],"split_conditions":[5E-1,-1.2512271E-1,2.3158839E-2],"split_indices":[3,0,0],"split_type":[0,0,0],"sum_hessian":[1.07407E5,1.673628E4,9.067072E4],"tree_param":{"num_deleted":"0","num_feature":"19","num_nodes":"3","size_leaf_vector":"0"}},{"base_weights":[-0E0,-9.1406435E-2,2.6308846E-1],"categories":[],"categories_nodes":[],"categories_segments":[],"categories_sizes":[],"default_left":[true,false,false],"id":25,"left_children":[1,-1,-1],"loss_changes":[2.5763477E3,0E0,0E0],"parents":[2147483647,0,0],"right_children":[2,-1,-1],"split_conditions":[5E-1,-1.3710965E-2,3.946327E-2],"split_indices":[13,0,0],"split_type":[0,0,0],"sum_hessian":[1.0703589E5,7.939936E4,2.7636533E4],"tree_param":{"num_deleted":"0","num_feature":"19","num_nodes":"3","size_leaf_vector":"0"}},{"base_weights":[-0E0,-1.8156935E-1,9.389824E-1],"categories":[],"categories_nodes":[],"categories_segments":[],"categories_sizes":[],"default_left":[true,false,false],"id":26,"left_children":[1,-1,-1],"loss_changes":[1.8243256E4,0E0,0E0],"parents":[2147483647,0,0],"right_children":[2,-1,-1],"split_conditions":[5E-1,-2.7235404E-2,1.4084737E-1],"split_indices":[1,0,0],"split_type":[0,0,0],"sum_hessian":[1.0694748E5,8.960778E4,1.7339697E4],"tree_param":{"num_deleted":"0","num_feature":"19","num_nodes":"3","size_leaf_vector":"0"}},{"base_weights":[-0E0,8.369356E-2,-3.324177E-1],"categories":[],"categories_nodes":[],"categories_segments":[],"categories_sizes":[],"default_left":[true,false,false],"id":27,"left_children":[1,-1,-1],"loss_changes":[2.949454E3,0E0,0E0],"parents":[2147483647,0,0],"right_children":[2,-1,-1],"split_conditions":[5E-1,1.2554034E-2,-4.9862657E-2],"split_indices":[11,0,0],"split_type":[0,0,0],"sum_hessian":[1.0637697E5,8.507965E4,2.1297322E4],"tree_param":{"num_deleted":"0","num_feature":"19","num_nodes":"3","size_leaf_vector":"0"}},{"base_weights":[-0E0,-7.853804E-2,2.2718282E-1],"categories":[],"categories_nodes":[],"categories_segments":[],"categories_sizes":[],"default_left":[true,false,false],"id":28,"left_children":[1,-1,-1],"loss_changes":[1.9037397E3,0E0,0E0],"parents":[2147483647,0,0],"right_children":[2,-1,-1],"split_conditions":[5E-1,-1.1780706E-2,3.4077425E-2],"split_indices":[13,0,0],"split_type":[0,0,0],"sum_hessian":[1.0640308E5,7.895458E4,2.7448494E4],"tree_param":{"num_deleted":"0","num_feature":"19","num_nodes":"3","size_leaf_vector":"0"}},{"base_weights":[-0E0,2.7712896E-2,-6.07203E-1,-1.3696611E-1,6.823186E-2,-5.0687206E-1,-9.2943925E-1,-2.1186712E-1,-6.0487404E-2,8.7484494E-2,-9.674722E-2,-5.250156E-1,-0E0,-9.9859875E-1,-0E0,-0E0,-2.1399868E-1,3.4526836E-2,-9.1775335E-2,3.0801693E-2,9.8500066E-2,-1.3345133E-1,4.4958208E-2,-0E0,-1.1955473E-1,-0E0,1.2627582E-1,-2.5457683E-1,-4.0883098E-2,1.04251415E-1,-0E0,1.08246416E-1,3.1102078E-2,-8.775927E-2,-6.7508465E-1,4.043847E-1,-0E0,5.4443277E-2,-1.3247336E-1,5.592877E-1,-0E0,1.0139225E-1,-8.5268855E-2,-0E0,1.5254135E-1,-2.7610937E-1,1.820545E-2,7.084236E-2,1.2235983E-1,-1.6408981E-1,4.7169268E-2,-9.854804E-2,-0E0,-7.7291304E-1,-0E0,-1.5437229E-1,6.2408727E-2,-0E0,1.2250027E-1,-0E0,-2.2054084E-1,-4.990065E-2,2.1131408E-1,-0E0,2.634869E-1,-5.727465E-2,-3.6345813E-1,7.6132044E-2,-1.4703803E-1,1.1055482E-1,5.370057E-1,-3.2741782E-1,-0E0,3.292588E-2,-3.4015667E-1,9.611098E-2,-1.2943858E-1,1.5939471E-1,8.493735E-2,-0E0,-1.8782853E-1,2.4416044E-2,1.5170194E-1,-6.468406E-2,-2.0525719E-1,-0E0,-2.8439635E-1,2.1076901E-1,-0E0,2.853565E-1,-0E0,-2.2914256E-1,1.9356778E-1,-0E0,-1.3255294E-1,1.464539E-1,-9.816324E-2,-1.9513556E-1,-6.2946696E-3,-4.085528E-1,-0E0,-0E0,4.0530849E-1,1.4340971E-1,-0E0,3.399952E-2,-4.3070766E-1,1.0179768E-1,-0E0,1.6462542E-1,6.895317E-2,-1.7618763E-1,-0E0,5.707022E-2,1.6739231E-1,4.87263E-2,-1.2299132E-1,1.8593206E-1,-0E0,-1.0886538E-1,-0E0,-6.993943E-1,-6.0887307E-2,-2.627412E-1,-0E0],"categories":[],"categories_nodes":[],"categories_segments":[],"categories_sizes":[],"default_left":[true,true,true,true,true,true,true,true,true,true,true,false,false,true,true,false,false,true,true,true,true,true,true,true,true,true,true,false,true,true,true,true,true,true,true,false,true,true,true,false,true,true,true,true,true,true,true,true,true,true,true,true,false,false,false,true,true,false,true,true,false,true,false,true,false,true,true,true,false,true,false,false,true,true,false,true,true,false,true,true,true,true,true,true,true,false,false,false,true,false,false,false,false,true,true,false,false,false,false,true,true,false,false,false,false,false,false,false,false,false,false,false,false,false,false,false,false,true,true,false,false,false,false,false,false],"id":29,"left_children":[1,3,5,7,9,11,-1,15,17,19,21,-1,-1,-1,-1,-1,-1,25,27,29,31,33,35,-1,-1,37,39,-1,41,43,45,47,49,51,53,-1,55,57,59,-1,61,63,65,67,69,71,73,75,77,-1,81,83,-1,-1,-1,85,87,-1,89,91,-1,-1,-1,95,-1,97,-1,101,-1,103,-1,-1,105,107,-1,109,111,-1,113,-1,-1,115,-1,119,121,-1,-1,-1,123,-1,-1,-1,-1,-1,-1,-1,-1,-1,-1,-1,-1,-1,-1,-1,-1,-1,-1,-1,-1,-1,-1,-1,-1,-1,-1,-1,-1,-1,-1,-1,-1,-1,-1,-1,-1],"loss_changes":[1.7711118E3,6.744759E2,5.8933105E1,9.642923E1,2.596847E2,1.4694824E1,1.7090454E0,7.2721863E0,3.3874397E1,3.8004456E1,4.8279472E1,0E0,0E0,0E0,1.6990011E0,0E0,0E0,8.175129E0,4.931423E1,3.5215065E1,3.1295654E1,1.2295636E2,1.492182E1,0E0,0E0,1.0972015E1,2.0729984E1,0E0,4.0127113E1,2.6142082E1,5.7813934E1,1.5629578E1,1.9373974E1,1.1334316E1,1.7829971E1,0E0,1.0392507E1,6.495737E0,1.6158018E0,0E0,1.048692E1,2.585299E1,1.5134224E1,1.5431234E1,1.0854942E1,4.7525024E-1,2.2223305E1,7.657932E1,3.5809814E1,1.4578314E0,8.426525E0,5.9602737E0,0E0,0E0,0E0,7.256921E0,2.0952085E1,0E0,7.7840767E0,1.2658422E1,0E0,1.5460858E0,0E0,8.50172E0,0E0,2.2756996E1,2.078083E0,2.0188704E1,0E0,1.8638786E1,0E0,0E0,1.4885771E1,1.5113777E1,0E0,1.1691299E1,1.2661581E1,0E0,3.002594E1,0E0,0E0,2.1093102E1,4.6995163E0,1.9372023E1,2.9326084E1,0E0,0E0,0E0,1.165828E1,0E0,0E0,0E0,0E0,0E0,0E0,0E0,0E0,0E0,0E0,0E0,0E0,0E0,0E0,0E0,0E0,0E0,0E0,0E0,0E0,0E0,0E0,0E0,0E0,0E0,0E0,0E0,0E0,0E0,0E0,0E0,0E0,0E0,0E0,0E0,0E0],"parents":[2147483647,0,0,1,1,2,2,3,3,4,4,5,5,6,6,7,7,8,8,9,9,10,10,14,14,17,17,18,18,19,19,20,20,21,21,22,22,25,25,26,26,28,28,29,29,30,30,31,31,32,32,33,33,34,34,36,36,37,37,38,38,40,40,41,41,42,42,43,43,44,44,45,45,46,46,47,47,48,48,49,49,50,50,51,51,55,55,56,56,58,58,59,59,61,61,63,63,65,65,66,66,67,67,69,69,72,72,73,73,75,75,76,76,78,78,81,81,82,82,83,83,84,84,88,88],"right_children":[2,4,6,8,10,12,-1,16,18,20,22,-1,-1,-1,-1,-1,-1,26,28,30,32,34,36,-1,-1,38,40,-1,42,44,46,48,50,52,54,-1,56,58,60,-1,62,64,66,68,70,72,74,76,78,-1,82,84,-1,-1,-1,86,88,-1,90,92,-1,-1,-1,96,-1,98,-1,102,-1,104,-1,-1,106,108,-1,110,112,-1,114,-1,-1,116,-1,120,122,-1,-1,-1,124,-1,-1,-1,-1,-1,-1,-1,-1,-1,-1,-1,-1,-1,-1,-1,-1,-1,-1,-1,-1,-1,-1,-1,-1,-1,-1,-1,-1,-1,-1,-1,-1,-1,-1,-1,-1],"split_conditions":[3.242878E1,2.2101944E1,3.762751E1,2.0529198E1,2.9638107E1,3.7107838E1,-1.3941589E-1,1.1465048E1,2.0884308E1,2.3422398E1,3.1808153E1,-7.875234E-2,-0E0,-1.4978983E-1,-0E0,-0E0,-3.2099802E-2,2.078228E1,2.1194397E1,2.2567518E1,2.8220263E1,3.1568092E1,3.1836689E1,-0E0,-1.793321E-2,2.0689209E1,2.0789904E1,-3.8186528E-2,2.1361748E1,2.2243101E1,2.2658226E1,2.4740547E1,2.827886E1,3.151207E1,3.1772758E1,6.0657706E-2,3.199242E1,2.058517E1,2.0736588E1,8.3893165E-2,2.0854378E1,2.129638E1,2.2059868E1,2.2175896E1,2.2558327E1,2.2635538E1,2.3405445E1,2.4608345E1,2.6183846E1,-2.4613474E-2,2.9456375E1,3.1068577E1,-0E0,-1.1593696E-1,-0E0,3.188232E1,3.2198185E1,-0E0,2.061298E1,2.072375E1,-3.3081125E-2,-7.4850977E-3,3.1697113E-2,2.1213081E1,3.9523035E-2,2.1524258E1,-5.4518722E-2,2.216487E1,-2.2055704E-2,2.2522379E1,8.0550864E-2,-4.9112674E-2,2.2644888E1,2.2880096E1,-5.1023502E-2,2.3701746E1,2.4718441E1,2.3909207E-2,2.7714493E1,-0E0,-2.817428E-2,2.9313684E1,2.2755291E-2,3.0533339E1,3.1145977E1,-0E0,-4.2659454E-2,3.1615354E-2,3.2308662E1,4.2803474E-2,-0E0,-3.4371387E-2,2.9035168E-2,-0E0,-1.9882942E-2,2.1968085E-2,-1.47244865E-2,-2.9270336E-2,-9.442005E-4,-6.128292E-2,-0E0,-0E0,6.0796276E-2,2.1511458E-2,-0E0,5.0999285E-3,-6.460615E-2,1.5269652E-2,-0E0,2.4693815E-2,1.0342976E-2,-2.6428146E-2,-0E0,8.560534E-3,2.5108848E-2,7.3089455E-3,-1.84487E-2,2.7889809E-2,-0E0,-1.6329808E-2,-0E0,-1.04909144E-1,-9.133097E-3,-3.9411183E-2,-0E0],"split_indices":[7,7,7,7,7,7,7,7,7,7,7,0,0,2147483647,2147483647,0,0,7,7,7,7,7,7,2147483647,2147483647,7,7,0,7,7,7,7,7,7,7,0,7,7,7,0,7,7,7,7,7,7,7,7,7,7,7,7,0,0,0,7,7,0,7,7,0,7,0,7,0,7,7,7,0,7,0,0,7,7,0,7,7,0,7,2147483647,2147483647,7,7,7,7,0,0,0,7,0,0,0,0,2147483647,2147483647,0,0,0,0,2147483647,2147483647,0,0,0,0,0,0,0,0,0,0,0,0,0,0,0,0,2147483647,2147483647,0,0,0,0,0,0],"split_type":[0,0,0,0,0,0,0,0,0,0,0,0,0,0,0,0,0,0,0,0,0,0,0,0,0,0,0,0,0,0,0,0,0,0,0,0,0,0,0,0,0,0,0,0,0,0,0,0,0,0,0,0,0,0,0,0,0,0,0,0,0,0,0,0,0,0,0,0,0,0,0,0,0,0,0,0,0,0,0,0,0,0,0,0,0,0,0,0,0,0,0,0,0,0,0,0,0,0,0,0,0,0,0,0,0,0,0,0,0,0,0,0,0,0,0,0,0,0,0,0,0,0,0,0,0],"sum_hessian":[1.0630819E5,1.0171734E5,4.5908423E3,1.9782773E4,8.193457E4,3.6495142E3,9.4132837E2,9.584015E3,1.0198758E4,7.370918E4,8.225397E3,3.454876E3,1.9463823E2,8.1703723E2,1.2429113E2,3.1197155E1,9.552817E3,2.0355529E3,8.163205E3,1.2910069E4,6.0799105E4,6.880752E3,1.3446454E3,6.424458E0,1.1786668E2,1.3716095E3,6.639433E2,1.65302E3,6.5101846E3,4.366207E3,8.543862E3,5.2313582E4,8.485522E3,6.452086E3,4.2866577E2,1.06882454E2,1.237763E3,8.9948773E2,4.7212183E2,9.916822E1,5.647751E2,1.2155851E3,5.2945996E3,1.2039048E3,3.1623025E3,7.233468E2,7.8205156E3,1.5536634E4,3.677695E4,3.5118246E2,8.13434E3,6.2835723E3,1.6851405E2,3.5662888E2,7.2036896E1,2.7808453E2,9.596784E2,2.897552E2,6.0973254E2,2.6919373E2,2.029281E2,3.5052747E2,2.1424763E2,6.640498E2,5.515353E2,5.0141055E3,2.8049402E2,6.714332E2,5.3247156E2,2.9975024E3,1.6479999E2,5.185483E2,2.0479855E2,7.679003E3,1.4151273E2,1.407139E4,1.4652437E3,1.7649867E4,1.9127084E4,4.207342E1,3.0910904E2,7.1683765E3,9.6596344E2,5.2121343E3,1.0714377E3,1.0713215E2,1.7095241E2,5.5487115E2,4.0480725E2,2.0714531E2,4.0258725E2,1.6506155E2,1.0413217E2,2.1371432E2,1.3681314E2,1.7539032E2,4.886595E2,1.024539E3,3.9895667E3,2.3423267E2,4.626135E1,5.258121E2,1.4562115E2,2.6872554E3,3.10247E2,1.2634929E2,7.844926E1,2.260922E3,5.4180806E3,3.3448635E3,1.0726526E4,1.1982603E3,2.6698343E2,1.4858879E4,4.2682046E3,6.515174E3,6.5320264E2,7.786396E2,1.8732385E2,3.4739465E3,1.7381879E3,1.442871E2,9.2715063E2,1.6787996E2,2.3692728E2],"tree_param":{"num_deleted":"12","num_feature":"19","num_nodes":"125","size_leaf_vector":"0"}},{"base_weights":[-0E0,-1.5437795E-1,8.191028E-1],"categories":[],"categories_nodes":[],"categories_segments":[],"categories_sizes":[],"default_left":[true,false,false],"id":30,"left_children":[1,-1,-1],"loss_changes":[1.3422346E4,0E0,0E0],"parents":[2147483647,0,0],"right_children":[2,-1,-1],"split_conditions":[5E-1,-2.3156693E-2,1.2286543E-1],"split_indices":[1,0,0],"split_type":[0,0,0],"sum_hessian":[1.0615871E5,8.93272E4,1.683151E4],"tree_param":{"num_deleted":"0","num_feature":"19","num_nodes":"3","size_leaf_vector":"0"}},{"base_weights":[-0E0,-1.3139491E-1,7.200579E-1],"categories":[],"categories_nodes":[],"categories_segments":[],"categories_sizes":[],"default_left":[true,false,false],"id":31,"left_children":[1,-1,-1],"loss_changes":[1.0001178E4,0E0,0E0],"parents":[2147483647,0,0],"right_children":[2,-1,-1],"split_conditions":[5E-1,-1.9709237E-2,1.0800869E-1],"split_indices":[1,0,0],"split_type":[0,0,0],"sum_hessian":[1.0553601E5,8.9218586E4,1.631743E4],"tree_param":{"num_deleted":"0","num_feature":"19","num_nodes":"3","size_leaf_vector":"0"}},{"base_weights":[-0E0,-2.0372756E-2,4.718665E-3],"categories":[],"categories_nodes":[],"categories_segments":[],"categories_sizes":[],"default_left":[true,false,false],"id":32,"left_children":[1,-1,-1],"loss_changes":[9.3060665E0,0E0,0E0],"parents":[2147483647,0,0],"right_children":[2,-1,-1],"split_conditions":[5E-1,-3.0559136E-3,7.077998E-4],"split_indices":[2,0,0],"split_type":[0,0,0],"sum_hessian":[1.0490673E5,1.7744633E4,8.716209E4],"tree_param":{"num_deleted":"0","num_feature":"19","num_nodes":"3","size_leaf_vector":"0"}},{"base_weights":[-0E0,1.9673556E-1,-2.0772485E-1],"categories":[],"categories_nodes":[],"categories_segments":[],"categories_sizes":[],"default_left":[true,false,false],"id":33,"left_children":[1,-1,-1],"loss_changes":[4.2868496E3,0E0,0E0],"parents":[2147483647,0,0],"right_children":[2,-1,-1],"split_conditions":[5E-1,2.9510336E-2,-3.1158729E-2],"split_indices":[12,0,0],"split_type":[0,0,0],"sum_hessian":[1.049073E5,5.3983438E4,5.0923863E4],"tree_param":{"num_deleted":"0","num_feature":"19","num_nodes":"3","size_leaf_vector":"0"}},{"base_weights":[-0E0,1.65903E-1,-2.3008826E-1],"categories":[],"categories_nodes":[],"categories_segments":[],"categories_sizes":[],"default_left":[true,false,false],"id":34,"left_children":[1,-1,-1],"loss_changes":[4.000488E3,0E0,0E0],"parents":[2147483647,0,0],"right_children":[2,-1,-1],"split_conditions":[5E-1,2.4885451E-2,-3.4513243E-2],"split_indices":[8,0,0],"split_type":[0,0,0],"sum_hessian":[1.0485851E5,6.1017324E4,4.384118E4],"tree_param":{"num_deleted":"0","num_feature":"19","num_nodes":"3","size_leaf_vector":"0"}},{"base_weights":[-0E0,-5.2615356E-2,8.92388E-2,2.3916204E-2,-1.6985512E-1,1.3136242E-2,1.0172388E-1,-2.0621935E-2,4.316585E-2,-1.979371E-1,-1.1553406E-1,6.8321325E-2,-7.01945E-2,2.1111582E-1,7.064313E-2,6.4628996E-2,-1.2565668E-1,5.955479E-2,-2.849586E-2,-1.8744524E-1,-4.855181E-1,2.596816E-1,-1.4867876E-1,2.022517E-1,2.5795352E-2,-1.8000188E-1,-0E0,3.0120406E-1,1.6200632E-1,3.804264E-2,1.574257E-1,-0E0,7.829844E-2,-1.6208686E-1,-4.756934E-3,7.761308E-2,3.1759035E-2,-7.7244475E-2,1.9480694E-2,-1.9384886E-1,-0E0,-5.453893E-1,-0E0,-5.0324744E-1,-1.2849675E-1,-1.2420074E-3,9.085102E-2,2.3723863E-2,-2.9182183E-2,1.1559951E-1,3.9414856E-1,-0E0,1.77425E-1,5.1466826E-2,-2.8968362E-2,1.7026812E-1,-0E0,1.1472708E-1,-1.206955E-2,-0E0,-3.5037253E-2,3.17515E-2,1.250687E-1,-1.20046325E-1,7.062384E-2,7.855715E-2,-0E0,8.77423E-2,-1.5303001E-1,-8.416186E-2,-0E0,-0E0,2.5520533E-2,-1.2535314E-1,-0E0,2.0783532E-1,-2.5277538E-2,-1.1357611E-1,5.913731E-2,-1.4478722E-1,2.8254682E-2,-3.58742E-2,-0E0,-8.464971E-2,-0E0,1.0076864E-1,-0E0,-1.5412816E-1,-0E0,-0E0,8.17504E-2,-6.388168E-1,2.913432E-3,-2.2435908E-1,-1.0101006E-1,8.64405E-2,-2.3694918E-2,1.7664386E-2,-7.495722E-2,3.472323E-2,8.89854E-2,-1.1596323E-2,-3.0950797E-1,9.310227E-2,-0E0,-9.7029746E-2,1.8520324E-2,-0E0,1.0905937E-2,-0E0,-2.2981451E-1,-0E0,-1.2790395E-1,-0E0,-1.2571992E-1,9.7112216E-2,1.5264663E-3,1.897738E-1,4.237274E-2,-2.3999615E-2,-0E0,-0E0,1.261719E-1,-7.508826E-3,-0E0],"categories":[],"categories_nodes":[],"categories_segments":[],"categories_sizes":[],"default_left":[true,true,true,true,true,true,true,true,true,true,true,true,true,true,true,true,true,true,true,true,true,false,true,false,true,false,true,true,true,true,true,true,true,false,true,true,true,false,true,false,false,true,true,false,true,true,false,true,true,true,false,false,false,true,true,false,true,true,true,true,true,true,false,true,false,true,true,false,true,true,true,true,true,true,true,false,false,false,true,true,true,true,true,true,true,false,true,true,true,true,true,false,true,true,true,true,true,true,true,true,true,true,true,true,true,false,false,true,true,true,true,false,false,true,true,false,false,false,false,true,true,true,true,true,true],"id":35,"left_children":[1,3,5,7,9,11,13,15,17,19,21,23,25,27,29,-1,33,35,37,39,-1,-1,43,-1,45,-1,-1,49,51,53,55,-1,-1,-1,-1,61,63,-1,65,-1,-1,-1,-1,-1,67,-1,-1,-1,-1,75,-1,-1,-1,77,79,-1,-1,-1,-1,-1,-1,85,-1,-1,-1,-1,91,-1,93,-1,-1,-1,-1,-1,-1,-1,-1,-1,99,-1,103,-1,-1,-1,-1,-1,105,-1,-1,-1,-1,-1,-1,-1,111,-1,-1,-1,-1,115,117,-1,-1,-1,-1,-1,-1,-1,-1,-1,-1,-1,-1,-1,-1,-1,-1,-1,-1,-1,-1,-1,-1,-1,-1],"loss_changes":[4.9285043E2,5.9839343E2,2.9985168E1,3.519657E1,2.060315E1,2.842402E1,9.4207794E1,1.0161989E2,3.5396473E1,8.146362E0,1.13846725E2,9.669662E0,1.4146056E1,1.4343567E0,6.150386E1,3.5510674E0,1.2649605E1,5.211754E0,1.4343151E1,2.0082764E1,2.0541916E0,0E0,2.5666824E1,0E0,1.1757866E1,0E0,9.3225837E-1,2.1943207E0,1.0390327E1,1.8883034E1,2.3689346E1,3.6710672E0,0E0,0E0,5.9515923E-1,1.8856697E1,6.045784E1,0E0,5.1229463E0,0E0,0E0,0E0,0E0,0E0,5.0468445E1,2.4507613E0,0E0,1.1145651E-2,2.2116046E0,2.2740614E1,0E0,0E0,0E0,1.8109577E1,2.3626102E1,0E0,1.3688068E-1,0E0,1.4008728E0,0E0,0E0,2.0326614E1,0E0,2.254797E0,0E0,2.3683453E-1,2.7222494E1,0E0,9.912704E0,0E0,4.7068963E0,0E0,0E0,0E0,6.527616E-1,0E0,0E0,0E0,4.4032135E0,5.9019356E0,7.8522515E0,0E0,0E0,0E0,0E0,0E0,1.1591309E1,0E0,0E0,0E0,0E0,0E0,6.975474E-2,2.8409882E0,2.1853935E1,0E0,1.6250293E0,0E0,0E0,1.5133924E1,1.52572975E1,3.758341E-1,0E0,1.8891163E0,1.1378249E-2,0E0,0E0,0E0,0E0,0E0,0E0,0E0,0E0,0E0,0E0,0E0,0E0,0E0,0E0,0E0,0E0,0E0,0E0,0E0,0E0],"parents":[2147483647,0,0,1,1,2,2,3,3,4,4,5,5,6,6,7,7,8,8,9,9,10,10,11,11,12,12,13,13,14,14,15,15,16,16,17,17,18,18,19,19,20,20,22,22,24,24,26,26,27,27,28,28,29,29,30,30,31,31,34,34,35,35,36,36,38,38,44,44,45,45,47,47,48,48,49,49,53,53,54,54,56,56,58,58,61,61,63,63,65,65,66,66,68,68,70,70,74,74,78,78,79,79,80,80,86,86,92,92,93,93,94,94,96,96,99,99,100,100,101,101,103,103,104,104],"right_children":[2,4,6,8,10,12,14,16,18,20,22,24,26,28,30,-1,34,36,38,40,-1,-1,44,-1,46,-1,-1,50,52,54,56,-1,-1,-1,-1,62,64,-1,66,-1,-1,-1,-1,-1,68,-1,-1,-1,-1,76,-1,-1,-1,78,80,-1,-1,-1,-1,-1,-1,86,-1,-1,-1,-1,92,-1,94,-1,-1,-1,-1,-1,-1,-1,-1,-1,100,-1,104,-1,-1,-1,-1,-1,106,-1,-1,-1,-1,-1,-1,-1,112,-1,-1,-1,-1,116,118,-1,-1,-1,-1,-1,-1,-1,-1,-1,-1,-1,-1,-1,-1,-1,-1,-1,-1,-1,-1,-1,-1,-1,-1],"split_conditions":[1.3799982E2,1.08000336E2,1.4543417E2,6.883508E1,1.2699913E2,1.4245685E2,1.5593695E2,5.75E1,1.0224953E2,1.2600041E2,1.2700539E2,1.3800249E2,1.4381564E2,1.479971E2,2.5674945E2,9.69435E-3,6.55E1,8.701988E1,1.0683498E2,1.2591263E2,-7.282772E-2,3.8952243E-2,1.2785161E2,3.0337756E-2,1.4043384E2,-2.7000284E-2,-0E0,1.4643457E2,1.4841913E2,2.2804565E2,8.3E2,-0E0,1.17447665E-2,-2.431303E-2,-7.135401E-4,7.9825775E1,9.099806E1,-1.1586672E-2,1.070286E2,-2.907733E-2,-0E0,-8.1808396E-2,-0E0,-7.548712E-2,1.2800046E2,-1.8630111E-4,1.3627653E-2,3.5585796E-3,-4.3773274E-3,1.4602432E2,5.9122287E-2,-0E0,2.6613751E-2,1.5693466E2,2.4150671E2,2.554022E-2,-0E0,1.7209062E-2,-1.8104326E-3,-0E0,-5.2555883E-3,7.214191E1,1.8760305E-2,-1.8006949E-2,1.0593576E-2,1.1783573E-2,1.0772815E2,1.3161345E-2,1.3163596E2,-1.262428E-2,-0E0,-0E0,3.8280801E-3,-1.8802973E-2,-0E0,3.1175299E-2,-3.791631E-3,-1.7036417E-2,1.906419E2,-2.1718085E-2,2.5211636E2,-5.38113E-3,-0E0,-1.2697457E-2,-0E0,1.51152965E-2,7.478023E1,-2.3119226E-2,-0E0,-0E0,1.226256E-2,-9.582252E-2,4.3701482E-4,-3.3653863E-2,1.3200044E2,1.2966076E-2,-3.5542378E-3,2.649658E-3,-1.1243584E-2,1.632666E2,1.9700728E2,-1.7394485E-3,-4.6426196E-2,1.3965341E-2,-0E0,-1.4554462E-2,2.7780486E-3,-0E0,1.6358907E-3,-0E0,-3.447218E-2,-0E0,-1.9185593E-2,-0E0,-1.885799E-2,1.4566833E-2,2.2896996E-4,2.846607E-2,6.3559115E-3,-3.5999424E-3,-0E0,-0E0,1.8925786E-2,-1.126324E-3,-0E0],"split_indices":[18,18,18,18,18,18,18,18,18,18,18,18,18,18,18,18,18,18,18,18,18,0,18,0,18,0,18,18,18,18,18,2147483647,2147483647,0,18,18,18,0,18,0,0,2147483647,2147483647,0,18,18,0,2147483647,2147483647,18,0,0,0,18,18,0,18,2147483647,2147483647,2147483647,2147483647,18,0,18,0,18,18,0,18,2147483647,2147483647,2147483647,2147483647,2147483647,2147483647,0,0,0,18,18,18,2147483647,2147483647,2147483647,2147483647,0,18,2147483647,2147483647,2147483647,2147483647,0,18,18,18,2147483647,2147483647,2147483647,2147483647,18,18,2147483647,2147483647,18,18,0,0,2147483647,2147483647,2147483647,2147483647,0,0,2147483647,2147483647,0,0,0,0,2147483647,2147483647,2147483647,2147483647,2147483647,2147483647],"split_type":[0,0,0,0,0,0,0,0,0,0,0,0,0,0,0,0,0,0,0,0,0,0,0,0,0,0,0,0,0,0,0,0,0,0,0,0,0,0,0,0,0,0,0,0,0,0,0,0,0,0,0,0,0,0,0,0,0,0,0,0,0,0,0,0,0,0,0,0,0,0,0,0,0,0,0,0,0,0,0,0,0,0,0,0,0,0,0,0,0,0,0,0,0,0,0,0,0,0,0,0,0,0,0,0,0,0,0,0,0,0,0,0,0,0,0,0,0,0,0,0,0,0,0,0,0],"sum_hessian":[1.0473562E5,6.568175E4,3.905387E4,3.9420723E4,2.6261023E4,6.204209E3,3.284966E4,1.0924248E4,2.8496475E4,1.6557434E4,9.703591E3,4.1801455E3,2.0240632E3,6.8256123E3,2.6024049E4,5.704402E3,5.219846E3,2.3896682E4,4.599794E3,1.6184225E4,3.732082E2,6.352137E2,9.068377E3,6.551481E2,3.5249976E3,7.4355493E2,1.2805083E3,1.9608818E3,4.8647305E3,1.9437924E4,6.586125E3,1.2389882E3,4.465414E3,3.616838E3,1.6030083E3,1.3132461E4,1.076422E4,2.9222278E3,1.6775658E3,1.5666996E4,5.1722815E2,3.0246487E2,7.0743324E1,3.2164053E2,8.746736E3,1.817563E3,1.7074346E3,5.5280023E2,7.27708E2,8.776254E2,1.0832563E3,4.7887665E2,4.385854E3,1.6964842E4,2.4730815E3,6.447056E3,1.3906892E2,2.6714066E2,9.718475E2,1.0896301E3,5.1337823E2,7.343644E3,5.7888174E3,1.8685045E3,8.895715E3,9.3235724E2,7.452086E2,6.3347296E2,8.1132637E3,3.4539145E2,1.4721715E3,5.811838E1,4.9468185E2,1.7923918E2,5.484689E2,7.960536E2,8.157185E1,3.9384702E2,1.6570994E4,1.1756095E3,1.2974722E3,1.0535984E2,3.3709084E1,2.1427814E2,7.5756934E2,2.7299734E3,4.6136704E3,1.2280402E3,6.4046436E2,3.6054E1,8.963032E2,6.5693436E1,6.795152E2,2.9175686E3,5.1956953E3,5.603512E2,9.1182025E2,4.5882654E2,8.9642334E1,1.0259027E4,6.3119683E3,8.58723E2,3.1688644E2,1.0244757E3,2.7299646E2,1.1022163E3,3.5114543E3,4.5477757E1,6.340374E2,8.312798E1,2.8344407E3,6.197621E2,4.575933E3,7.7758057E2,1.3423973E2,2.9136409E3,7.3453857E3,1.5744421E3,4.737526E3,8.522308E2,6.492237E0,3.4843964E2,6.76036E2,2.0080473E2,7.219172E1],"tree_param":{"num_deleted":"42","num_feature":"19","num_nodes":"125","size_leaf_vector":"0"}},{"base_weights":[-0E0,-1.1410474E-1,6.445973E-1],"categories":[],"categories_nodes":[],"categories_segments":[],"categories_sizes":[],"default_left":[true,false,false],"id":36,"left_children":[1,-1,-1],"loss_changes":[7.7264795E3,0E0,0E0],"parents":[2147483647,0,0],"right_children":[2,-1,-1],"split_conditions":[5E-1,-1.7115712E-2,9.66896E-2],"split_indices":[1,0,0],"split_type":[0,0,0],"sum_hessian":[1.04658016E5,8.884773E4,1.5810286E4],"tree_param":{"num_deleted":"0","num_feature":"19","num_nodes":"3","size_leaf_vector":"0"}},{"base_weights":[6.720012E-5,1.4501475E-1,-2.005966E-1],"categories":[],"categories_nodes":[],"categories_segments":[],"categories_sizes":[],"default_left":[true,false,false],"id":37,"left_children":[1,-1,-1],"loss_changes":[3.0229407E3,0E0,0E0],"parents":[2147483647,0,0],"right_children":[2,-1,-1],"split_conditions":[5E-1,2.1752212E-2,-3.0089492E-2],"split_indices":[8,0,0],"split_type":[0,0,0],"sum_hessian":[1.0404858E5,6.059072E4,4.3457863E4],"tree_param":{"num_deleted":"0","num_feature":"19","num_nodes":"3","size_leaf_vector":"0"}},{"base_weights":[-0E0,1.23355485E-1,-1.7089325E-1],"categories":[],"categories_nodes":[],"categories_segments":[],"categories_sizes":[],"default_left":[true,false,false],"id":38,"left_children":[1,-1,-1],"loss_changes":[2.1879172E3,0E0,0E0],"parents":[2147483647,0,0],"right_children":[2,-1,-1],"split_conditions":[5E-1,1.8503323E-2,-2.5633989E-2],"split_indices":[8,0,0],"split_type":[0,0,0],"sum_hessian":[1.0391633E5,6.054877E4,4.336756E4],"tree_param":{"num_deleted":"0","num_feature":"19","num_nodes":"3","size_leaf_vector":"0"}},{"base_weights":[-0E0,-7.223732E-1,1.3269214E-1],"categories":[],"categories_nodes":[],"categories_segments":[],"categories_sizes":[],"default_left":[true,false,false],"id":39,"left_children":[1,-1,-1],"loss_changes":[9.919562E3,0E0,0E0],"parents":[2147483647,0,0],"right_children":[2,-1,-1],"split_conditions":[5E-1,-1.08355984E-1,1.9903822E-2],"split_indices":[3,0,0],"split_type":[0,0,0],"sum_hessian":[1.0378247E5,1.6048096E4,8.7734375E4],"tree_param":{"num_deleted":"0","num_feature":"19","num_nodes":"3","size_leaf_vector":"0"}},{"base_weights":[-0E0,6.018011E-2,-2.3800705E-1],"categories":[],"categories_nodes":[],"categories_segments":[],"categories_sizes":[],"default_left":[true,false,false],"id":40,"left_children":[1,-1,-1],"loss_changes":[1.4766697E3,0E0,0E0],"parents":[2147483647,0,0],"right_children":[2,-1,-1],"split_conditions":[5E-1,9.027016E-3,-3.570106E-2],"split_indices":[11,0,0],"split_type":[0,0,0],"sum_hessian":[1.0336881E5,8.258184E4,2.0786975E4],"tree_param":{"num_deleted":"0","num_feature":"19","num_nodes":"3","size_leaf_vector":"0"}},{"base_weights":[-0E0,2.9026918E-2,-2.0944218E-1],"categories":[],"categories_nodes":[],"categories_segments":[],"categories_sizes":[],"default_left":[true,false,false],"id":41,"left_children":[1,-1,-1],"loss_changes":[6.250015E2,0E0,0E0],"parents":[2147483647,0,0],"right_children":[2,-1,-1],"split_conditions":[5E-1,4.354038E-3,-3.141633E-2],"split_indices":[10,0,0],"split_type":[0,0,0],"sum_hessian":[1.0335005E5,9.084808E4,1.2501969E4],"tree_param":{"num_deleted":"0","num_feature":"19","num_nodes":"3","size_leaf_vector":"0"}},{"base_weights":[-0E0,-9.7842894E-2,5.670135E-1],"categories":[],"categories_nodes":[],"categories_segments":[],"categories_sizes":[],"default_left":[true,false,false],"id":42,"left_children":[1,-1,-1],"loss_changes":[5.738119E3,0E0,0E0],"parents":[2147483647,0,0],"right_children":[2,-1,-1],"split_conditions":[5E-1,-1.4676435E-2,8.505203E-2],"split_indices":[1,0,0],"split_type":[0,0,0],"sum_hessian":[1.0330192E5,8.8077875E4,1.5224052E4],"tree_param":{"num_deleted":"0","num_feature":"19","num_nodes":"3","size_leaf_vector":"0"}},{"base_weights":[-0E0,-4.588591E-2,1.0122879E-1,1.7980453E-2,-1.251171E-1,1.8081036E-1,7.80271E-2,-2.6229165E-2,3.709776E-2,-1.6035452E-1,-0E0,4.531624E-2,1.4980154E-1,4.610144E-2,-1.17527716E-1,5.1656075E-2,-2.4605097E-2,-1.8025191E-1,-1.1587409E-1,2.8009377E-2,-6.634773E-2,5.987105E-2,-7.549032E-2,1.6017602E-1,-0E0,-0E0,6.038965E-2,-1.5002772E-1,-4.8118695E-3,6.686192E-2,2.7253097E-2,-7.033272E-2,1.9441888E-2,-1.6994168E-1,-4.553967E-1,2.010972E-1,-1.479427E-1,-6.55955E-3,5.0447352E-2,-1.6802529E-1,-0E0,-9.052097E-2,6.725348E-2,-1.05859146E-1,-0E0,8.9179255E-2,-3.1435687E-2,-0E0,-4.0377654E-2,2.3938848E-2,1.1021343E-1,-1.0305277E-1,6.1694395E-2,7.52838E-2,-0E0,-1.7619875E-1,-0E0,-5.1563317E-1,-0E0,-4.754143E-1,-1.2643927E-1,-0E0,-2.0115922E-1,1.8611616E-1,7.2815493E-3,3.39713E-2,-3.8298402E-2,3.831852E-2,8.9133576E-2,-0E0,-2.6818797E-1,-1.1446166E-1,-0E0,1.5038362E-1,-0E0,-1.3805698E-1,-0E0,6.173295E-2,-0E0,-5.875553E-1,4.6008704E-3,-1.20664544E-1,-2.0320404E-1,9.548087E-2,-1.5464666E-1,-2.3110956E-1,-0E0,-1.20760635E-1,4.1165117E-2,-0E0,3.9199885E-2,-1.7435509E-1,-0E0,6.1141726E-2,-3.0580588E-2,9.436792E-2,-0E0,1.5958956E-2,-8.1027895E-2,-0E0,1.6324885E-2,-1.891159E-1,2.1458262E-1,-3.2906422E-1,-1.4162299E-1,-2.1014327E-1,-1.0248265E-1,-0E0,6.797648E-2,4.3121498E-2,-0E0,2.7988615E-2,-1.0245846E-1,1.97299E-1,4.1384544E-2,-1.793743E-1,-0E0,-0E0,5.4750152E-2],"categories":[],"categories_nodes":[],"categories_segments":[],"categories_sizes":[],"default_left":[true,true,true,true,true,false,true,true,true,true,true,true,true,true,true,true,true,true,true,true,true,true,true,false,false,true,true,false,true,true,true,false,true,true,true,false,true,true,true,false,true,false,true,true,false,true,true,true,true,true,false,true,true,false,true,true,false,true,true,false,true,false,true,false,true,true,true,true,true,false,false,true,true,false,true,true,true,true,true,false,true,true,true,false,true,true,true,false,true,true,true,true,true,true,true,true,true,true,true,true,true,false,false,false,false,true,true,true,true,true,